tree
version=v4
num_class=1
num_tree_per_iteration=1
label_index=0
max_feature_idx=808
objective=regression
feature_names=bid_qty ask_qty buy_qty sell_qty volume X1 X2 X3 X4 X5 X6 X7 X8 X9 X10 X11 X12 X13 X14 X15 X16 X17 X18 X19 X20 X21 X22 X23 X24 X25 X26 X27 X28 X29 X30 X31 X32 X33 X34 X35 X36 X37 X38 X39 X40 X41 X42 X43 X44 X45 X46 X47 X48 X49 X50 X51 X52 X53 X54 X55 X56 X57 X58 X59 X60 X61 X62 X63 X64 X65 X66 X67 X68 X69 X70 X71 X72 X73 X74 X75 X76 X77 X78 X79 X80 X81 X82 X83 X84 X85 X86 X87 X88 X89 X90 X91 X92 X93 X94 X95 X96 X97 X98 X99 X100 X101 X102 X103 X104 X105 X106 X107 X108 X109 X110 X111 X112 X113 X114 X115 X116 X117 X118 X119 X120 X121 X122 X123 X124 X125 X126 X127 X128 X129 X130 X131 X132 X133 X134 X135 X136 X137 X138 X139 X140 X141 X142 X143 X144 X145 X146 X147 X148 X149 X150 X151 X152 X153 X154 X155 X156 X157 X158 X159 X160 X161 X162 X163 X164 X165 X166 X167 X168 X169 X170 X171 X172 X173 X174 X175 X176 X177 X178 X179 X180 X181 X182 X183 X184 X185 X186 X187 X188 X189 X190 X191 X192 X193 X194 X195 X196 X197 X198 X199 X200 X201 X202 X203 X204 X205 X206 X207 X208 X209 X210 X211 X212 X213 X214 X215 X216 X217 X218 X219 X220 X221 X222 X223 X224 X225 X226 X227 X228 X229 X230 X231 X232 X233 X234 X235 X236 X237 X238 X239 X240 X241 X242 X243 X244 X245 X246 X247 X248 X249 X250 X251 X252 X253 X254 X255 X256 X257 X258 X259 X260 X261 X262 X263 X264 X265 X266 X267 X268 X269 X270 X271 X272 X273 X274 X275 X276 X277 X278 X279 X280 X281 X282 X283 X284 X285 X286 X287 X288 X289 X290 X291 X292 X293 X294 X295 X296 X297 X298 X299 X300 X301 X302 X303 X304 X305 X306 X307 X308 X309 X310 X311 X312 X313 X314 X315 X316 X317 X318 X319 X320 X321 X322 X323 X324 X325 X326 X327 X328 X329 X330 X331 X332 X333 X334 X335 X336 X337 X338 X339 X340 X341 X342 X343 X344 X345 X346 X347 X348 X349 X350 X351 X352 X353 X354 X355 X356 X357 X358 X359 X360 X361 X362 X363 X364 X365 X366 X367 X368 X369 X370 X371 X372 X373 X374 X375 X376 X377 X378 X379 X380 X381 X382 X383 X384 X385 X386 X387 X388 X389 X390 X391 X392 X393 X394 X395 X396 X397 X398 X399 X400 X401 X402 X403 X404 X405 X406 X407 X408 X409 X410 X411 X412 X413 X414 X415 X416 X417 X418 X419 X420 X421 X422 X423 X424 X425 X426 X427 X428 X429 X430 X431 X432 X433 X434 X435 X436 X437 X438 X439 X440 X441 X442 X443 X444 X445 X446 X447 X448 X449 X450 X451 X452 X453 X454 X455 X456 X457 X458 X459 X460 X461 X462 X463 X464 X465 X466 X467 X468 X469 X470 X471 X472 X473 X474 X475 X476 X477 X478 X479 X480 X481 X482 X483 X484 X485 X486 X487 X488 X489 X490 X491 X492 X493 X494 X495 X496 X497 X498 X499 X500 X501 X502 X503 X504 X505 X506 X507 X508 X509 X510 X511 X512 X513 X514 X515 X516 X517 X518 X519 X520 X521 X522 X523 X524 X525 X526 X527 X528 X529 X530 X531 X532 X533 X534 X535 X536 X537 X538 X539 X540 X541 X542 X543 X544 X545 X546 X547 X548 X549 X550 X551 X552 X553 X554 X555 X556 X557 X558 X559 X560 X561 X562 X563 X564 X565 X566 X567 X568 X569 X570 X571 X572 X573 X574 X575 X576 X577 X578 X579 X580 X581 X582 X583 X584 X585 X586 X587 X588 X589 X590 X591 X592 X593 X594 X595 X596 X597 X598 X599 X600 X601 X602 X603 X604 X605 X606 X607 X608 X609 X610 X611 X612 X613 X614 X615 X616 X617 X618 X619 X620 X621 X622 X623 X624 X625 X626 X627 X628 X629 X630 X631 X632 X633 X634 X635 X636 X637 X638 X639 X640 X641 X642 X643 X644 X645 X646 X647 X648 X649 X650 X651 X652 X653 X654 X655 X656 X657 X658 X659 X660 X661 X662 X663 X664 X665 X666 X667 X668 X669 X670 X671 X672 X673 X674 X675 X676 X677 X678 X679 X680 X681 X682 X683 X684 X685 X686 X687 X688 X689 X690 X691 X692 X693 X694 X695 X696 X697 X698 X699 X700 X701 X702 X703 X704 X705 X706 X707 X708 X709 X710 X711 X712 X713 X714 X715 X716 X717 X718 X719 X720 X721 X722 X723 X724 X725 X726 X727 X728 X729 X730 X731 X732 X733 X734 X735 X736 X737 X738 X739 X740 X741 X742 X743 X744 X745 X746 X747 X748 X749 X750 X751 X752 X753 X754 X755 X756 X757 X758 X759 X760 X761 X762 X763 X764 X765 X766 X767 X768 X769 X770 X771 X772 X773 X774 X775 X776 X777 X778 X779 X780 book_total_qty trade_total_qty book_imbalance trade_imbalance volume_per_book_qty volume_per_trade_qty log_volume volume_lag1 volume_lag5 volume_lag10 volume_rollmean5 book_imbalance_lag1 book_imbalance_lag5 book_imbalance_lag10 book_imbalance_rollmean5 trade_imbalance_lag1 trade_imbalance_lag5 trade_imbalance_lag10 trade_imbalance_rollmean5 X466_lag1 X33_lag1 X752_lag1 X272_lag1 X758_lag1
feature_infos=[0.0010000000474974513:1114.9320068359375] [0.0010000000474974513:993.5250244140625] [0:17609.56640625] [0:15574.6328125] [0:28685.345703125] [-4.1476030349731445:4.8481864929199219] [-7.1781964302062988:9.3954334259033203] [-6.1251621246337891:7.849541187286377] [-5.5623359680175781:6.9416995048522949] [-4.9888176918029785:6.3585009574890137] [-4.670924186706543:5.7221264839172363] [-4.4739551544189453:5.3811674118041992] [-4.3262233734130859:5.155555248260498] [-3.9435617923736572:3.7155840396881104] [-8.3920469284057617:10.454862594604492] [-7.4622445106506348:8.0521392822265625] [-6.1422171592712402:6.7388339042663574] [-5.2601137161254883:5.8790440559387207] [-4.3647680282592773:5.0007052421569824] [-3.9749956130981445:4.6096177101135254] [-3.9317803382873535:4.3346757888793945] [-3.2949872016906738:3.1921656131744385] [-16.12006950378418:19.585250854492188] [-12.647032737731934:15.203801155090332] [-10.244500160217285:11.383847236633301] [-8.0956201553344727:8.1538028717041016] [-6.6754550933837891:6.0834879875183105] [-5.6610803604125977:5.2558059692382812] [-4.7346701622009277:4.4497041702270508] [-3.2452547550201416:2.6584835052490234] [-17.730539321899414:25.617166519165039] [-14.425519943237305:18.717031478881836] [-12.767160415649414:14.681242942810059] [-11.852538108825684:11.364195823669434] [-9.5118570327758789:7.7447733879089355] [-7.446558952331543:6.3820610046386719] [-5.568730354309082:5.1937055587768555] [-4.7212333679199219:4.9544687271118164] [-4.0716590881347656:5.3459153175354004] [-4.6045894622802734:4.6567282676696777] [-3.825023889541626:5.1553092002868652] [-4.3247690200805664:4.3876814842224121] [-3.5750946998596191:4.7516422271728516] [-3.276561975479126:3.8179416656494141] [-2.4441385269165039:3.6012499332427979] [-3.2309474945068359:3.7739489078521729] [-2.4781022071838379:3.5821819305419922] [-3.300748348236084:3.7031855583190918] [-2.5834095478057861:3.4718184471130371] [-2.5974593162536621:3.1402449607849121] [-2.0650200843811035:2.7354667186737061] [-2.6782553195953369:3.1088411808013916] [-2.1290020942687988:2.7659642696380615] [-2.7385833263397217:3.1016900539398193] [-2.2733850479125977:2.8372688293457031] [-2.1939542293548584:2.5220863819122314] [-1.9550538063049316:2.3998117446899414] [-2.2462315559387207:2.5417938232421875] [-2.0012795925140381:2.4144268035888672] [-2.2981061935424805:2.5336205959320068] [-2.0405371189117432:2.3969955444335938] [-14.053279876708984:10.998215675354004] [-21.603143692016602:23.922109603881836] [-14.850983619689941:19.488603591918945] [-7.5574483871459961:10.079464912414551] [-16.190835952758789:13.075648307800293] [-20.898920059204102:23.946083068847656] [-12.258450508117676:9.8235874176025391] [-16.356657028198242:16.125207901000977] [-11.228370666503906:14.359105110168457] [-6.3568778038024902:6.488494873046875] [-14.157965660095215:11.123653411865234] [-21.158296585083008:25.153581619262695] [-10.76771354675293:8.8840475082397461] [-13.494958877563477:11.797913551330566] [-8.904383659362793:10.402630805969238] [-5.1340541839599609:5.6566085815429688] [-11.840236663818359:10.245189666748047] [-20.312482833862305:24.062467575073242] [-9.1942768096923828:8.4314584732055664] [-10.159236907958984:8.5676918029785156] [-7.7974328994750977:8.6435174942016602] [-4.6160826683044434:4.6236934661865234] [-8.5873355865478516:9.2234764099121094] [-19.563980102539062:22.964973449707031] [-6.9573574066162109:6.5841097831726074] [-6.8853554725646973:6.1048092842102051] [-7.0467772483825684:6.4072265625] [-3.5113136768341064:3.6068713665008545] [-4.9752063751220703:7.1697998046875] [-16.285184860229492:16.107906341552734] [-5.9532160758972168:5.6109790802001953] [-5.1855692863464355:4.5246443748474121] [-6.8123178482055664:5.1589326858520508] [-2.9867725372314453:2.9623527526855469] [-4.3380908966064453:5.7167448997497559] [-13.769414901733398:11.179538726806641] [-5.214472770690918:5.1662430763244629] [-3.7565658092498779:2.9626834392547607] [-6.0360007286071777:4.0785074234008789] [-2.7007508277893066:2.2490553855895996] [-3.6219503879547119:4.4072442054748535] [-11.851308822631836:7.3353276252746582] [-18.379871368408203:11.671669006347656] [-18.468622207641602:20.086147308349609] [-19.797887802124023:18.368524551391602] [-12.26439380645752:15.629746437072754] [-12.035408020019531:11.78023624420166] [-20.898920059204102:23.946083068847656] [-15.541193962097168:11.243832588195801] [-13.455684661865234:13.64961051940918] [-12.954516410827637:12.56226921081543] [-8.718876838684082:12.262187957763672] [-9.056035041809082:9.6238651275634766] [-21.158296585083008:25.153581619262695] [-13.16316032409668:10.726879119873047] [-11.357192039489746:10.281281471252441] [-10.05196475982666:10.954960823059082] [-7.5962858200073242:11.281039237976074] [-7.3830122947692871:7.9757785797119141] [-20.312482833862305:24.062467575073242] [-11.00300121307373:10.046576499938965] [-9.1513519287109375:7.5977339744567871] [-9.2476902008056641:9.3416213989257812] [-6.1796555519104004:9.9385166168212891] [-5.9867515563964844:7.2966365814208984] [-19.563980102539062:22.964973449707031] [-8.3478908538818359:8.1885738372802734] [-5.9551868438720703:5.5390996932983398] [-8.0798673629760742:6.2069048881530762] [-3.535862922668457:6.0754313468933105] [-4.5109219551086426:5.9220185279846191] [-16.285184860229492:16.107906341552734] [-7.3497991561889648:7.007047176361084] [-4.3010635375976562:4.0511455535888672] [-7.1072297096252441:5.2556881904602051] [-2.7539803981781006:4.4686732292175293] [-3.8447890281677246:4.7081918716430664] [-13.769414901733398:11.179538726806641] [-5.979039192199707:5.9120159149169922] [-3.1520836353302002:2.9339127540588379] [-5.9239368438720703:4.2847065925598145] [-1.9391835927963257:3.4999547004699707] [-3.0578973293304443:3.6858570575714111] [-11.851308822631836:7.3353276252746582] [-19.080839157104492:11.641079902648926] [-20.262575149536133:18.487159729003906] [-13.089706420898438:16.579021453857422] [-8.2855758666992188:16.543022155761719] [-12.063684463500977:11.479323387145996] [-20.898920059204102:23.946083068847656] [-16.057224273681641:11.974509239196777] [-13.979974746704102:12.660313606262207] [-9.5656070709228516:9.0177936553955078] [-5.5961847305297852:13.744663238525391] [-9.1758184432983398:9.9116487503051758] [-21.158296585083008:25.153581619262695] [-13.530035018920898:11.140802383422852] [-11.646059989929199:9.6440439224243164] [-8.4488382339477539:7.4058847427368164] [-4.5260028839111328:10.498259544372559] [-8.008671760559082:8.4957742691040039] [-20.312482833862305:24.062467575073242] [-11.245687484741211:8.8110971450805664] [-9.5876951217651367:7.2737894058227539] [-7.6021604537963867:6.8874869346618652] [-3.6293237209320068:7.5296621322631836] [-7.3428826332092285:6.9045577049255371] [-19.563980102539062:22.964973449707031] [-8.5779895782470703:6.9973573684692383] [-6.583381175994873:4.8965706825256348] [-5.7419261932373047:5.7030501365661621] [-2.3037316799163818:4.6114010810852051] [-6.2305951118469238:5.7581615447998047] [-16.285184860229492:16.107906341552734] [-7.4991469383239746:6.0185685157775879] [-4.9199404716491699:3.8183889389038086] [-4.9640293121337891:4.9570064544677734] [-1.814653754234314:3.2769849300384521] [-5.3399262428283691:5.2545647621154785] [-13.769414901733398:11.179538726806641] [-6.2214703559875488:5.0287508964538574] [-3.8179640769958496:3.3201470375061035] [-4.4386615753173828:4.1030211448669434] [-1.5036005973815918:2.2309114933013916] [-4.4523024559020996:4.8861050605773926] [-11.851308822631836:7.3353276252746582] [-2.9519007205963135:4.3406858444213867] [-1.9847880601882935:2.45989990234375] [-1.8231134414672852:1.9192100763320923] [-3.2589807510375977:4.2975616455078125] [-2.0868403911590576:2.3209257125854492] [-1.8161579370498657:1.8825520277023315] [-3.075202465057373:3.8830897808074951] [-2.093519926071167:1.9699734449386597] [-1.8113502264022827:1.8712462186813354] [-11.394076347351074:9.2165794372558594] [-8.6094093322753906:8.0243539810180664] [-7.6347332000732422:6.8765397071838379] [-6.9086794853210449:5.5407271385192871] [-5.9598383903503418:5.6381740570068359] [-5.2085528373718262:5.3682990074157715] [-5.3698124885559082:4.9658384323120117] [-5.102656364440918:4.9572319984436035] [-5.5196628570556641:5.0828237533569336] [-5.1988892555236816:4.3783745765686035] [-4.4513487815856934:4.562199592590332] [-4.7082915306091309:4.9726338386535645] [-5.5453672409057617:4.8194456100463867] [-6.3076629638671875:4.5260710716247559] [-5.4481449127197266:6.3738932609558105] [-6.7979226112365723:6.6153669357299805] [-7.2290701866149902:7.3547940254211426] [-6.4184184074401855:7.0886144638061523] [-6.0947713851928711:12.58128833770752] [-9.4062891006469727:12.405817985534668] [-12.597931861877441:9.0249652862548828] [-47.438339233398438:34.128074645996094] [-30.903102874755859:24.074010848999023] [-23.461835861206055:18.002426147460938] [-17.926841735839844:12.864214897155762] [-12.39363956451416:7.474006175994873] [-10.08320140838623:6.1768660545349121] [-8.4747314453125:5.2325310707092285] [-7.4615988731384277:8.3151273727416992] [-8.7496957778930664:9.5215435028076172] [-9.0804672241210938:9.0907526016235352] [-9.4420843124389648:8.1771745681762695] [-8.7166833877563477:6.3982934951782227] [-8.6827268600463867:6.411372184753418] [-8.1633138656616211:5.9496049880981445] [-17.301668167114258:6.25140380859375] [-10.926713943481445:35.26385498046875] [-11.703857421875:88.058135986328125] [-10.457440376281738:148.99624633789062] [-7.8054981231689453:178.92689514160156] [-8.8337869644165039:136.00167846679688] [-14.517332077026367:82.857177734375] [-111.36465454101562:101.62075042724609] [-109.95264434814453:133.85342407226562] [-95.867462158203125:128.31698608398438] [-78.326126098632812:108.97209167480469] [-58.875770568847656:71.251327514648438] [-47.138740539550781:51.871875762939453] [-36.161052703857422:37.495182037353516] [-105.08339691162109:92.387901306152344] [-107.27498626708984:128.26066589355469] [-93.969390869140625:125.02428436279297] [-76.866897583007812:106.85758972167969] [-57.713203430175781:70.296394348144531] [-46.388645172119141:51.305137634277344] [-35.913829803466797:37.33526611328125] [-5.294464111328125:5.5428800582885742] [-11.467439651489258:10.973121643066406] [-8.174565315246582:9.6444787979125977] [-7.9480719566345215:8.4581384658813477] [-7.89654541015625:7.0319151878356934] [-7.0623335838317871:6.2577052116394043] [-6.3169674873352051:6.001187801361084] [-5.8020305633544922:5.7648072242736816] [-3.6229898929595947:3.8384385108947754] [-10.874320983886719:13.446560859680176] [-9.4174299240112305:10.205066680908203] [-7.9556069374084473:8.1448554992675781] [-6.6571965217590332:6.1859622001647949] [-5.2483453750610352:4.8587684631347656] [-4.6476297378540039:4.4935698509216309] [-4.0742201805114746:4.1972370147705078] [-2.6790046691894531:3.2672538757324219] [-25.500810623168945:17.931703567504883] [-17.985891342163086:13.882136344909668] [-13.839963912963867:12.716813087463379] [-10.416946411132812:10.881635665893555] [-7.7273831367492676:7.3500847816467285] [-6.6515779495239258:5.994328498840332] [-5.4695954322814941:5.2220182418823242] [-2.463374137878418:3.27774977684021] [-37.665081024169922:28.599727630615234] [-25.954557418823242:23.62321662902832] [-19.682132720947266:22.287616729736328] [-14.428289413452148:19.184541702270508] [-8.5000400543212891:12.46351432800293] [-7.1344709396362305:8.3175287246704102] [-6.0047578811645508:6.7495908737182617] [-3.7975919246673584:5.1709103584289551] [-6.1576900482177734:4.5707364082336426] [-3.805311918258667:4.6520342826843262] [-5.9181003570556641:4.6750612258911133] [-4.0655484199523926:4.7372231483459473] [-5.3006649017333984:4.7349343299865723] [-4.0387167930603027:4.7598743438720703] [-3.2118062973022461:4.6178240776062012] [-4.0700554847717285:4.7467660903930664] [-2.8792283535003662:4.7160987854003906] [-4.0576515197753906:4.6599578857421875] [-2.4866397380828857:5.0124545097351074] [-3.5139262676239014:4.089444637298584] [-2.2737109661102295:5.5394220352172852] [-3.4645650386810303:4.0432367324829102] [-2.2690784931182861:5.6874399185180664] [-3.3421661853790283:3.9374139308929443] [-2.2379906177520752:5.990562915802002] [-2.3467142581939697:4.2796568870544434] [-2.1217639446258545:6.0355300903320312] [-2.2609672546386719:4.342287540435791] [-2.1478254795074463:6.1007552146911621] [-2.1041831970214844:4.4332146644592285] [-2.1879093647003174:6.1887006759643555] [-15.400942802429199:17.888481140136719] [-16.682504653930664:22.149517059326172] [-29.076147079467773:35.681339263916016] [-11.839299201965332:12.85521411895752] [-18.224948883056641:15.291360855102539] [-26.512935638427734:27.746694564819336] [-15.288358688354492:15.210226058959961] [-13.988760948181152:18.967039108276367] [-20.056638717651367:28.035480499267578] [-9.3973188400268555:9.2222747802734375] [-14.511786460876465:12.605683326721191] [-26.126394271850586:27.06640625] [-13.137611389160156:14.592789649963379] [-12.15504264831543:14.69267463684082] [-14.604024887084961:21.669748306274414] [-7.862947940826416:6.3761019706726074] [-11.901836395263672:10.039460182189941] [-24.01774787902832:25.444988250732422] [-12.27072811126709:14.158463478088379] [-12.380786895751953:10.437254905700684] [-11.187959671020508:16.018892288208008] [-6.3491373062133789:5.3738975524902344] [-9.1455821990966797:7.5364861488342285] [-22.96624755859375:23.430368423461914] [-8.7875699996948242:11.859172821044922] [-10.473654747009277:7.0127410888671875] [-8.5038118362426758:8.635554313659668] [-5.2149777412414551:3.9265637397766113] [-5.9546298980712891:6.2169294357299805] [-19.087535858154297:15.940779685974121] [-6.9005928039550781:10.162280082702637] [-8.5454893112182617:5.8931550979614258] [-7.0125536918640137:5.1920127868652344] [-4.5560855865478516:3.374582052230835] [-5.474942684173584:5.0900568962097168] [-16.119413375854492:10.929424285888672] [-6.6625723838806152:8.9857263565063477] [-6.5221452713012695:4.8572044372558594] [-5.7725934982299805:3.3896434307098389] [-3.820019006729126:2.923133373260498] [-4.802696704864502:3.8559176921844482] [-14.204780578613281:7.8463134765625] [-15.335819244384766:14.570171356201172] [-23.955472946166992:21.247676849365234] [-25.210025787353516:22.721670150756836] [-10.485633850097656:10.655379295349121] [-14.137790679931641:13.968544960021973] [-26.512935638427734:27.746694564819336] [-14.621058464050293:12.006706237792969] [-15.599776268005371:19.223800659179688] [-17.685388565063477:17.02056884765625] [-8.5728750228881836:10.730057716369629] [-13.169705390930176:13.549610137939453] [-26.126394271850586:27.06640625] [-13.43048095703125:10.872855186462402] [-12.105779647827148:15.521724700927734] [-15.948657989501953:13.801516532897949] [-7.3241686820983887:9.5864410400390625] [-11.769673347473145:11.739252090454102] [-24.01774787902832:25.444988250732422] [-12.74962329864502:9.6705207824707031] [-12.497293472290039:11.531270027160645] [-13.078177452087402:10.781311988830566] [-5.8468084335327148:7.6268157958984375] [-9.9367542266845703:10.008584022521973] [-22.96624755859375:23.430368423461914] [-11.506660461425781:8.5146894454956055] [-11.034914016723633:7.6652421951293945] [-7.8300514221191406:6.4182724952697754] [-3.8791394233703613:5.6288609504699707] [-6.9571056365966797:8.5483303070068359] [-19.087535858154297:15.940779685974121] [-9.4873781204223633:8.9287033081054688] [-9.396702766418457:6.783534049987793] [-6.2842578887939453:4.8348631858825684] [-3.3172252178192139:4.7707400321960449] [-5.3661937713623047:7.7732033729553223] [-16.119413375854492:10.929424285888672] [-7.3810033798217773:9.6578855514526367] [-7.4370150566101074:5.7350101470947266] [-5.7315921783447266:3.7189135551452637] [-2.5741291046142578:3.574509859085083] [-5.660858154296875:7.5471029281616211] [-14.204780578613281:7.8463134765625] [-15.443180084228516:16.835002899169922] [-27.431064605712891:21.251129150390625] [-17.809835433959961:16.91826057434082] [-12.164993286132812:10.030372619628906] [-12.276943206787109:12.32269287109375] [-26.512935638427734:27.746694564819336] [-15.339293479919434:14.651281356811523] [-21.244428634643555:18.483848571777344] [-12.25616455078125:11.600771903991699] [-13.003072738647461:9.2342758178710938] [-11.930119514465332:12.408145904541016] [-26.126394271850586:27.06640625] [-13.481691360473633:12.714256286621094] [-16.385988235473633:14.599126815795898] [-9.6865806579589844:9.0007562637329102] [-12.152244567871094:7.6252737045288086] [-11.28856086730957:12.535379409790039] [-24.01774787902832:25.444988250732422] [-11.080953598022461:11.549967765808105] [-12.065154075622559:10.651850700378418] [-7.9662985801696777:6.8713626861572266] [-9.4550981521606445:6.6339101791381836] [-10.236284255981445:11.806442260742188] [-22.96624755859375:23.430368423461914] [-8.2186288833618164:9.1920499801635742] [-10.742639541625977:7.5666074752807617] [-6.3102245330810547:4.6853518486022949] [-4.7550592422485352:4.9673333168029785] [-8.2172260284423828:9.1476421356201172] [-19.087535858154297:15.940779685974121] [-6.4279232025146484:7.9457993507385254] [-9.3865089416503906:6.6356401443481445] [-5.3833208084106445:3.9308342933654785] [-2.8609435558319092:4.1385416984558105] [-6.9020071029663086:8.7730035781860352] [-16.119413375854492:10.929424285888672] [-5.5850114822387695:7.2297706604003906] [-7.5396909713745117:5.585385799407959] [-4.9458050727844238:3.3624238967895508] [-2.5928635597229004:3.4111928939819336] [-6.0375237464904785:8.7367773056030273] [-14.204780578613281:7.8463134765625] [-3.8565521240234375:4.9740772247314453] [-2.4598746299743652:3.6179447174072266] [-2.0007321834564209:2.7303726673126221] [-4.1873660087585449:5.2262668609619141] [-2.3326361179351807:3.2243211269378662] [-1.9321767091751099:2.6800975799560547] [-3.6045331954956055:4.188331127166748] [-2.1176559925079346:2.7470970153808594] [-1.8492244482040405:2.5419554710388184] [-9.7168798446655273:8.1330785751342773] [-9.8945798873901367:5.4057259559631348] [-8.5556068420410156:4.5637092590332031] [-6.6634821891784668:4.2151427268981934] [-4.2170929908752441:3.2930684089660645] [-3.5372371673583984:2.9476556777954102] [-3.2756056785583496:2.6120312213897705] [-7.664604663848877:5.1533646583557129] [-8.9339189529418945:5.450502872467041] [-8.7971534729003906:5.5821099281311035] [-7.7291021347045898:5.0297956466674805] [-5.0385122299194336:3.5357911586761475] [-4.3072676658630371:2.5917832851409912] [-4.0297832489013672:2.4581191539764404] [-5.6360645294189453:5.5400724411010742] [-10.207788467407227:6.5880336761474609] [-11.083024978637695:6.7137994766235352] [-9.5770397186279297:5.9393596649169922] [-6.6488814353942871:4.8442783355712891] [-7.4376440048217773:3.3827733993530273] [-7.2642226219177246:2.2944686412811279] [-31.762393951416016:32.840621948242188] [-18.507204055786133:19.873361587524414] [-13.379373550415039:13.739336967468262] [-9.9305248260498047:9.3283290863037109] [-7.3486933708190918:5.6153912544250488] [-6.4189724922180176:4.3733234405517578] [-5.5091743469238281:3.8133890628814697] [-6.7812271118164062:7.2149686813354492] [-10.574053764343262:6.8647556304931641] [-10.198904037475586:5.6122660636901855] [-8.0857229232788086:4.7680244445800781] [-7.2873396873474121:4.158289909362793] [-7.2803058624267578:4.3634562492370605] [-6.6682710647583008:4.0222439765930176] [-8.7658424377441406:6.9614682197570801] [-16.709396362304688:9.6745624542236328] [-21.806735992431641:7.4763574600219727] [-30.057975769042969:7.422917366027832] [-46.353282928466797:4.9491381645202637] [-41.256889343261719:3.9901466369628906] [-29.465459823608398:3.1868486404418945] [-89.125831604003906:58.633617401123047] [-85.702888488769531:58.636028289794922] [-72.6573486328125:55.404876708984375] [-56.363563537597656:46.839637756347656] [-44.630939483642578:42.662857055664062] [-41.849395751953125:37.753993988037109] [-37.022026062011719:32.794651031494141] [-85.268310546875:56.07904052734375] [-84.588188171386719:61.867111206054688] [-71.987197875976562:54.322322845458984] [-55.381706237792969:46.189098358154297] [-42.269100189208984:41.737152099609375] [-40.912864685058594:37.373332977294922] [-36.946090698242188:32.399917602539062] [-6.4885401725769043:10.475090980529785] [-5.9336133003234863:5.0938901901245117] [-5.2831344604492188:4.5413737297058105] [-4.2621240615844727:4.4083037376403809] [-3.6578688621520996:3.4148218631744385] [-3.7092556953430176:3.1666629314422607] [-3.8488736152648926:2.9035897254943848] [-6.4235987663269043:6.4108109474182129] [-5.7171692848205566:5.4902310371398926] [-6.0230808258056641:4.7564821243286133] [-5.6278576850891113:4.2614970207214355] [-4.5475482940673828:3.427480936050415] [-3.9366006851196289:3.0022215843200684] [-3.3501045703887939:2.5631494522094727] [-7.9486813545227051:7.9093165397644043] [-16.067314147949219:15.642916679382324] [-0.13029487431049347:32.575233459472656] [-24.73906135559082:24.226861953735352] [-13.365605354309082:14.733579635620117] [-0.088229633867740631:158.02732849121094] [-8.2849187850952148:8.2416305541992188] [-17.451244354248047:33.991584777832031] [-0.099516838788986206:34.429103851318359] [-26.32208251953125:25.776140213012695] [-15.880496978759766:15.206822395324707] [-0.067339025437831879:165.14610290527344] [-7.304781436920166:6.9004397392272949] [-8.4633331298828125:7.2956562042236328] [-0.23652711510658264:36.550853729248047] [-15.708721160888672:17.075464248657227] [-6.8439311981201172:9.9652624130249023] [-0.15185597538948059:163.919921875] [-7.2757105827331543:6.6369328498840332] [-11.577513694763184:15.766837120056152] [-0.0872698575258255:58.711959838867188] [-16.10499382019043:15.796490669250488] [-17.353696823120117:20.528972625732422] [-0.049987483769655228:223.02055358886719] [-6.5961403846740723:6.1871843338012695] [-7.6638526916503906:5.3228983879089355] [-0.36380693316459656:20.062036514282227] [-11.853598594665527:15.066982269287109] [-6.2159762382507324:10.333089828491211] [-0.25754183530807495:52.006267547607422] [-6.7060623168945312:5.8609557151794434] [-8.133967399597168:9.1242713928222656] [-0.19581437110900879:110.3770751953125] [-12.227871894836426:14.07408332824707] [-8.2328939437866211:15.489068031311035] [-0.099119141697883606:70.11395263671875] [-6.2334675788879395:5.9795732498168945] [-5.6282763481140137:3.6535012722015381] [-0.50681793689727783:11.14194393157959] [-8.5525484085083008:12.75233268737793] [-5.3333206176757812:9.7093820571899414] [-0.37242302298545837:38.035526275634766] [-5.9784736633300781:5.8815484046936035] [-5.6303153038024902:5.1651668548583984] [-0.47572258114814758:16.837442398071289] [-8.6156883239746094:12.17945384979248] [-5.9328370094299316:6.3251328468322754] [-0.37411022186279297:40.11651611328125] [-5.0771193504333496:5.3392415046691895] [-4.6272764205932617:2.452599048614502] [-0.8105587363243103:9.2967157363891602] [-6.4146227836608887:8.7634391784667969] [-4.8041791915893555:6.4630937576293945] [-0.60682672262191772:27.027339935302734] [-4.9801745414733887:5.3841166496276855] [-3.6335229873657227:2.234541654586792] [-0.76258230209350586:9.6667633056640625] [-6.4244465827941895:8.4949216842651367] [-3.9914922714233398:2.6697638034820557] [-0.61386585235595703:26.699581146240234] [-5.0907406806945801:4.7328810691833496] [-4.1229195594787598:1.7546366453170776] [-1.0262447595596313:9.3037958145141602] [-5.7557168006896973:6.6753621101379395] [-4.4617385864257812:4.3729996681213379] [-0.75020754337310791:24.546785354614258] [-5.0285873413085938:4.5944375991821289] [-3.1700046062469482:2.0568544864654541] [-0.9930645227432251:9.941685676574707] [-5.7987685203552246:6.6032018661499023] [-3.0536396503448486:2.0506396293640137] [-0.7694125771522522:27.882593154907227] [-4.7622318267822266:4.5358309745788574] [-3.748044490814209:1.3196017742156982] [-1.008408784866333:7.4904565811157227] [-5.0100197792053223:5.7912287712097168] [-3.4549655914306641:2.7656381130218506] [-0.71639442443847656:18.164739608764648] [-4.7425212860107422:4.4002890586853027] [-3.0342121124267578:1.3892793655395508] [-1.0804321765899658:7.6286177635192871] [-5.0529379844665527:5.7103219032287598] [-2.6140358448028564:1.1976226568222046] [-0.78450930118560791:18.936626434326172] [-8.1417398452758789:8.6503629684448242] [-24.589004516601562:30.842401504516602] [-106.96900939941406:117.49097442626953] [-6.8755474090576172:6.438377857208252] [-10.812253952026367:23.412643432617188] [-66.236869812011719:70.751258850097656] [-6.0493264198303223:6.6394314765930176] [-8.2621707916259766:18.322616577148438] [-48.538570404052734:50.673995971679688] [-5.4433212280273438:6.8211870193481445] [-6.096804141998291:13.44505786895752] [-36.010784149169922:37.284061431884766] [-4.6602067947387695:7.1526908874511719] [-3.7556006908416748:7.5646648406982422] [-23.184427261352539:22.972560882568359] [-3.8112015724182129:6.7885222434997559] [-3.0432078838348389:5.180201530456543] [-17.309932708740234:17.029645919799805] [-2.9591021537780762:5.7794456481933594] [-2.205655574798584:3.4594790935516357] [-12.943775177001953:12.753992080688477] [-2.8630411624908447:2.8134560585021973] [-1.616212010383606:1.6977355480194092] [-9.2382040023803711:9.9788494110107422] [-9.8736362457275391:9.8565139770507812] [-8.9811677932739258:9.7822980880737305] [-9.8712730407714844:9.8405427932739258] [-9.1177310943603516:10.040778160095215] [-9.8578090667724609:9.8135099411010742] [-8.3720598220825195:9.8872756958007812] [-9.8290195465087891:9.7656383514404297] [-7.3572444915771484:9.2304306030273438] [-9.0538825988769531:9.6298027038574219] [-6.496098518371582:8.57080078125] [-8.7670049667358398:9.4757270812988281] [-5.4695553779602051:7.6559243202209473] [-8.1126022338867188:8.2189998626708984] [-12.602603912353516:12.790207862854004] [-9.8451547622680664:9.8377656936645508] [-9.8802280426025391:10.084169387817383] [-13.292631149291992:13.567253112792969] [-12.786803245544434:10.025251388549805] [-9.8273658752441406:9.8144969940185547] [-10.077012062072754:9.8919277191162109] [-13.614133834838867:13.408234596252441] [-12.129878997802734:8.1787261962890625] [-9.8059501647949219:9.1872367858886719] [-10.59564208984375:9.1551637649536133] [-13.626015663146973:13.33563232421875] [-10.399785041809082:7.8326859474182129] [-8.673222541809082:8.22906494140625] [-9.5574188232421875:9.6858119964599609] [-12.728603363037109:12.633584976196289] [-7.6822729110717773:6.3411192893981934] [-7.0915493965148926:7.142237663269043] [-8.4836835861206055:8.7317256927490234] [-13.329681396484375:9.6071405410766602] [-5.9814343452453613:4.986936092376709] [-6.0505971908569336:5.7881646156311035] [-8.2657346725463867:7.1223974227905273] [-13.416534423828125:8.512690544128418] [-4.5816478729248047:4.2505636215209961] [-5.238523006439209:4.7427072525024414] [-7.0290536880493164:5.7161531448364258] [-12.128837585449219:8.1203718185424805] [-17.77699089050293:14.392043113708496] [-9.819890022277832:9.8144149780273438] [-9.4592704772949219:10.702302932739258] [-13.836874961853027:13.497111320495605] [-15.460734367370605:13.687005996704102] [-9.7968521118164062:9.7866382598876953] [-9.4043445587158203:9.5965499877929688] [-13.35009765625:13.888071060180664] [-16.410453796386719:11.408829689025879] [-9.776280403137207:9.7607707977294922] [-9.6667757034301758:9.3498706817626953] [-13.749505996704102:13.783825874328613] [-16.773031234741211:9.6383371353149414] [-9.7482919692993164:8.6703786849975586] [-9.2621316909790039:7.9961004257202148] [-13.988964080810547:13.065852165222168] [-13.77390193939209:6.913487434387207] [-9.665431022644043:6.3217720985412598] [-8.537083625793457:6.4047513008117676] [-14.143522262573242:9.3954582214355469] [-10.948486328125:5.7142367362976074] [-9.1528120040893555:5.3609619140625] [-8.7493915557861328:5.6751613616943359] [-12.9078369140625:9.4944181442260742] [-7.9899358749389648:4.0653295516967773] [-6.5855755805969238:4.7979774475097656] [-7.7796249389648438:5.3904504776000977] [-9.4718608856201172:9.7670774459838867] [-15.692897796630859:11.109193801879883] [-9.7545108795166016:9.7484407424926758] [-11.424713134765625:8.5306882858276367] [-13.874567985534668:13.661454200744629] [-14.598103523254395:10.550060272216797] [-9.7263355255126953:9.7159347534179688] [-9.7975835800170898:9.4630355834960938] [-13.784551620483398:13.191432952880859] [-12.424842834472656:9.2515649795532227] [-9.698735237121582:9.6839065551757812] [-10.381784439086914:9.4576559066772461] [-13.252400398254395:13.400379180908203] [-9.8046674728393555:7.756230354309082] [-9.6743946075439453:8.2302589416503906] [-10.594100952148438:8.5748834609985352] [-12.747794151306152:12.674458503723145] [-6.9527745246887207:4.5517821311950684] [-7.1671361923217773:6.4888415336608887] [-9.0912446975708008:6.3726000785827637] [-11.440643310546875:10.088292121887207] [-5.2804360389709473:3.7599086761474609] [-5.8619074821472168:5.224860668182373] [-8.2872676849365234:5.446263313293457] [-9.9147663116455078:8.2956228256225586] [-4.2571983337402344:3.1832590103149414] [-5.0937790870666504:4.4396677017211914] [-7.2523999214172363:4.533390998840332] [-9.7761917114257812:8.2361516952514648] [-12.171723365783691:16.662435531616211] [-9.8456058502197266:9.8511753082275391] [-10.236106872558594:11.434597015380859] [-13.217990875244141:13.852551460266113] [-12.50462532043457:16.530147552490234] [-9.8287372589111328:9.8376245498657227] [-10.970274925231934:9.0210981369018555] [-13.732185363769531:13.727509498596191] [-12.046119689941406:14.973869323730469] [-9.8030643463134766:9.8151435852050781] [-11.481881141662598:9.1481704711914062] [-13.61865234375:13.157411575317383] [-10.443685531616211:13.524519920349121] [-9.7590217590332031:9.7753686904907227] [-11.35612964630127:8.9808101654052734] [-13.019158363342285:12.873851776123047] [-8.711674690246582:10.121051788330078] [-8.3439254760742188:9.6500444412231445] [-9.1758899688720703:8.6194343566894531] [-13.451390266418457:11.901864051818848] [-7.4979720115661621:7.649139404296875] [-7.1317329406738281:8.2958641052246094] [-8.6316967010498047:7.4610452651977539] [-12.751970291137695:10.116463661193848] [-6.5595712661743164:6.1393523216247559] [-5.8013901710510254:7.3940401077270508] [-7.7489075660705566:6.0606298446655273] [-9.09130859375:9.0410051345825195] [-21.068702697753906:22.379079818725586] [-28.985984802246094:23.001941680908203] [-52.954864501953125:132.58152770996094] [-4.3004875183105469:4.3340306282043457] [-28.133960723876953:26.205600738525391] [-2.2488002777099609:2.1910605430603027] [-43.504196166992188:43.068901062011719] [-5.7734613418579102:5.7389950752258301] [-1.7777401208877563:7.4226393699645996] [-8.1428318023681641:7.3799028396606445] [-6.2071824073791504:6.2187542915344238] [-6.6585502624511719:5.2618122100830078] [-7.5825233459472656:6.3808555603027344] [-12.109617233276367:16.29863166809082] [-5.1276473999023438:5.7072653770446777] [-5.0618281364440918:5.958716869354248] [-2.9877009391784668:2.5442049503326416] [-9.947880744934082:9.8687925338745117] [-3.6648097038269043:3.2165265083312988] [-4.659461498260498:5.2117915153503418] [-2.3711433410644531:3.1778976917266846] [-0.76633065938949585:42.848987579345703] [-0.89895361661911011:30.043006896972656] [-1.0185284614562988:22.047063827514648] [-1.1667426824569702:15.09227466583252] [-1.5441000461578369:8.5212545394897461] [-1.8678858280181885:6.0615019798278809] [-2.1839358806610107:4.8233208656311035] [-3.6430685520172119:4.6805386543273926] [-5.3341107368469238:6.1646904945373535] [-0.36341837048530579:248.65234375] [-0.33563593029975891:137.56449890136719] [-0.70356637239456177:1.5229448080062866] [-0.71757304668426514:1.5535850524902344] [-0.73175472021102905:1.5846824645996094] [-0.75127023458480835:1.6277292966842651] [-0.80634176731109619:1.7654086351394653] [-0.88182425498962402:1.9441906213760376] [-1.0668879747390747:2.0933914184570312] [0.0020000000949949026:1133.7779541015625] [0:28685.345703125] [-0.99997216463088989:0.99996781349182129] [-0.99531155824661255:0.98368406295776367] [0:5711573.5] [0:1.0000001192092896] [0:10.264176368713379] [0:24770.171875] [0:25307.705078125] [0:24770.171875] [0:21830.14453125] [-0.99997270107269287:0.99996781349182129] [-0.99997270107269287:0.99996984004974365] [-0.99997270107269287:0.99996984004974365] [-0.97746872901916504:0.97148650884628296] [-0.99531155824661255:0.98582571744918823] [-0.99135613441467285:0.98582571744918823] [-0.99135613441467285:0.98582571744918823] [-0.83650237321853638:0.90075886249542236] [-5.3901772499084473:3.8133890628814697] [-4.6406049728393555:5.0823969841003418] [-6.2071824073791504:6.2187542915344238] [-2.4354333877563477:3.2282164096832275] [-2.98775315284729:2.5442049503326416]
tree_sizes=3019 3114 3111 3111 3105 3088 3110 3090 3108 3107 3102 3111 3119 3090 3117 3111 3124 3087 3106 3113 3119 3086 3129 3094 3086 3116 3116 3109 3109 3121 3141 3129 3099 3119 3088 3103 3125 3144 3092 3139 3127 3121 3110 3101 3115 3095 3108 3122 3128 3121 3124 3108 3114 3144 3135 3136 3115 3112 3107 3109 3142 3114 3118 3138 3139 3112 3109 3099 3124 3126 3119 3123 3096 3102 3120 3125 3120 3128 3117 3140 3116 3152 3112 3124 3128 3131 3133 3148 3136 3151 3122 3117 3125 3138 3155 3146 3117 3153 3144 3123 3151 3113 3130 3124 3133 3140 3103 3128 3135 3137 3128

Tree=0
num_leaves=31
num_cat=0
split_feature=470 37 295 742 756 807 95 596 348 761 772 428 576 383 762 736 27 772 170 454 43 182 35 27 405 688 94 618 614 349
split_gain=3970.6 4095.94 2074.78 2508.57 1939.58 1475.51 1549.4 1341.96 1082.54 1771.99 1490.65 1395.28 1323.37 1168.83 1163.24 1337.3 1027.42 1008.37 1006.74 974.189 1696.26 1023.21 801.877 708.978 700.201 694.802 903.044 694.423 678.01 676.573
threshold=-2.8530418872833248 0.46034687757492071 2.9290078878402714 -0.39963170886039728 1.7217347621917727 -0.67075151205062855 -1.1757304668426511 4.3057153224945077 0.40265661478042608 0.65102759003639232 0.91472646594047557 0.30206097662448889 1.3761994242668154 0.41339689493179327 1.6114176511764529 -1.189185559749603 -0.77577862143516529 2.2391256093978886 0.37401744723320013 1.3099168539047243 -0.71441233158111561 0.35745842754840856 -0.0050536605995148412 1.3642959594726565 -0.53341463208198536 2.3848030567169194 0.55627962946891796 0.32346712052822119 -0.0040088363457471124 -0.14427630603313443
decision_type=2 2 2 2 2 2 2 2 2 2 2 2 2 2 2 2 2 2 2 2 2 2 2 2 2 2 2 2 2 2
left_child=1 -1 4 -4 5 6 -2 19 9 14 -11 12 -10 22 16 -16 28 24 -14 -6 -21 -22 -12 25 -15 29 -27 -25 -7 -18
right_child=2 -3 3 -5 7 8 -8 -9 11 10 13 -13 18 17 15 -17 23 -19 -20 20 21 -23 -24 27 -26 26 -28 -29 -30 -31
leaf_value=0.025459545008959607 0.0091754886566237509 -0.007365293892498518 0.054089106964671486 0.027623136614447413 0.027439307663614299 0.025714936003364147 0.023173036167731354 0.042418285451802089 0.023532342746321235 0.027054176443276522 0.023474309421372852 0.026054871914529154 0.020196030524616632 0.033465395024606825 0.044504706806450273 0.028400936096487649 0.024517160383587613 0.029236611404749074 0.0080445573703873986 0.023129169264527079 0.051191137275848807 0.031747205399110766 0.033482933565026476 0.027221462651543932 0.047636142089341096 0.024981976660460356 0.012721998566252618 0.0350184364670309 0.021456007213508488 0.025866909187193681
leaf_weight=784 793 689 513 1007 17908 5935 13481 636 20285 22778 1546 20953 2752 651 528 5075 46178 950 895 727 579 547 1573 7204 975 1610 914 1315 10040 188798
leaf_count=784 793 689 513 1007 17908 5935 13481 636 20285 22778 1546 20953 2752 651 528 5075 46178 950 895 727 579 547 1573 7204 975 1610 914 1315 10040 188798
internal_value=0.02564 0.00952603 0.0257051 0.0371769 0.0256571 0.0254848 0.0223406 0.0286521 0.0256169 0.0258363 0.0282058 0.0241706 0.0225234 0.0327593 0.0255838 0.0300719 0.025487 0.0376841 0.0170163 0.0281678 0.034976 0.0424066 0.028566 0.0256468 0.0423652 0.0255449 0.0203776 0.0284727 0.0230336 0.0256015
internal_weight=378619 1473 377146 1520 375626 355229 14274 20397 340955 296070 28473 44885 23932 5695 267597 5603 261994 2576 3647 19761 1853 1126 3119 246019 1626 237500 2524 8519 15975 234976
internal_count=378619 1473 377146 1520 375626 355229 14274 20397 340955 296070 28473 44885 23932 5695 267597 5603 261994 2576 3647 19761 1853 1126 3119 246019 1626 237500 2524 8519 15975 234976
is_linear=0
shrinkage=1


Tree=1
num_leaves=31
num_cat=0
split_feature=470 805 295 167 806 276 596 674 581 762 268 467 346 32 101 595 768 763 658 432 760 503 762 378 140 589 171 777 129 656
split_gain=3710.36 4050.24 2105.69 1975.2 1823.65 1468.83 1368.41 1186.76 2492.18 1029.86 1361.53 1048.6 1071.94 993.979 1060.55 946.701 1013.13 823.598 823.236 1048.95 807.791 718.901 713.828 700.454 640.437 603.534 652.591 630.537 600.252 584.003
threshold=-2.8530418872833248 0.46005859971046453 2.9290078878402714 0.59412968158721935 1.7673594951629641 -0.670886069536209 4.3057153224945077 -0.77101546525955189 0.18731705844402316 1.6114176511764529 1.0109834074974062 2.3016821146011357 -1.5075232386589048 -0.18769741058349607 1.9359634518623354 -1.7115048170089719 0.55813300609588634 0.010711537208408119 -1.0369903445243833 0.71499222517013561 0.98967432975769054 1.0351570844650271 -2.2446320056915279 -1.5041663646697996 0.23930402845144275 -0.18788675218820569 -0.48498794436454767 -0.036879587918519967 -0.30666340887546534 2.9634332656860356
decision_type=2 2 2 2 2 2 2 2 2 2 2 2 2 2 2 2 2 2 2 2 2 2 2 2 2 2 2 2 2 2
left_child=1 -1 4 -4 5 7 18 8 -2 11 25 13 -13 14 15 16 -7 29 19 -6 22 -20 -19 -22 -23 26 27 -11 -27 -15
right_child=2 -3 3 -5 6 9 -8 -9 -10 10 -12 12 -14 17 -16 -17 -18 20 21 -21 23 24 -24 -25 -26 28 -28 -29 -30 -31
leaf_value=8.0098294751578536e-05 -0.028401839846256022 -0.032686014763368618 0.0031599089632288004 0.026782850377821101 0.0019817645268953897 9.6554051897826664e-05 0.017295103323709031 -0.0023625231300434041 -0.00030528870953299287 0.0010810389582445751 0.01682570503643693 -0.018950263347174364 -0.0024314599293827621 -0.0002481654147400625 -0.008980845408413039 -0.00085356109800424661 0.018048806094903162 0.010839688523508171 0.0012166567747366498 0.017825253246192198 0.010747812128653845 0.01602784189919295 0.00055882861981496285 0.0025914834968116256 0.0022229998193245052 -0.0043199460378606502 0.0019509472137120851 0.013299000868974531 0.0028471194268335858 -0.0077392224991327677
leaf_weight=786 506 675 1018 506 951 735 599 13194 733 662 615 526 1293 107196 1539 103432 500 630 15705 716 1146 596 103047 9443 740 2256 4431 1165 2321 1001
leaf_count=786 506 675 1018 506 951 735 599 13194 733 662 615 526 1293 107196 1539 103432 500 630 15705 716 1146 596 103047 9443 740 2256 4431 1165 2321 1001
internal_value=5.06811e-08 -0.0156389 6.26891e-05 0.0116049 1.43283e-05 -0.00014802 0.00300362 -0.00326726 -0.0124364 -1.59004e-05 0.00292591 -0.000118249 -0.00758737 -7.57636e-05 -0.000871444 -0.000747974 0.00778415 0.000304212 0.00250114 0.00910768 0.000896111 0.00183012 0.000626496 0.00352057 0.00873749 0.00206329 0.00406946 0.00901864 -0.00069403 -0.000321013
internal_weight=378663 1461 377202 1524 375678 356371 19307 14433 1239 341938 11450 330488 1819 328669 106206 104667 1235 222463 18708 1667 114266 17041 103677 10589 1336 10835 6258 1827 4577 108197
internal_count=378663 1461 377202 1524 375678 356371 19307 14433 1239 341938 11450 330488 1819 328669 106206 104667 1235 222463 18708 1667 114266 17041 103677 10589 1336 10835 6258 1827 4577 108197
is_linear=0
shrinkage=0.01


Tree=2
num_leaves=31
num_cat=0
split_feature=295 742 449 765 806 299 35 735 596 348 761 772 428 570 461 773 678 808 743 170 383 615 568 37 687 182 100 178 780 35
split_gain=2064.32 2389.74 2017.97 4867.3 1754.95 1411.38 1708.91 1599.22 1388.2 1218.38 1910.04 1698.14 1472.12 1329.5 1149.21 1128.81 1255.13 1124.1 1336.38 1052.34 1035.74 1482.9 976.888 942.377 965.989 903.712 897.24 869.455 803.456 794.081
threshold=2.9290078878402714 -0.41111084818840021 -2.5781534910202022 -1.3489727973937986 1.7165533900260928 -0.557979255914688 -0.70920172333717335 -0.36328223347663874 4.3057153224945077 0.40265661478042608 0.65102759003639232 0.91472646594047557 0.26596698164939886 1.4332976937294009 1.3551911115646365 -0.59929096698760975 -0.016317647881805893 1.6609654426574709 0.12582135945558551 0.44836127758026129 0.41339689493179327 1.7421110272407534 -1.1643844842910764 -0.39589332044124598 2.2909075021743779 -0.99404829740524281 0.78305917978286754 -0.27179118990898127 -0.73153391480445851 -0.010077346116304396
decision_type=2 2 2 2 2 2 2 2 2 2 2 2 2 2 2 2 2 2 2 2 2 2 2 2 2 2 2 2 2 2
left_child=2 -2 3 -1 5 6 7 -4 14 10 17 -12 13 26 -6 16 -8 23 -19 -15 29 -22 -16 -7 25 27 28 -25 -11 -13
right_child=1 -3 4 -5 8 9 15 -9 -10 12 11 20 -14 19 22 -17 -18 18 -20 -21 21 -23 -24 24 -26 -27 -28 -29 -30 -31
leaf_value=-0.032244256013271182 0.02813147237393869 0.0022532787235988133 -0.025789011838656943 -0.0014382528262026754 0.0017933369099268467 -0.0014889941163171074 -0.021197527657971421 -0.0062666413673312061 0.016716779259991432 -0.0079866359566754773 0.001487798477971718 -0.001928781189683468 0.00037008497512595824 -0.0060405896534990967 0.021729268646652242 -0.00048737581999600411 -0.0023046051191849305 0.015931622032544474 0.0022731184038491631 -0.02006350572637695 0.007776613022253619 0.025638111440838853 0.0022440553708863572 0.0015087251789915527 -0.0084332704630341211 6.7373419524011308e-05 0.010298551091098895 0.009200340612068961 -0.0018803518459588687 0.0085343654333294699
leaf_weight=608 505 1027 502 2349 18846 42533 535 1984 650 2408 22556 1404 21615 2595 502 10852 917 815 4314 654 2049 585 506 5435 1257 208499 504 1978 18040 1418
leaf_count=608 505 1027 502 2349 18846 42533 535 1984 650 2408 22556 1404 21615 2595 502 10852 917 815 4314 654 2049 585 506 5435 1257 208499 504 1978 18040 1418
internal_value=3.88676e-06 0.0114031 -4.39533e-05 -0.00820322 2.16534e-05 -0.000143515 -0.00316202 -0.0106395 0.00286226 -1.12429e-05 0.000226081 0.00270688 -0.00152674 -0.00321815 0.00236782 -0.00161425 -0.00973975 -3.67828e-05 0.00457632 -0.0091246 0.00768749 0.0121473 0.0125163 -0.000128753 0.000137935 0.000189776 -0.0022827 0.00360896 -0.00261717 0.00338579
internal_weight=378442 1532 376910 2957 373953 353449 14790 2486 20504 338659 292843 28012 45816 24201 19854 12304 1452 264831 5129 3249 5456 2634 1008 259702 217169 215912 20952 7413 20448 2822
internal_count=378442 1532 376910 2957 373953 353449 14790 2486 20504 338659 292843 28012 45816 24201 19854 12304 1452 264831 5129 3249 5456 2634 1008 259702 217169 215912 20952 7413 20448 2822
is_linear=0
shrinkage=0.01


Tree=3
num_leaves=31
num_cat=0
split_feature=804 805 202 807 683 756 276 688 335 688 43 461 340 32 469 754 763 273 656 382 51 559 782 808 613 735 629 612 773 35
split_gain=3317.52 3679.73 2006.69 3705.62 1589.99 1283.24 1455.88 1960.67 1153.14 1169.08 1081.22 1028.76 1020.01 971.94 834.953 817.444 754.736 888.617 751.399 732.244 731.188 915.358 742.138 700.558 695.39 686.976 660.416 604.494 711.063 584.067
threshold=-2.8456574678421016 0.46005859971046453 2.4036732912063603 1.2481155395507815 -2.0181115865707393 1.7467708587646487 -0.670886069536209 -1.8567003011703489 1.2557935118675234 2.8733414411544804 0.32381089031696325 1.3551911115646365 -2.1801134347915645 -0.18769741058349607 0.65348875522613536 0.77015224099159252 -0.064474828541278825 0.50124001502990734 2.8170217275619511 -1.6866475343704221 -0.26640897989273066 -0.85677507519721974 -0.73796993494033802 -2.1815329790115352 0.95049875974655162 0.35916826128959661 1.3677983880043032 -0.16926534473896024 0.44655106961727148 -0.82454222440719593
decision_type=2 2 2 2 2 2 2 2 2 2 2 2 2 2 2 2 2 2 2 2 2 2 2 2 2 2 2 2 2 2
left_child=1 -1 5 4 -4 6 7 -2 9 12 -11 20 19 14 29 -6 18 23 -15 -8 -7 22 -22 -18 27 -13 -10 28 -16 -14
right_child=2 -3 3 -5 15 11 8 -9 26 10 -12 25 13 16 24 -17 17 -19 -20 -21 21 -23 -24 -25 -26 -27 -28 -29 -30 -31
leaf_value=0.0001168912828715534 -0.020063869237592839 -0.031036521000980304 0.018005246266525391 0.029908074149958944 -0.0016000799518018261 0.0003456108133061086 -0.012598935942598553 -0.0024679757914936895 0.0021148336859597057 -0.002220998578670654 -0.020104810915081886 0.019814740696177308 -0.003064765615961914 -0.00029847993761614134 0.0095464965668570299 0.0069878588557678728 0.010175380407577607 0.0028928132807072185 -0.010224261378895301 0.0016853844114165949 0.013414868594018943 0.001336767800906106 0.0030142784764796916 0.00039019508052404812 0.012593422111579759 0.003267376827022835 0.01323716376774477 -0.0006042235493423691 0.00074586281185806094 -0.0008659275866391529
leaf_weight=794 616 675 592 526 3303 10932 1062 13597 16766 902 505 505 14300 93810 1493 1608 687 17512 719 514 1534 3845 1275 102968 502 501 504 7285 2290 76936
leaf_count=794 616 675 592 526 3303 10932 1062 13597 16766 902 505 505 14300 93810 1493 1608 687 17512 719 514 1534 3845 1275 102968 502 501 504 7285 2290 76936
internal_value=3.75178e-07 -0.0147484 5.97e-05 0.00575871 0.0032019 -3.35356e-05 -0.000168561 -0.00329825 -3.67821e-05 -0.000172169 -0.00910951 0.00252348 -0.000131466 -9.11197e-05 -0.000891037 0.00125394 0.000290259 0.000812592 -0.000379342 -0.00803165 0.00194178 0.00454203 0.00882934 0.000459924 0.00163469 0.0121189 0.0024767 0.00108325 0.00429835 -0.00121206
internal_weight=379058 1469 377589 6029 5503 371560 352968 14213 338755 321485 1407 18592 320078 318502 102806 4911 215696 121167 94529 1576 17586 6654 2809 103655 11570 1006 17270 11068 3783 91236
internal_count=379058 1469 377589 6029 5503 371560 352968 14213 338755 321485 1407 18592 320078 318502 102806 4911 215696 121167 94529 1576 17586 6654 2809 103655 11570 1006 17270 11068 3783 91236
is_linear=0
shrinkage=0.01


Tree=4
num_leaves=31
num_cat=0
split_feature=470 805 202 276 654 756 288 346 687 562 462 763 336 593 683 25 782 808 756 617 346 102 275 184 512 777 574 777 808 716
split_gain=3406.11 3657.43 2037.15 3321.39 1638.95 1288.02 1536.39 1602.25 1235.19 1223.94 1104.3 975.002 1045.08 932.005 904.618 844.546 849.861 854.725 827.295 811.29 769.867 661.209 650.269 642.658 641.363 638.485 669.636 653.89 603.156 583.875
threshold=-2.8530418872833248 0.46005859971046453 2.2593821287155156 1.2977052927017214 -1.674844443798065 1.7467708587646487 -0.18225499242544171 -0.82807156443595875 -1.4018362164497373 -1.1718168854713438 0.37574216723442083 -0.014333223458379505 1.468346178531647 0.64936000108718883 2.4324045181274419 0.39954991638660436 1.7640040516853335 -2.2446635961532588 -1.6803376674652097 0.015283571090549232 0.38738146424293524 -0.63573402166366566 -0.84409776329994191 -0.96764379739761341 -0.3661800324916839 -0.028856858611106869 -0.37178449332714075 -0.0038738743169233199 1.6609654426574709 -2.4173314571380611
decision_type=2 2 2 2 2 2 2 2 2 2 2 2 2 2 2 2 2 2 2 2 2 2 2 2 2 2 2 2 2 2
left_child=1 -1 5 4 -4 6 7 8 -2 10 22 12 14 -12 28 16 17 20 -9 -18 -13 24 -7 -19 -6 -11 -27 -28 -8 -15
right_child=2 -3 3 -5 21 9 11 18 -10 25 13 15 -14 29 -16 -17 19 23 -20 -21 -22 -23 -24 -25 -26 26 27 -29 -30 -31
leaf_value=0.00013026648188660221 -0.01621090325602749 -0.030979238623360387 0.019660260655007641 0.027523728367883173 0.013053675919360842 -0.004351489354219854 -0.00044908582769335954 -0.010793610056781177 -0.0041121566119669533 -0.0026991511768245974 0.0053749322214008124 0.00024359823584655627 -0.012748020332652505 0.0077905614370745724 -0.0086568229871563391 0.0021969701794357834 0.016792156799714769 0.010897356902868487 -0.00074473353438805185 0.00043903273578297134 0.017368512267906706 -0.0046647952325607747 0.0053546037453594429 9.2020947976288224e-05 0.002041207941534335 0.00086020852373627982 0.012660735778290919 -0.0002362454384832734 0.0039935034584553664 0.022119486619660882
leaf_weight=777 890 685 507 563 552 1076 133344 783 9191 3747 1813 505 642 562 1273 29257 558 503 51186 611 500 1244 1743 118858 4629 7112 1010 622 3078 760
leaf_count=777 890 685 507 563 552 1076 133344 783 9191 3747 1813 505 642 562 1273 29257 558 503 51186 611 500 1244 1743 118858 4629 7112 1010 622 3078 760
internal_value=-9.04855e-06 -0.0149881 5.10009e-05 0.00519492 0.00319731 -5.39928e-05 -0.000189428 -0.00161654 -0.00525503 0.00251813 0.00622904 0.00011707 -0.000489123 0.0102663 -0.00042736 0.000673172 0.000305597 0.000221367 -0.000906366 0.00861348 0.00918282 0.00175643 0.00163856 0.0001421 0.00332807 0.000731501 0.0022086 0.00788444 -0.000347424 0.016534
internal_weight=378581 1462 377119 7495 6932 369624 351179 62050 10081 18445 5954 289129 138337 3135 137695 150792 121535 120366 51969 1169 1005 6425 2819 119361 5181 12491 8744 1632 136422 1322
internal_count=378581 1462 377119 7495 6932 369624 351179 62050 10081 18445 5954 289129 138337 3135 137695 150792 121535 120366 51969 1169 1005 6425 2819 119361 5181 12491 8744 1632 136422 1322
is_linear=0
shrinkage=0.01


Tree=5
num_leaves=31
num_cat=0
split_feature=470 37 202 276 683 291 763 417 140 35 447 806 140 688 754 142 184 595 285 782 430 808 276 808 176 346 783 13 776 130
split_gain=3313.26 3466.5 2020.72 3497.91 1390.91 1247.95 1255.59 1964.4 1108.34 973.673 976.26 1382.53 1618.73 955.416 887.212 882.615 1094.7 962.565 814.548 811.947 1497.1 810.891 1915.77 739.352 734.033 707.251 685.451 661.094 648.004 641.768
threshold=-2.8530418872833248 0.46034687757492071 2.2593821287155156 1.2456473708152773 -2.1182862520217891 0.52593290805816661 -0.52083906531333912 2.4332599639892583 1.6962111592292788 -0.66200289130210865 1.4431307911872866 1.2427047491073611 0.17340304702520373 2.3848030567169194 0.64487028121948253 -0.15955119580030439 -0.63147461414337147 -2.0234605073928829 1.5995329022407534 1.7640040516853335 -0.38765637576580042 -0.46935123205184931 -0.26428052783012385 1.4429193735122683 0.75616693496704113 -1.1820107102394102 -0.72680121660232533 0.85083919763565075 0.16573166102170947 -0.48370434343814844
decision_type=2 2 2 2 2 2 2 2 2 2 2 2 2 2 2 2 2 2 2 2 2 2 2 2 2 2 2 2 2 2
left_child=1 -1 5 4 -4 6 7 13 15 21 19 -12 -13 23 26 17 -17 -7 -18 -11 -21 22 -8 25 -25 -2 -6 -19 -16 -24
right_child=2 -3 3 -5 14 8 9 -9 -10 10 11 12 -14 -15 28 16 18 27 -20 20 -22 -23 29 24 -26 -27 -28 -29 -30 -31
leaf_value=-0.00010630267720276183 -0.0094852387056437778 -0.030543532138960116 0.016598929000780079 0.026524899293946098 -0.0089550779065345441 0.013284144190989215 -0.021421178520410946 -0.01969634056936484 -0.012414887733622353 4.8902094219691538e-05 0.00096070213742090313 0.024338868875833808 0.0041138284131810796 -0.012718184117961955 -0.0019587265763119487 0.016915587628975614 0.0021663439515467397 -4.917530661339345e-05 0.011621907459333145 0.019828466836167596 0.0012613250235159626 -0.0008406356530396438 -0.0099940280937559321 0.00029786166641125556 0.010041002526953906 -0.001492116383609899 0.00089049681489585994 0.002536295205730078 0.0099605199013392594 -0.0014216410325779234
leaf_weight=774 1085 675 628 648 854 545 578 550 553 198201 3733 597 1086 699 618 516 15363 46564 923 536 1707 25610 1023 3115 980 48703 3214 12506 1548 4823
leaf_count=774 1085 675 628 648 854 545 578 550 553 198201 3733 597 1086 699 618 516 15363 46564 923 536 1707 25610 1023 3115 980 48703 3214 12506 1548 4823
internal_value=6.70524e-06 -0.014831 6.5614e-05 0.00518361 0.00299099 -3.8955e-05 -0.000336632 -0.00169566 0.00109379 -2.13876e-05 0.000231098 0.00440082 0.0117834 -0.00149641 0.00149899 0.0011996 0.00322052 0.000627797 0.00273616 0.000117363 0.00603386 -0.00164177 -0.00480441 -0.00133918 0.00272255 -0.00167565 -0.00126003 0.000499889 0.00659228 -0.00299377
internal_weight=378955 1449 377506 7510 6862 369996 293026 55132 76970 237894 205860 5416 1683 54582 6234 76417 16802 59615 16286 200444 2243 32034 6424 53883 4095 49788 4068 59070 2166 5846
internal_count=378955 1449 377506 7510 6862 369996 293026 55132 76970 237894 205860 5416 1683 54582 6234 76417 16802 59615 16286 200444 2243 32034 6424 53883 4095 49788 4068 59070 2166 5846
is_linear=0
shrinkage=0.01


Tree=6
num_leaves=31
num_cat=0
split_feature=470 805 202 611 140 102 756 288 346 688 780 782 29 566 183 335 756 651 742 781 337 756 686 178 804 429 784 335 742 762
split_gain=3283.97 3545.86 1924.52 2455.92 1401.66 1336.27 1313.02 1536.59 1491.38 1407.25 1104.62 989.489 1174.88 961.014 950.247 906.787 1086.87 910.203 1539.28 896.6 888.529 782.974 745.821 960.79 803.718 963.484 1089.15 1229.12 757.13 707.761
threshold=-2.8530418872833248 0.46005859971046453 2.2593821287155156 -0.21522503346204755 0.80987328290939342 -2.4050945043563838 2.0154063701629643 -0.18225499242544171 -0.82807156443595875 -1.951470613479614 -0.73159411549568165 -0.71352738142013539 -0.83794039487838734 0.28043515980243688 -1.7895452380180357 1.3903072476387026 -0.021799620240926739 1.1799885630607607 -1.1223556995391843 -0.63200563192367543 0.99345374107360851 -1.7302568554878233 1.4948568940162661 -0.55203467607498158 0.70006605982780468 0.68397924304008495 0.16820368170738223 0.14425155520439151 -0.66519182920455922 -2.3086760044097896
decision_type=2 2 2 2 2 2 2 2 2 2 2 2 2 2 2 2 2 2 2 2 2 2 2 2 2 2 2 2 2 2
left_child=1 -1 6 -4 -5 19 7 8 9 10 -2 12 -8 -7 -14 16 17 29 -19 -6 22 -10 24 -24 -18 26 28 -28 -26 -9
right_child=2 -3 3 4 5 13 11 15 21 -11 -12 -13 14 -15 -16 -17 20 18 -20 -21 -22 -23 23 -25 25 -27 27 -29 -30 -31
leaf_value=3.6110094637700879e-05 -0.024097811543261228 -0.030898928793893311 0.021387627349490578 -0.0018904950160097958 -0.0032884979787869036 0.025400811753428735 -0.00047707929007780698 0.0099635230648050781 -0.011123758472173804 -0.0030855272509178007 -0.0075643062265890616 -0.00029680067377526454 0.02037945612844521 0.0075149368120807905 0.0063838951882357799 0.0027221771754488418 0.0003183802176145485 -0.020207400345973715 -0.0028708685732092834 0.0089977041267693784 0.0048268278677507286 -0.00071443411025656528 -0.015115391193425032 -0.0016659972133687057 0.0077390318258310766 0.0002707010635670012 0.017774436305586699 0.0019966071661716412 -0.00098721504860164468 -0.00061503756569384217
leaf_weight=770 525 664 773 3087 1219 505 2432 587 683 8936 1653 5267 507 795 4912 13049 155508 508 6651 1074 4560 52658 528 6829 1667 6545 1229 827 2339 91358
leaf_count=770 525 664 773 3087 1219 505 2432 587 683 8936 1653 5267 507 795 4912 13049 155508 508 6651 1074 4560 52658 528 6829 1667 6545 1229 827 2339 91358
internal_value=1.86321e-07 -0.0148465 5.85875e-05 0.00507256 0.00303973 0.00724345 -4.31484e-05 -0.000157623 -0.00155453 -0.00487861 -0.012001 0.00305787 0.00529606 0.0151463 0.00786766 0.000150742 3.00675e-05 -0.000810719 -0.00423268 0.00253535 0.000493 -0.000858012 0.000379034 -0.00272676 0.000515719 0.00293903 0.00579417 0.0116261 0.00269464 -0.000542123
internal_weight=378645 1434 377211 7453 6680 3593 369758 356640 64455 11114 2178 13118 7851 1300 5419 292185 279136 99104 7159 2293 180032 53341 175472 7357 168115 12607 6062 2056 4006 91945
internal_count=378645 1434 377211 7453 6680 3593 369758 356640 64455 11114 2178 13118 7851 1300 5419 292185 279136 99104 7159 2293 180032 53341 175472 7357 168115 12607 6062 2056 4006 91945
is_linear=0
shrinkage=0.01


Tree=7
num_leaves=31
num_cat=0
split_feature=804 805 295 742 806 299 36 596 633 781 461 26 568 808 287 32 101 562 783 779 679 335 95 389 590 137 86 612 45 688
split_gain=3340.67 3549.09 1805.75 2188.04 1691.28 1335.98 1622.65 1233.7 1138.15 1081.47 1033.31 1013.93 955.052 922.454 1357.54 818.191 970.72 773.468 760.825 1744.12 710.208 748.486 891.381 632.039 608.418 603.435 597.023 1245.08 585.42 592.401
threshold=-2.8456574678421016 0.46005859971046453 2.9290078878402714 -0.39963170886039728 1.7165533900260928 -0.557979255914688 -0.99973163008689869 4.3057153224945077 3.7951171398162846 -0.7497955560684203 1.3551911115646365 1.6067992448806765 -1.1720383763313291 1.6117463111877444 0.59161201119422924 -0.20810662955045697 1.9359634518623354 -0.42387311160564417 1.1678009033203127 0.67609754204750072 -1.5776084065437315 0.10085669904947282 0.81026771664619457 0.42795675992965704 0.33792965114116674 1.3294984102249148 0.65808707475662243 2.2838370800018315 -0.68855601549148548 2.8733414411544804
decision_type=2 2 2 2 2 2 2 2 2 2 2 2 2 2 2 2 2 2 2 2 2 2 2 2 2 2 2 2 2 2
left_child=1 -1 4 -4 5 6 9 10 11 -2 20 13 -12 15 25 16 26 -16 -8 -20 23 -22 -23 -6 -18 -15 -7 -28 -17 -30
right_child=2 -3 3 -5 7 8 18 -9 -10 -11 12 -13 -14 14 17 28 24 -19 19 -21 21 22 -24 -25 -26 -27 27 -29 29 -31
leaf_value=0.00015483484620336938 -0.022766653222055337 -0.030373249708674849 0.026697156085085987 0.0019131483563389489 0.002793430643351618 -0.0010190920820528629 -0.00082153197658132299 0.016071170816910178 -0.012668153300430831 -0.0053683755411815482 0.021062692710961374 0.0035651380971385115 0.0020429097398632985 0.0020982841696515005 0.021305812496277644 -0.0011967195996616348 -0.0036576533612321461 0.0055306732318109991 -0.022638681399321039 -0.0022920366834771138 -0.00021082384140113991 0.0017195869179620995 0.010781527555167886 0.015537885557583779 -0.017366862293891946 -0.0078613449009524005 0.00073832930770848946 0.016095931614763814 0.00041234210624305255 -0.0065445637169056691
leaf_weight=778 593 695 507 1012 987 91688 10912 630 659 900 503 7809 528 9072 503 27236 868 826 503 1828 11859 3899 1468 624 503 603 7078 521 191949 1182
leaf_count=778 593 695 507 1012 987 91688 10912 630 659 900 503 7809 528 9072 503 27236 868 826 503 1828 11859 3899 1468 624 503 603 7078 521 191949 1182
internal_value=7.21407e-06 -0.0147734 6.68761e-05 0.0107725 2.21679e-05 -0.000139163 -0.00308185 0.00281159 -1.13759e-05 -0.0127926 0.00235185 1.50276e-05 0.0118672 -6.89918e-05 0.00277131 -0.000166767 -0.000913507 0.0120573 -0.00194307 -0.00706579 0.00180101 0.00119509 0.00427488 0.00804896 -0.00912146 0.00144032 -0.000795634 0.0018896 0.000174454 0.000368082
internal_weight=378723 1473 377250 1519 375731 355233 14736 20498 340497 1493 19868 339838 1031 332029 11004 321025 100658 1329 13243 2331 18837 17226 5367 1611 1371 9675 99287 7599 220367 193131
internal_count=378723 1473 377250 1519 375731 355233 14736 20498 340497 1493 19868 339838 1031 332029 11004 321025 100658 1329 13243 2331 18837 17226 5367 1611 1371 9675 99287 7599 220367 193131
is_linear=0
shrinkage=0.01


Tree=8
num_leaves=31
num_cat=0
split_feature=470 805 295 742 756 276 95 590 461 31 562 679 136 347 178 763 760 595 769 336 418 469 28 784 173 39 100 684 389 631
split_gain=3238.92 3454.03 1911.6 2248.27 1624.33 1336.76 1464.68 1218.7 1027.56 958.704 745.82 719.472 683.135 767.212 697.751 677.221 660.262 640.985 847.205 665.186 638.214 621.41 672.636 655.017 618.005 645.77 611.87 572.303 536.616 520.695
threshold=-2.8530418872833248 0.46005859971046453 2.9290078878402714 -0.41111084818840021 1.7217347621917727 -0.670886069536209 -1.1757304668426511 4.4839868545532235 1.3551911115646365 -0.087354738265275941 -1.1396397352218626 -1.7139341831207273 -0.45869462192058558 -0.17074565589427945 -0.49520301818847651 -0.021800753660500046 0.96637392044067394 -1.7115048170089719 0.8121137022972108 2.3019944429397587 -1.318866431713104 0.65348875522613536 -0.86082184314727772 1.9595531821250918 0.43138524889945989 -0.41777701675891871 -0.7895614206790923 3.0910373926162724 0.42795675992965704 1.4549751877784731
decision_type=2 2 2 2 2 2 2 2 2 2 2 2 2 2 2 2 2 2 2 2 2 2 2 2 2 2 2 2 2 2
left_child=1 -1 4 -4 5 6 -2 8 11 17 -10 28 29 -14 -15 26 -17 18 -7 21 -21 22 -19 -23 -16 -26 -11 -28 -6 -13
right_child=2 -3 3 -5 7 9 -8 -9 10 15 -12 12 13 14 24 16 -18 19 -20 20 -22 23 -24 -25 25 -27 27 -29 -30 -31
leaf_value=6.1021700822475862e-05 -0.01600468287111154 -0.030317604694223385 0.027244664635408568 0.0021670619359729698 0.0031624525084971373 1.7463316789630439e-05 -0.0023362865098067267 0.016020482566926612 0.019825566421088296 -0.0036637719477891038 0.0027478040666214553 -0.00010390424792421981 -0.0006099419518394159 -0.0029096425296736882 -5.9289903360518281e-05 0.00068933891455349268 0.0032691686225343104 -0.0030706549312811689 0.015321535320596441 -0.013221596848663154 0.000948033563431359 0.0008700670000435655 -0.00064344645691172373 0.011975078628336164 0.0048662262891668384 0.013081564523737257 5.5230346574213702e-05 -0.0086374807661321225 0.015800507279175022 -0.008949916802632088
leaf_weight=771 785 677 505 1032 838 967 13525 621 510 4813 505 1870 6161 1202 1685 97660 11000 12708 528 772 508 13842 109225 503 4148 1248 87404 714 550 984
leaf_count=771 785 677 505 1032 838 967 13525 621 510 4813 505 1870 6161 1202 1685 97660 11000 12708 528 772 508 13842 109225 503 4148 1248 87404 714 550 984
internal_value=-4.93962e-06 -0.0146801 5.33936e-05 0.0110054 7.07795e-06 -0.000150504 -0.00313921 0.0027531 0.0022954 -2.45106e-05 0.0118567 0.00174579 0.00117711 0.00206114 0.00403967 0.000416055 0.000951887 -0.000663137 0.00574344 -0.000734826 -0.0077738 -0.000665885 -0.000897568 0.0012997 0.00523144 0.00686895 -0.000210644 -2.00631e-05 0.00854559 -0.00325541
internal_weight=378261 1448 376813 1537 375276 354954 14310 20322 19701 340644 1015 18686 17298 14444 8283 201591 108660 139053 1495 137558 1280 136278 121933 14345 7081 5396 92931 88118 1388 2854
internal_count=378261 1448 376813 1537 375276 354954 14310 20322 19701 340644 1015 18686 17298 14444 8283 201591 108660 139053 1495 137558 1280 136278 121933 14345 7081 5396 92931 88118 1388 2854
is_linear=0
shrinkage=0.01


Tree=9
num_leaves=31
num_cat=0
split_feature=804 805 295 616 756 276 95 596 461 348 761 291 428 576 608 762 736 469 740 170 37 568 100 687 780 761 761 612 413 182
split_gain=3111.27 3441.81 1870.41 1866.42 1693.64 1306.92 1530.53 1227.81 1048.43 1042.72 1658.71 1365.89 1281.14 1275.22 1265.09 1082.02 1264.2 998.947 987.003 947.093 940.713 925.256 905.005 879.015 751.828 729.679 694.381 693.512 693.369 676.447
threshold=-2.8456574678421016 0.46005859971046453 2.9290078878402714 -0.38005186617374415 1.7217347621917727 -0.70589849352836598 -1.1757304668426511 4.3057153224945077 1.3551911115646365 0.40265661478042608 0.65102759003639232 0.90132880210876476 0.27332054078578955 1.3761994242668154 -0.079713929444551454 1.6114176511764529 -1.005601108074188 1.3526475429534914 -1.3222182393074033 0.37401744723320013 -0.29148656129837031 -1.1720383763313291 0.78305917978286754 2.2909075021743779 -0.73153391480445851 -0.59182944893836964 2.6918119192123418 1.0324334502220156 0.21667914837598803 -0.99404829740524281
decision_type=2 2 2 2 2 2 2 2 2 2 2 2 2 2 2 2 2 2 2 2 2 2 2 2 2 2 2 2 2 2
left_child=1 -1 4 -4 5 6 -2 8 -6 10 15 14 13 22 -12 20 -17 -16 -19 -15 25 -10 24 29 -11 -7 -26 -13 -20 -22
right_child=2 -3 3 -5 7 9 -8 -9 21 12 11 27 -14 19 17 16 -18 18 28 -21 23 -23 -24 -25 26 -27 -28 -29 -30 -31
leaf_value=0.00024111667619096792 -0.016891857127946372 -0.029818596255300301 0.0007404979947432112 0.022596296517191743 0.0018015185691437445 -0.0039418481896937871 -0.0023664504007678013 0.015919900685525262 0.020843066684052419 -0.0078625896868595169 0.012280753566152944 0.0064321954714724851 0.00032617600050500816 -0.0052919461528003276 0.0008550371585246035 0.017837195670262464 0.0026015399370946076 -0.0011459971923994455 0.021559169632916347 -0.016951729844839093 0.003174870207288722 0.0019930659063203057 0.010359418906715823 -0.0083144810846168798 -0.0011731540827014388 -0.00078543101638991098 -0.0096599272497795412 0.020336143274442709 0.0067276699918306197 0.00012638011691300412
leaf_weight=789 723 685 843 684 18732 8452 12417 643 512 2181 1079 1233 21587 2731 23647 565 5026 776 515 926 7515 507 524 1158 16224 53197 977 508 877 192618
leaf_count=789 723 685 843 684 18732 8452 12417 643 512 2181 1079 1233 21587 2731 23647 565 5026 776 515 926 7515 507 524 1158 16224 53197 977 508 877 192618
internal_value=1.11219e-05 -0.0142483 6.86979e-05 0.0109366 2.30953e-05 -0.000137863 -0.00322668 0.00282198 0.00235645 -1.88427e-05 0.000196359 0.00248206 -0.0014339 -0.00304364 0.001915 -4.77947e-05 0.00428564 0.00145883 0.00787687 -0.00843318 -0.000140736 0.0119962 -0.00203487 0.000190341 -0.00239574 -0.00122102 -0.0016818 0.0109436 0.0127722 0.000241615
internal_weight=378851 1474 377377 1527 375850 355456 13140 20394 19751 342316 297166 28635 45150 23563 26894 268531 5591 25815 2168 3657 262940 1019 19906 201291 19382 61649 17201 1741 1392 200133
internal_count=378851 1474 377377 1527 375850 355456 13140 20394 19751 342316 297166 28635 45150 23563 26894 268531 5591 25815 2168 3657 262940 1019 19906 201291 19382 61649 17201 1741 1392 200133
is_linear=0
shrinkage=0.01


Tree=10
num_leaves=31
num_cat=0
split_feature=470 284 202 276 654 756 288 346 688 562 430 462 763 336 593 27 808 346 184 782 687 586 777 596 756 776 275 808 512 424
split_gain=3055.06 3288.04 1821.56 3242.02 1450.97 1143.16 1383.95 1506.28 1349.24 1203.02 1173.41 1157.96 942.349 950.455 868.917 825.838 792.867 878.304 777.128 777.965 757.704 749.541 740.088 878.043 736.269 702.763 643.604 610.642 811.393 603.658
threshold=-2.8530418872833248 1.0370076298713686 2.2593821287155156 1.2977052927017214 -1.674844443798065 1.7467708587646487 -0.18225499242544171 -0.82807156443595875 -1.951470613479614 -1.1718168854713438 -0.86394327878952015 0.40566831827163702 -0.014333223458379505 1.468346178531647 0.64936000108718883 1.3642959594726565 -2.2446635961532588 0.40134544670581823 -0.96764379739761341 1.7640040516853335 2.2909075021743779 -0.79496192932128895 -0.026754193007946011 0.36203095316886907 -1.6803376674652097 0.16573166102170947 -0.84409776329994191 1.2601563930511477 -0.37641750276088709 -0.21065264940261838
decision_type=2 2 2 2 2 2 2 2 2 2 2 2 2 2 2 2 2 2 2 2 2 2 2 2 2 2 2 2 2 2
left_child=1 -1 5 4 -4 6 7 8 10 11 -2 26 13 20 -13 16 17 -14 -18 -20 -8 -11 -23 -24 -9 -6 -7 28 -27 -21
right_child=2 -3 3 -5 25 9 12 24 -10 21 -12 14 15 -15 -16 -17 18 -19 19 29 -22 22 23 -25 -26 27 -28 -29 -30 -31
leaf_value=-0.0028689608712312866 -0.0056506066046845939 -0.033602845163133409 0.018438614028057878 0.026905803420721301 -0.0029791402385064992 -0.0041459466809280927 -0.00033564890946536025 -0.010188683697582008 -0.0032940039946567261 -0.0010724849378523492 -0.022107993245128958 0.0055192767063476367 0.00035075684588985342 -0.012210618438431313 0.016508946751883948 0.0048010347277394278 0.011647877658007563 0.017924248992757848 0.00035473484108810525 0.015967604236438167 -0.0078209698764703777 -0.0003234302361894953 0.0016933745210447387 0.014612800232118833 -0.00068076851954939537 0.013046297399964553 0.0052478563830956216 0.011607410619697086 -4.410836861676712e-05 0.002373289590697953
leaf_weight=968 1072 503 507 567 2179 1159 136479 778 8192 8490 737 1746 592 636 1277 4648 570 501 143209 505 1316 1938 1065 1019 51202 514 1797 790 2949 846
leaf_count=968 1072 503 507 567 2179 1159 136479 778 8192 8490 737 1746 592 636 1277 4648 570 501 143209 505 1316 1938 1065 1019 51202 514 1797 790 2949 846
internal_value=6.58991e-06 -0.0141374 6.36028e-05 0.00492413 0.00294833 -3.57129e-05 -0.000163421 -0.00151884 -0.00506299 0.00238431 -0.0127698 0.00605413 0.000127181 -0.000468553 0.0103547 0.000673769 0.000540979 0.00883766 0.000475473 0.000427408 -0.000409948 0.000613533 0.004142 0.00820487 -0.000832731 0.0015945 0.001557 0.00394517 0.00205688 0.00784332
internal_weight=378751 1471 377280 7506 6939 369774 351283 61981 10001 18491 1809 5979 289302 138431 3023 150871 146223 1093 145130 144560 137795 12512 4022 2084 51980 6432 2956 4253 3463 1351
internal_count=378751 1471 377280 7506 6939 369774 351283 61981 10001 18491 1809 5979 289302 138431 3023 150871 146223 1093 145130 144560 137795 12512 4022 2084 51980 6432 2956 4253 3463 1351
is_linear=0
shrinkage=0.01


Tree=11
num_leaves=31
num_cat=0
split_feature=470 37 295 167 756 299 36 784 596 773 779 461 340 756 289 171 195 568 592 589 28 617 679 777 654 133 421 181 765 615
split_gain=3124.69 3421.18 1754.91 1660.87 1534.37 1262.96 1579.45 1340.24 1178 1161.73 1400.34 994.203 981.873 944.335 1112.64 1745.2 912.065 845.857 770.23 680.198 667.754 702.082 660.625 656.69 972.584 653.642 616.788 616.205 586.393 608.903
threshold=-2.8530418872833248 0.46034687757492071 2.9290078878402714 0.5813012719154359 1.7217347621917727 -0.557979255914688 -0.99973163008689869 -0.87239855527877797 4.3057153224945077 -0.59929096698760975 0.67609754204750072 1.3551911115646365 -2.1801134347915645 1.0000000180025095e-35 0.54802247881889354 -1.0378342270851133 -0.41476538777351374 -1.168113589286804 -1.0534668564796446 -1.8791469335556028 -0.70978161692619313 0.0034177683992311363 -1.5173901319503782 -0.015254179481416939 1.0843415856361391 -1.5456175804138181 1.2330898046493532 -0.42265678942203516 -2.1155036687850948 2.0196081399917607
decision_type=2 2 2 2 2 2 2 2 2 2 2 2 2 2 2 2 2 2 2 2 2 2 2 2 2 2 2 2 2 2
left_child=1 -1 4 -4 5 6 7 -2 11 10 -8 22 25 16 19 18 -14 -13 -16 -15 21 28 -6 -23 27 -7 -22 -25 -21 -30
right_child=2 -3 3 -5 8 12 9 -9 -10 -11 -12 17 13 14 15 -17 -18 -19 -20 20 26 23 -24 24 -26 -27 -28 -29 29 -31
leaf_value=0.00030595331960832839 -0.023740618964818015 -0.029561168028618818 0.0028474212472663 0.024433856784029321 0.0076225443533389304 -0.014873269651900223 -0.022800047577240252 -0.0045179038803888098 0.015655980504776849 -0.00077526692909543051 -0.003038775548897376 0.020197523459539974 -0.002689470249660287 0.0083846998590227876 0.021262331697369831 0.0018040408151286992 -0.00031263457243742342 0.002099476459863392 0.0053076070396664392 0.0095883423608860794 0.00028819866272218798 -0.00086016580655586092 0.001084402204060562 -0.007497861688184111 -0.014472644848063168 -0.0030892850663598627 0.0055604279460239213 -0.0009786267522107863 -0.00054381084890543243 0.010167890937497218
leaf_weight=785 587 698 1027 509 1653 611 500 913 627 11691 1085 504 19327 951 621 21819 96891 508 632 615 167324 8639 17045 2314 891 1771 2199 3796 11603 506
leaf_count=785 587 698 1027 509 1653 611 500 913 627 11691 1085 504 19327 951 621 21819 96891 508 632 615 167324 8639 17045 2314 891 1771 2199 3796 11603 506
internal_value=-9.26568e-06 -0.0142572 4.864e-05 0.0105455 4.31824e-06 -0.000148752 -0.00300587 -0.0125636 0.00267225 -0.00188289 -0.00977923 0.00222065 -2.43478e-05 2.11869e-05 0.000403613 0.00247986 -0.000708888 0.0116393 0.0137274 0.000162134 0.00012051 -0.00129827 0.0016812 -0.00271392 -0.00497908 -0.0063556 0.000358208 -0.00348843 0.000445637 -5.62283e-05
internal_weight=378642 1483 377159 1536 375623 355286 14776 1500 20337 13276 1585 19710 340510 338128 221910 23072 116218 1012 1253 198838 197887 28364 18698 15640 7001 2382 169523 6110 12724 12109
internal_count=378642 1483 377159 1536 375623 355286 14776 1500 20337 13276 1585 19710 340510 338128 221910 23072 116218 1012 1253 198838 197887 28364 18698 15640 7001 2382 169523 6110 12724 12109
is_linear=0
shrinkage=0.01


Tree=12
num_leaves=31
num_cat=0
split_feature=470 37 202 283 348 341 756 298 678 806 594 505 777 651 742 340 756 337 178 425 419 336 711 808 781 195 431 98 684 27
split_gain=2932.82 3211.43 1815.96 2768.35 1670.02 1162.51 1137.78 1017.73 1514.41 965.492 1177.49 894.701 2322.91 935.254 1306.95 893.658 894.149 956.273 939.918 1557.57 817.104 809.421 786.292 715.458 704.396 696.204 686.31 884.981 646.873 622.892
threshold=-2.8530418872833248 0.46034687757492071 2.1532630920410161 2.3016620874404912 -0.65624466538429249 1.2350032329559328 1.0000000180025095e-35 -0.77182134985923756 -0.8203049600124358 0.8372168540954591 0.29190015792846685 -1.9268791675567625 -0.010884369257837532 1.2664809823036196 -1.0678982734680174 -2.1801134347915645 2.0154063701629643 0.99345374107360851 -0.46087154746055597 0.32787637412548071 -0.13035236299037931 2.3019944429397587 0.73720943927764904 -2.1815329790115352 -0.75076505541801442 -0.34350231289863581 0.03801859728991986 0.061861960217356689 -0.87351584434509266 -0.51102727651596058
decision_type=2 2 2 2 2 2 2 2 2 2 2 2 2 2 2 2 2 2 2 2 2 2 2 2 2 2 2 2 2 2
left_child=1 -1 5 4 -4 6 11 8 -8 -6 -11 12 -2 25 -15 21 17 23 -18 28 -12 -9 -22 -17 26 -13 27 -7 -20 -25
right_child=2 -3 3 -5 9 24 7 15 -10 10 20 13 -14 14 -16 16 18 -19 19 -21 22 -23 -24 29 -26 -27 -28 -29 -30 -31
leaf_value=0.00013763162137818847 -0.0018226817078970223 -0.028944251049122939 0.019811019909735935 0.025854391614335257 -0.0018191302038912519 0.005027013721047178 -0.019288633555955816 -0.0017035001802784059 -0.0021659582753751775 -0.00082409808433313585 0.0013586790443278871 -0.0019653930745767638 -0.022205692303691012 -0.018979720055522422 -0.0030580445931690406 0.010785318842929135 -0.0013717809043699253 0.0043768902124403444 0.013293106991544457 0.00043963317101268013 0.019570105826414969 -0.013741532658297377 0.0047158131113105989 -0.0010041937021333745 0.0011009825523122341 -9.5654292052568208e-05 0.0024305804448189533 0.018663542419950777 0.0050906680277275421 0.00037012421486598573
leaf_weight=788 2725 682 505 519 3762 1515 515 1816 6283 1860 790 27338 657 511 6908 579 3234 5404 2016 3837 920 768 627 40841 13772 73004 3419 685 1986 170403
leaf_count=788 2725 682 505 519 3762 1515 515 1816 6283 1860 790 27338 657 511 6908 579 3234 5404 2016 3837 920 768 627 40841 13772 73004 3419 685 1986 170403
internal_value=-3.75653e-07 -0.0138631 5.54795e-05 0.00448518 0.00303071 -5.31817e-05 -0.000185796 0.000204766 -0.00359449 0.00184896 0.00511958 -0.00102074 -0.00604818 -0.000860224 -0.0042744 0.000317383 0.00038412 0.000242464 0.00314952 0.00501166 0.00976829 -0.0054743 0.0138858 0.000135979 0.00232676 -0.000605786 0.00529488 0.00959332 0.00933568 0.000104245
internal_weight=378669 1470 377199 8983 8464 368216 348825 237682 6798 7959 4197 111143 3382 107761 7419 230884 228300 217227 11073 7839 2337 2584 1547 211823 19391 100342 5619 2200 4002 211244
internal_count=378669 1470 377199 8983 8464 368216 348825 237682 6798 7959 4197 111143 3382 107761 7419 230884 228300 217227 11073 7839 2337 2584 1547 211823 19391 100342 5619 2200 4002 211244
is_linear=0
shrinkage=0.01


Tree=13
num_leaves=31
num_cat=0
split_feature=470 37 295 742 756 299 36 780 348 223 428 582 596 461 170 592 426 605 568 777 89 583 505 762 343 32 679 335 95 682
split_gain=2955.1 3183.46 1799.5 2074.2 1464.94 1218.82 1555.78 1164.36 1127.41 1382.64 1325.9 1278.75 1114.51 1044.75 1005.57 969.722 956.092 1018.51 893.016 826.787 1023.5 806.286 851.053 785.815 995.434 794.123 697.108 751.208 884.17 640.961
threshold=-2.8530418872833248 0.46034687757492071 2.9290078878402714 -0.41111084818840021 1.7217347621917727 -0.557979255914688 -0.99973163008689869 -0.73124375939369191 0.40265661478042608 1.5726689100265505 0.27332054078578955 1.4280834197998049 4.3057153224945077 1.3551911115646365 0.37401744723320013 -2.3808305263519283 0.70518234372138988 -0.025775608606636521 -1.1720383763313291 -0.032072084024548524 -0.5496193766593932 -1.1491352319717405 -1.2145125269889829 1.6114176511764529 -0.10101126879453658 -0.20810662955045697 -1.5173901319503782 0.10085669904947282 0.76066514849662792 -1.8171942830085752
decision_type=2 2 2 2 2 2 2 2 2 2 2 2 2 2 2 2 2 2 2 2 2 2 2 2 2 2 2 2 2 2
left_child=1 -1 4 -4 5 6 7 -2 9 15 11 29 13 26 -13 -7 17 -11 -15 -18 -21 22 -8 25 -25 -17 -6 -28 -29 -10
right_child=2 -3 3 -5 12 8 21 -9 10 16 -12 14 -14 18 -16 23 19 -19 -20 20 -22 -23 -24 24 -26 -27 27 28 -30 -31
leaf_value=0.00013707498279184402 -0.023122288888718395 -0.029060338079600952 0.02634726299722915 0.0021542314037817753 0.0077028853421821147 0.012718403684335893 -0.015028808132802817 -0.0050490344627636555 -0.010230797937691912 0.013956345317425217 0.0003213309620655154 -0.005355824558940802 0.015233112005007892 0.02052701561101121 -0.017752902092052332 -0.00080894444717602269 0.0018996567537379167 -0.00036758354061920895 0.0020517422549160757 0.00089370289413062372 0.017798974726313328 -0.00040460720617777421 -0.0031725459827380191 0.0008226345573571648 0.011465506080153579 0.00034919914682810286 -0.00041901495505403417 0.0014497937759192731 0.010351004642662896 -0.001758313510600107
leaf_weight=768 570 676 502 1018 1659 557 760 928 888 522 21566 2560 627 509 867 84280 1057 3739 515 501 1256 9918 2563 2539 1301 198674 11739 3807 1541 20012
leaf_count=768 570 676 502 1018 1659 557 760 928 888 522 21566 2560 627 509 867 84280 1057 3739 515 501 1256 9918 2563 2539 1301 198674 11739 3807 1541 20012
internal_value=-1.035e-05 -0.0140466 4.52716e-05 0.0107289 5.96874e-07 -0.000149271 -0.00295964 -0.0124508 -2.71388e-05 0.000200175 -0.0014841 -0.003082 0.00260339 0.00216542 -0.00870236 9.22604e-05 0.00455173 0.00152871 0.0117633 0.00902263 0.0131366 -0.00184308 -0.00606676 6.55257e-05 0.00452949 4.1553e-06 0.00161123 0.000999039 0.00408675 -0.00214185
internal_weight=378419 1444 376975 1520 375455 355058 14739 1498 340319 294426 45893 24327 20397 19770 3427 287351 7075 4261 1024 2814 1757 13241 3323 286794 3840 282954 18746 17087 5348 20900
internal_count=378419 1444 376975 1520 375455 355058 14739 1498 340319 294426 45893 24327 20397 19770 3427 287351 7075 4261 1024 2814 1757 13241 3323 286794 3840 282954 18746 17087 5348 20900
is_linear=0
shrinkage=0.01


Tree=14
num_leaves=31
num_cat=0
split_feature=470 284 202 276 654 756 285 562 462 223 143 618 175 425 763 27 808 618 140 593 633 140 714 142 186 568 296 136 342 580
split_gain=3062.27 3319.77 1698.91 3341.32 1308.23 1128.46 1220.3 1156.72 1066.94 979.72 1139.38 925.934 966.116 918.465 899.147 842.44 873.976 968.25 828.891 797.165 679.979 771.159 656.499 649.939 646.179 607.988 583.744 901.223 574.786 658.009
threshold=-2.8530418872833248 1.0370076298713686 2.1532630920410161 1.2456473708152773 -1.674844443798065 1.7467708587646487 -0.58193132281303395 -1.1718168854713438 0.40566831827163702 1.228613615036011 -0.079560112208127962 1.3488813042640688 -2.3996908664703365 -0.17876461893320081 -0.064474828541278825 1.3139904141426089 -2.2446635961532588 0.050028380006551749 1.2940421700477602 0.64936000108718883 3.3654134273529057 0.77500060200691234 0.8954320251941682 -0.11085946857929228 -2.6296159029006954 -0.87693837285041798 -0.72409501671791066 -0.53434056043624867 0.020428624935448173 -2.0795388221740718
decision_type=2 2 2 2 2 2 2 2 2 2 2 2 2 2 2 2 2 2 2 2 2 2 2 2 2 2 2 2 2 2
left_child=1 -1 5 4 -4 6 9 8 -7 22 -11 12 -8 23 18 16 17 -16 28 -10 21 -6 -2 -13 -23 -20 27 -18 29 -14
right_child=2 -3 3 -5 20 7 11 -9 19 10 -12 13 14 -15 15 -17 26 -19 25 -21 -22 24 -24 -25 -26 -27 -28 -29 -30 -31
leaf_value=-0.0028174197462980666 -0.0026591021162940712 -0.033642174832886354 0.016690859811495946 0.023906968198318838 -0.00069138146638436952 0.0015921004505649143 -0.010155259488177564 0.00061753452855563848 0.0053997150658083018 -0.020643941057100247 -0.0046854611751861721 0.0050191546524340994 0.0095678075063083453 0.0014082078987089626 0.00047434090681242324 0.0041903919985919833 -0.012711554103489045 0.018531041031651801 -0.00035691318844275721 0.015931502237356183 -0.0086475022453328457 0.0015317960224613975 0.0021150507165882794 0.019749884486360753 0.010716019580758993 -0.014743462978499256 0.00029108922501659327 -0.00042628585589774649 -0.001699001554636448 -0.00028662114335902949
leaf_weight=968 13953 506 547 746 4042 2889 902 12397 1725 527 2217 735 632 2748 650 5627 828 501 500 1291 582 1630 3586 518 1429 671 172724 1878 35105 105431
leaf_count=968 13953 506 547 746 4042 2889 902 12397 1725 527 2217 735 632 2748 650 5627 828 501 500 1291 582 1630 3586 518 1429 671 172724 1878 35105 105431
internal_value=-8.99723e-06 -0.0141556 4.81816e-05 0.00433442 0.00242663 -5.69299e-05 -0.00018374 0.00236019 0.00598284 -0.00256128 -0.00806496 -3.69976e-05 -9.61258e-05 0.00471443 -6.66089e-05 0.000398564 0.00027658 0.00877822 -0.000662007 0.0100941 0.00130972 0.00218057 -0.00167975 0.0116331 0.00592551 -0.00886678 0.000218316 -0.00434783 -0.000590833 -0.000223421
internal_weight=378485 1474 377011 8976 8230 368035 349733 18302 5905 20283 2744 329450 325449 4001 324547 182208 176581 1151 142339 3016 7683 7101 17539 1253 3059 1171 175430 2706 141168 106063
internal_count=378485 1474 377011 8976 8230 368035 349733 18302 5905 20283 2744 329450 325449 4001 324547 182208 176581 1151 142339 3016 7683 7101 17539 1253 3059 1171 175430 2706 141168 106063
is_linear=0
shrinkage=0.01


Tree=15
num_leaves=31
num_cat=0
split_feature=470 805 202 276 335 291 617 101 566 27 761 688 784 808 387 688 783 296 756 556 142 182 808 432 783 447 756 595 340 88
split_gain=2870.4 3067.73 1665.85 2991.19 1290.75 1155.3 1061.58 1551.07 1549.08 1329.67 1291.48 1526.81 1252.41 1123.02 1074 1028.86 1001.38 987.525 938.49 946.56 935.176 1372.44 890.773 827.13 783.899 783.356 1766.9 775.238 723.282 721.493
threshold=-2.8530418872833248 0.46005859971046453 2.2593821287155156 1.2456473708152773 -1.1873642802238462 0.52593290805816661 0.0034177683992311363 -1.1073561906814573 -0.35300961136817927 -0.72268339991569508 -0.18080507963895795 -0.055852366611361497 2.0507553815841679 -0.60581299662590016 0.85659876465797435 2.3848030567169194 -0.82146227359771717 -0.075345709919929491 2.1660200357437138 -1.1447304487228391 -0.05436055734753608 1.7223832011222842 1.6117463111877444 -0.89246734976768483 -0.85440987348556507 1.6207563281059267 0.99516868591308605 -2.0234605073928829 -2.1801134347915645 0.016118004918098453
decision_type=2 2 2 2 2 2 2 2 2 2 2 2 2 2 2 2 2 2 2 2 2 2 2 2 2 2 2 2 2 2
left_child=1 -1 5 4 -4 6 10 8 -8 13 11 14 18 17 -2 25 24 -9 28 -20 21 27 23 -22 -15 -11 -27 -7 -12 -26
right_child=2 -3 3 -5 -6 20 7 9 -10 15 12 -13 -14 16 -16 -17 -18 -19 19 -21 22 -23 -24 -25 29 26 -28 -29 -30 -31
leaf_value=-0.0001719592612348348 -0.0034620512670146182 -0.0289530388087685 0.016697347190871563 0.02473085513982155 0.0013523674463778706 0.011751911471875029 -0.020107741215084074 -0.020253273397571308 -0.0006290631297664617 -0.00042725847020238421 -0.010227538241348545 -1.1052591294225239e-05 0.015765669554539438 -0.00086610450907841693 -0.015014600127408165 -0.010140780601481783 -0.00066439477326809963 -0.0058142733246604053 0.012583619505727681 0.0023272094970885381 0.008443031689057176 -0.01447076681813267 0.013312093679860987 0.0015165075591558974 -0.014128143939441984 -0.0001230646087209811 0.020295001952338576 0.00060243369642108333 0.0010057483297611931 -0.00030003759088786236
leaf_weight=779 7084 657 552 630 6278 580 778 528 812 156850 529 38753 547 1349 868 1030 12171 3140 1337 2648 2081 551 829 9209 1487 1465 546 63673 60375 503
leaf_count=779 7084 657 552 630 6278 580 778 528 812 156850 529 38753 547 1349 868 1030 12171 3140 1337 2648 2081 551 829 9209 1487 1465 546 63673 60375 503
internal_value=-2.09796e-08 -0.013871 5.46198e-05 0.00471725 0.00270488 -4.00845e-05 -0.000326627 -0.00080094 -0.0104826 -0.000712072 0.000437508 -0.000832222 0.00134372 -0.00319669 -0.00480901 -0.000413149 -0.00200592 -0.00813715 0.0012101 0.00588161 0.00105011 0.000571987 0.00359395 0.00282482 -0.00681397 -0.000346908 0.00577845 0.000712138 0.000899869 -0.0107259
internal_weight=378619 1436 377183 7460 6830 369723 292800 180659 1590 179069 112141 46705 65436 19178 7952 159891 15510 3668 64889 3985 76923 64804 12119 11290 3339 158861 2011 64253 60904 1990
internal_count=378619 1436 377183 7460 6830 369723 292800 180659 1590 179069 112141 46705 65436 19178 7952 159891 15510 3668 64889 3985 76923 64804 12119 11290 3339 158861 2011 64253 60904 1990
is_linear=0
shrinkage=0.01


Tree=16
num_leaves=31
num_cat=0
split_feature=470 41 202 807 614 617 27 171 580 340 781 618 782 571 300 646 688 611 285 285 754 808 296 756 447 756 782 143 781 94
split_gain=2912.49 2980.65 1773.11 3108.69 1358.5 1108.63 1738.73 1613.57 2163.43 3407.45 1406.67 1372.32 1363.76 1342.94 1194.56 1576.07 1202.91 1134.1 1171.49 1117.45 1064.97 955.041 1212.26 882.261 969.777 1832.81 849.297 817.807 781.823 872.651
threshold=-2.8530418872833248 0.37801511585712438 2.4036732912063603 1.2481155395507815 -0.36815391480922693 0.0034177683992311363 -0.72268339991569508 -0.44143632054328913 -1.3287757039070127 -0.026560138911008831 -0.74710619449615467 -0.33978739380836481 -0.79862606525421131 -0.52497476339340199 -0.7875445783138274 -0.32031840085983271 2.8733414411544804 -0.27257664501667017 -0.43982067704200739 0.3616159856319428 0.77015224099159252 -0.46935123205184931 -0.081581942737102495 -1.0000000180025095e-35 1.5224556326866152 1.0553562045097353 -0.76506367325782765 2.0290313959121709 -0.75099536776542652 0.021248167380690578
decision_type=2 2 2 2 2 2 2 2 2 2 2 2 2 2 2 2 2 2 2 2 2 2 2 2 2 2 2 2 2 2
left_child=1 -1 5 4 -4 7 21 8 9 10 12 13 -2 -10 15 -8 19 18 -13 23 -6 22 -7 -16 -25 -26 28 -19 -23 -30
right_child=2 -3 3 -5 20 6 14 -9 11 -11 -12 17 -14 -15 16 -17 -18 27 -20 -21 -22 26 -24 24 25 -27 -28 -29 29 -31
leaf_value=-0.0030379098461435117 0.0035501040000824801 -0.032236772441778402 0.017917909625280011 0.0275502734484151 -0.0019272480421068014 -0.019529995333149815 -0.020728030771737235 6.9075309964878443e-05 -0.00088342612262364386 0.030129316222666513 0.0019025033972544948 -0.00038789888865087068 0.022366603826758182 -0.01746783307663801 -0.001879806017337628 -0.0029211058652658362 -0.011761667001487466 0.00191552356390537 0.014521534976441311 0.0011084463633841846 0.0076822515418719373 0.0011289196088504559 -0.0048823019267451194 -0.00017303218552821946 -0.00064555475384468763 0.020787700594543785 -0.00056573324027412407 -0.0056450240293727154 -0.011444781781011482 0.0012059458937702496
leaf_weight=971 779 507 505 525 3290 591 541 110454 1602 581 3590 844 758 656 35228 3286 826 21790 1342 61099 1714 1170 5500 101750 1049 591 12862 1483 2250 703
leaf_count=971 779 507 505 525 3290 591 541 110454 1602 581 3590 844 758 656 35228 3286 826 21790 1342 61099 1714 1170 5500 101750 1049 591 12862 1483 2250 703
internal_value=-2.91992e-06 -0.0137811 5.28638e-05 0.00540768 0.0030687 -3.48679e-05 -0.000469418 0.000652 0.00257531 0.00815421 0.00539702 0.00141379 0.0132421 -0.00597561 -0.000175291 -0.00567322 -6.89847e-05 0.0020796 0.00888515 -1.76938e-05 0.00140769 -0.00306832 -0.00645099 -0.000514286 -4.83297e-05 0.00746476 -0.00183988 0.00142268 -0.00576028 -0.00846318
internal_weight=378837 1478 377359 6034 5509 371325 227446 143879 33425 5708 5127 27717 1537 2258 204370 3827 200543 25459 2186 199717 5004 23076 6091 138618 103390 1640 16985 23273 4123 2953
internal_count=378837 1478 377359 6034 5509 371325 227446 143879 33425 5708 5127 27717 1537 2258 204370 3827 200543 25459 2186 199717 5004 23076 6091 138618 103390 1640 16985 23273 4123 2953
is_linear=0
shrinkage=0.01


Tree=17
num_leaves=31
num_cat=0
split_feature=469 288 202 276 654 291 140 763 432 688 32 447 806 140 782 430 683 615 89 101 338 688 633 140 658 682 577 184 512 102
split_gain=2284.34 2998.18 1673.61 3243.89 1484.19 1098.42 1264.99 1176.57 2084.8 1050.94 996.785 925.526 1289.39 1371.38 857.082 1456.39 818.096 965.832 801.961 744.096 690.718 666.224 652.006 730.593 639.434 1834.4 683.149 623.857 645.742 620.195
threshold=-3.0040849447250362 1.0016285181045534 2.1532630920410161 1.2456473708152773 -1.674844443798065 0.50612738728523265 1.6962111592292788 -0.57613530755043019 1.4991747140884402 2.4999294281005864 -0.62898716330528248 1.4431307911872866 1.2427047491073611 0.17340304702520373 1.7640040516853335 -0.4527257233858108 0.29792915284633642 -0.74869519472122181 1.9679855704307558 1.9359634518623354 -2.3444427251815791 -0.36000804603099817 3.3654134273529057 0.77500060200691234 0.51767465472221386 -0.97431665658950795 -1.0639309287071226 -0.50074681639671315 1.1176236867904665 -2.6296159029006954
decision_type=2 2 2 2 2 2 2 2 2 2 2 2 2 2 2 2 2 2 2 2 2 2 2 2 2 2 2 2 2 2
left_child=1 -1 5 4 -4 7 16 8 9 27 19 14 -13 -14 18 -16 24 -18 -12 -9 -19 -20 23 -6 -7 -26 -27 -2 -29 -25
right_child=2 -3 3 -5 22 6 -8 10 -10 -11 11 12 13 -15 15 -17 17 20 21 -21 -22 -23 -24 29 25 26 -28 28 -30 -31
leaf_value=-0.0014120569272298858 7.4755067933785833e-05 -0.03073489486839515 0.017685875279917006 0.023581655493083234 -0.00068019864183064833 0.00086510258873326101 -0.013441009607735793 -0.0015551241528580205 -0.017125909753022545 -0.013595877289152031 -5.5204701286520244e-05 0.0010854182129160753 0.023578382557643045 0.0040949668599684474 0.019902808663116715 0.0016844499919376802 0.014648835852163958 0.012400898862519978 0.012330227004293799 -0.011913886407888555 0.0020466752232346534 0.00050593791014297089 -0.0085425695502139905 0.0014403393543453605 -0.018497962255729365 0.0067195731188041605 -0.0021537040628616644 -0.0027760118109607539 0.0023371421394287333 0.010489373337678765
leaf_weight=949 19410 506 542 747 4068 52373 554 27461 818 656 201813 3648 568 934 523 1921 617 619 910 663 19563 955 578 1609 590 986 5302 24687 2706 1413
leaf_count=949 19410 506 542 747 4068 52373 554 27461 818 656 201813 3648 568 934 523 1921 617 619 910 663 19563 955 578 1609 590 986 5302 24687 2706 1413
internal_value=3.68974e-06 -0.0122919 5.27367e-05 0.00431157 0.00242612 -5.14152e-05 0.000979957 -0.000340519 -0.00176378 -0.00148126 -5.31928e-05 0.00018238 0.00434899 0.0119851 7.72465e-05 0.00590391 0.00108809 0.0027919 5.89855e-06 -0.00182003 0.00239411 0.00644673 0.00123992 0.00209166 0.000488144 -0.00236776 -0.000720282 -0.00129713 -0.00226757 0.00577327
internal_weight=378689 1455 377234 8957 8210 368277 80604 287673 48277 47459 239396 211272 5150 1502 206122 2444 80050 20799 203678 28124 20182 1865 7668 7090 59251 6878 6288 46803 27393 3022
internal_count=378689 1455 377234 8957 8210 368277 80604 287673 48277 47459 239396 211272 5150 1502 206122 2444 80050 20799 203678 28124 20182 1865 7668 7090 59251 6878 6288 46803 27393 3022
is_linear=0
shrinkage=0.01


Tree=18
num_leaves=31
num_cat=0
split_feature=470 37 295 742 617 615 345 140 27 171 580 340 781 130 286 294 675 283 27 223 784 470 304 345 761 504 770 90 283 287
split_gain=2713.43 2960.92 1679.46 2031.35 1100.15 2473.77 1811.32 1628 1479.33 1318.6 1767.63 3054.79 1434.77 1336.68 1304.73 1143.5 1509.38 1089.51 976.485 815.301 1414.18 758.971 681.171 665.048 630.135 593.902 592.16 590.82 660.012 638.275
threshold=-2.8530418872833248 0.46034687757492071 2.9290078878402714 -0.41111084818840021 0.0034177683992311363 2.2859213352203374 -0.23434894531965253 1.9206783771514895 -0.70633408427238453 -0.44967156648635859 -1.3287757039070127 -0.031933071091771119 -0.74710619449615467 -0.66302919387817372 1.1323021054267886 -0.88753911852836598 -0.71539530158042897 -0.96363580226898182 1.3139904141426089 1.2646011114120486 -0.80892249941825856 1.5173737406730654 -0.35975860059261316 0.55699250102043163 3.4236606359481816 -1.4114433526992796 2.8559514284133916 3.0069966316223149 -1.6700469851493833 0.36193796992301946
decision_type=2 2 2 2 2 2 2 2 2 2 2 2 2 2 2 2 2 2 2 2 2 2 2 2 2 2 2 2 2 2
left_child=1 -1 4 -4 5 7 -7 9 19 10 11 12 17 -12 21 16 -10 -2 24 -6 -21 22 -15 -20 27 -14 -24 28 -17 -30
right_child=2 -3 3 -5 8 6 -8 -9 15 -11 13 -13 25 14 -16 18 -18 -19 23 20 -22 -23 26 -25 -26 -27 -28 -29 29 -31
leaf_value=0.00017640692524470978 0.0037001744409035139 -0.027658494692874722 0.025540544535668022 0.0018606747036907659 -0.0035018387357470568 0.022006971113390113 0.004308213792367243 -0.016500438230710904 -0.020861390684355101 5.776010633546317e-05 -0.009556812707541754 0.029747911337671767 0.0094446114031351853 -0.006185443617455974 0.016697506378981795 0.010813922372484677 -0.0029024879556896707 0.022207194877137151 0.0015862220939038636 -0.011559176499053471 0.0041097409202970466 -0.0070006838496246204 0.0017688355134189233 0.0081142024791810482 -0.0092023445094887215 -0.00061408982567635526 0.0093418526189135657 -0.0094773012924421994 -0.00051081574950746214 0.00075067811581489398
leaf_weight=789 616 690 515 1034 20913 831 1780 510 507 109824 1036 511 695 984 523 502 3084 665 5520 646 3305 977 23092 2145 720 2743 1035 625 135112 56984
leaf_count=789 616 690 515 1034 20913 831 1780 510 507 109824 1036 511 695 984 523 502 3084 665 5520 646 3305 977 23092 2145 720 2743 1035 625 135112 56984
internal_value=5.41898e-06 -0.0132893 5.92684e-05 0.010286 1.5762e-05 0.000695159 0.0102488 0.000517461 -0.000414921 0.00058404 0.00233929 0.00764245 0.00496195 0.00132411 0.00176484 -0.000135507 -0.0056897 0.013781 -3.51906e-05 -0.00271599 0.00143539 0.00143411 0.00177555 0.00345378 -0.000173936 0.00152554 0.00211235 -0.000137922 -0.000105163 -0.000136504
internal_weight=378913 1479 377434 1549 375885 145822 2611 143211 230063 142701 32877 5230 4719 27647 26611 205199 3591 1281 201608 24864 3951 26088 25111 7665 193943 3438 24127 193223 192598 192096
internal_count=378913 1479 377434 1549 375885 145822 2611 143211 230063 142701 32877 5230 4719 27647 26611 205199 3591 1281 201608 24864 3951 26088 25111 7665 193943 3438 24127 193223 192598 192096
is_linear=0
shrinkage=0.01


Tree=19
num_leaves=31
num_cat=0
split_feature=804 284 295 742 756 276 688 596 31 461 568 101 42 679 335 142 95 26 595 769 688 29 656 289 171 134 337 685 383 583
split_gain=2666.05 3055.79 1553.37 1884.79 1413.19 1154.55 1343.13 1056.71 901.433 898.094 863.366 784.183 1126.59 675.412 669.215 852.815 704.677 603.649 545.32 755.905 513.733 610.341 551.4 540.155 1388.47 739.985 595.745 503.943 655.318 502.425
threshold=-2.8456574678421016 1.0370076298713686 2.9290078878402714 -0.39963170886039728 1.7217347621917727 -0.70589849352836598 -1.6852185726165769 4.3057153224945077 -0.087354738265275941 1.3551911115646365 -1.1720383763313291 1.7566332221031191 -0.352627083659172 -1.7139341831207273 0.10085669904947282 -0.48923523724079127 0.66256296634674083 1.7237740755081179 -1.7115048170089719 0.84224084019660961 2.8733414411544804 0.14216632395982745 3.394295454025269 0.60908216238021862 -0.91339546442031849 1.025283217430115 0.26531094312667852 -1.8559850454330442 0.51506367325782787 -1.0669845938682554
decision_type=2 2 2 2 2 2 2 2 2 2 2 2 2 2 2 2 2 2 2 2 2 2 2 2 2 2 2 2 2 2
left_child=1 -1 4 -4 5 6 -2 9 11 13 -11 18 -13 -6 -15 -16 -17 20 19 -7 22 -22 23 26 -25 -26 27 28 -10 -8
right_child=2 -3 3 -5 7 8 29 -9 17 10 -12 12 -14 14 15 16 -18 -19 -20 -21 21 -23 -24 24 25 -27 -28 -29 -30 -31
leaf_value=-0.002337596993188308 -0.015350661631774318 -0.03201263337979849 0.024659742614738245 0.0016908595194685887 0.0081640653417832405 4.8965241877544831e-05 -0.0051642272779386326 0.014914766623724497 -0.00090940352191124624 0.019671532783751614 0.0016514150840730652 -0.013062284371224179 0.00060030510385222855 -0.00025527061342915913 -0.0017027078268758455 0.0030889675024603504 0.012149952984924153 0.0036203083915570056 -0.0006116408500434654 0.014469864659911805 0.00076617738301403492 -0.013948942273567869 -0.0088420480616714734 0.014559997937016983 0.0015696069450501942 -0.010137163863919852 0.001962618357556632 8.1343549769817477e-05 -0.0091773134078144761 -0.00082896763411890919
leaf_weight=958 782 502 512 1003 1408 995 3871 622 3474 508 527 1168 1188 11902 1757 2210 1406 5611 135732 523 567 501 601 768 23996 503 16736 148543 1281 8479
leaf_count=958 782 502 512 1003 1408 995 3871 622 3474 508 527 1168 1188 11902 1757 2210 1406 5611 135732 523 567 501 601 768 23996 503 16736 148543 1281 8479
internal_value=-2.03295e-06 -0.0132631 5.10504e-05 0.00999313 9.63026e-06 -0.000137268 -0.00304134 0.00256984 -2.53918e-05 0.00214369 0.010995 -0.000643539 -0.00630369 0.0016253 0.00107034 0.00398204 0.00672979 0.00040065 -0.000544118 0.00532041 0.000308037 -0.00645182 0.000346527 0.000377059 0.00173982 0.00130909 0.000174101 -2.17327e-05 -0.0032091 -0.00220316
internal_weight=378634 1460 377174 1515 375659 355319 13132 20340 342187 19718 1035 139606 2356 18683 17275 5373 3616 202581 137250 1518 196970 1068 195902 195301 25267 24499 170034 153298 4755 12350
internal_count=378634 1460 377174 1515 375659 355319 13132 20340 342187 19718 1035 139606 2356 18683 17275 5373 3616 202581 137250 1518 196970 1068 195902 195301 25267 24499 170034 153298 4755 12350
is_linear=0
shrinkage=0.01


Tree=20
num_leaves=31
num_cat=0
split_feature=470 284 202 807 614 291 140 617 101 581 761 688 784 35 688 387 165 780 783 756 43 762 294 342 442 140 144 655 222 469
