tree
version=v4
num_class=1
num_tree_per_iteration=1
label_index=0
max_feature_idx=791
objective=regression
feature_names=bid_qty ask_qty buy_qty sell_qty volume X1 X2 X3 X4 X5 X6 X7 X8 X9 X10 X11 X12 X13 X14 X15 X16 X17 X18 X19 X20 X21 X22 X23 X24 X25 X26 X27 X28 X29 X30 X31 X32 X33 X34 X35 X36 X37 X38 X39 X40 X41 X42 X43 X44 X45 X46 X47 X48 X49 X50 X51 X52 X53 X54 X55 X56 X57 X58 X59 X60 X61 X62 X63 X64 X65 X66 X67 X68 X69 X70 X71 X72 X73 X74 X75 X76 X77 X78 X79 X80 X81 X82 X83 X84 X85 X86 X87 X88 X89 X90 X91 X92 X93 X94 X95 X96 X97 X98 X99 X100 X101 X102 X103 X104 X105 X106 X107 X108 X109 X110 X111 X112 X113 X114 X115 X116 X117 X118 X119 X120 X121 X122 X123 X124 X125 X126 X127 X128 X129 X130 X131 X132 X133 X134 X135 X136 X137 X138 X139 X140 X141 X142 X143 X144 X145 X146 X147 X148 X149 X150 X151 X152 X153 X154 X155 X156 X157 X158 X159 X160 X161 X162 X163 X164 X165 X166 X167 X168 X169 X170 X171 X172 X173 X174 X175 X176 X177 X178 X179 X180 X181 X182 X183 X184 X185 X186 X187 X188 X189 X190 X191 X192 X193 X194 X195 X196 X197 X198 X199 X200 X201 X202 X203 X204 X205 X206 X207 X208 X209 X210 X211 X212 X213 X214 X215 X216 X217 X218 X219 X220 X221 X222 X223 X224 X225 X226 X227 X228 X229 X230 X231 X232 X233 X234 X235 X236 X237 X238 X239 X240 X241 X242 X243 X244 X245 X246 X247 X248 X249 X250 X251 X252 X253 X254 X255 X256 X257 X258 X259 X260 X261 X262 X263 X264 X265 X266 X267 X268 X269 X270 X271 X272 X273 X274 X275 X276 X277 X278 X279 X280 X281 X282 X283 X284 X285 X286 X287 X288 X289 X290 X291 X292 X293 X294 X295 X296 X297 X298 X299 X300 X301 X302 X303 X304 X305 X306 X307 X308 X309 X310 X311 X312 X313 X314 X315 X316 X317 X318 X319 X320 X321 X322 X323 X324 X325 X326 X327 X328 X329 X330 X331 X332 X333 X334 X335 X336 X337 X338 X339 X340 X341 X342 X343 X344 X345 X346 X347 X348 X349 X350 X351 X352 X353 X354 X355 X356 X357 X358 X359 X360 X361 X362 X363 X364 X365 X366 X367 X368 X369 X370 X371 X372 X373 X374 X375 X376 X377 X378 X379 X380 X381 X382 X383 X384 X385 X386 X387 X388 X389 X390 X391 X392 X393 X394 X395 X396 X397 X398 X399 X400 X401 X402 X403 X404 X405 X406 X407 X408 X409 X410 X411 X412 X413 X414 X415 X416 X417 X418 X419 X420 X421 X422 X423 X424 X425 X426 X427 X428 X429 X430 X431 X432 X433 X434 X435 X436 X437 X438 X439 X440 X441 X442 X443 X444 X445 X446 X447 X448 X449 X450 X451 X452 X453 X454 X455 X456 X457 X458 X459 X460 X461 X462 X463 X464 X465 X466 X467 X468 X469 X470 X471 X472 X473 X474 X475 X476 X477 X478 X479 X480 X481 X482 X483 X484 X485 X486 X487 X488 X489 X490 X491 X492 X493 X494 X495 X496 X497 X498 X499 X500 X501 X502 X503 X504 X505 X506 X507 X508 X509 X510 X511 X512 X513 X514 X515 X516 X517 X518 X519 X520 X521 X522 X523 X524 X525 X526 X527 X528 X529 X530 X531 X532 X533 X534 X535 X536 X537 X538 X539 X540 X541 X542 X543 X544 X545 X546 X547 X548 X549 X550 X551 X552 X553 X554 X555 X556 X557 X558 X559 X560 X561 X562 X563 X564 X565 X566 X567 X568 X569 X570 X571 X572 X573 X574 X575 X576 X577 X578 X579 X580 X581 X582 X583 X584 X585 X586 X587 X588 X589 X590 X591 X592 X593 X594 X595 X596 X597 X598 X599 X600 X601 X602 X603 X604 X605 X606 X607 X608 X609 X610 X611 X612 X613 X614 X615 X616 X617 X618 X619 X620 X621 X622 X623 X624 X625 X626 X627 X628 X629 X630 X631 X632 X633 X634 X635 X636 X637 X638 X639 X640 X641 X642 X643 X644 X645 X646 X647 X648 X649 X650 X651 X652 X653 X654 X655 X656 X657 X658 X659 X660 X661 X662 X663 X664 X665 X666 X667 X668 X669 X670 X671 X672 X673 X674 X675 X676 X677 X678 X679 X680 X681 X682 X683 X684 X685 X686 X687 X688 X689 X690 X691 X692 X693 X694 X695 X696 X697 X698 X699 X700 X701 X702 X703 X704 X705 X706 X707 X708 X709 X710 X711 X712 X713 X714 X715 X716 X717 X718 X719 X720 X721 X722 X723 X724 X725 X726 X727 X728 X729 X730 X731 X732 X733 X734 X735 X736 X737 X738 X739 X740 X741 X742 X743 X744 X745 X746 X747 X748 X749 X750 X751 X752 X753 X754 X755 X756 X757 X758 X759 X760 X761 X762 X763 X764 X765 X766 X767 X768 X769 X770 X771 X772 X773 X774 X775 X776 X777 X778 X779 X780 book_total_qty trade_total_qty book_imbalance trade_imbalance volume_per_book_qty volume_per_trade_qty log_volume
feature_infos=[0.0010000000474974513:1114.9320068359375] [0.0010000000474974513:993.5250244140625] [0:17609.56640625] [0:15574.6328125] [0:28685.345703125] [-4.1476030349731445:4.8481864929199219] [-7.1781964302062988:9.3954334259033203] [-6.1251621246337891:7.849541187286377] [-5.5623359680175781:6.9416995048522949] [-4.9888176918029785:6.3585009574890137] [-4.670924186706543:5.7221264839172363] [-4.4739551544189453:5.3811674118041992] [-4.3262233734130859:5.155555248260498] [-3.9435617923736572:3.7155840396881104] [-8.3920469284057617:10.454862594604492] [-7.4622445106506348:8.0521392822265625] [-6.1422171592712402:6.7388339042663574] [-5.2601137161254883:5.8790440559387207] [-4.3647680282592773:5.0007052421569824] [-3.9749956130981445:4.6096177101135254] [-3.9317803382873535:4.3346757888793945] [-3.2949872016906738:3.1921656131744385] [-16.12006950378418:19.585250854492188] [-12.647032737731934:15.203801155090332] [-10.244500160217285:11.383847236633301] [-8.0956201553344727:8.1538028717041016] [-6.6754550933837891:6.0834879875183105] [-5.6610803604125977:5.2558059692382812] [-4.7346701622009277:4.4497041702270508] [-3.2452547550201416:2.6584835052490234] [-17.730539321899414:25.617166519165039] [-14.425519943237305:18.717031478881836] [-12.767160415649414:14.681242942810059] [-11.852538108825684:11.364195823669434] [-9.5118570327758789:7.7447733879089355] [-7.446558952331543:6.3820610046386719] [-5.568730354309082:5.1937055587768555] [-4.7212333679199219:4.9544687271118164] [-4.0716590881347656:5.3459153175354004] [-4.6045894622802734:4.6567282676696777] [-3.825023889541626:5.1553092002868652] [-4.3247690200805664:4.3876814842224121] [-3.5750946998596191:4.7516422271728516] [-3.276561975479126:3.8179416656494141] [-2.4441385269165039:3.6012499332427979] [-3.2309474945068359:3.7739489078521729] [-2.4781022071838379:3.5821819305419922] [-3.300748348236084:3.7031855583190918] [-2.5834095478057861:3.4718184471130371] [-2.5974593162536621:3.1402449607849121] [-2.0650200843811035:2.7354667186737061] [-2.6782553195953369:3.1088411808013916] [-2.1290020942687988:2.7659642696380615] [-2.7385833263397217:3.1016900539398193] [-2.2733850479125977:2.8372688293457031] [-2.1939542293548584:2.5220863819122314] [-1.9550538063049316:2.3998117446899414] [-2.2462315559387207:2.5417938232421875] [-2.0012795925140381:2.4144268035888672] [-2.2981061935424805:2.5336205959320068] [-2.0405371189117432:2.3969955444335938] [-14.053279876708984:10.998215675354004] [-21.603143692016602:23.922109603881836] [-14.850983619689941:19.488603591918945] [-7.5574483871459961:10.079464912414551] [-16.190835952758789:13.075648307800293] [-20.898920059204102:23.946083068847656] [-12.258450508117676:9.8235874176025391] [-16.356657028198242:16.125207901000977] [-11.228370666503906:14.359105110168457] [-6.3568778038024902:6.488494873046875] [-14.157965660095215:11.123653411865234] [-21.158296585083008:25.153581619262695] [-10.76771354675293:8.8840475082397461] [-13.494958877563477:11.797913551330566] [-8.904383659362793:10.402630805969238] [-5.1340541839599609:5.6566085815429688] [-11.840236663818359:10.245189666748047] [-20.312482833862305:24.062467575073242] [-9.1942768096923828:8.4314584732055664] [-10.159236907958984:8.5676918029785156] [-7.7974328994750977:8.6435174942016602] [-4.6160826683044434:4.6236934661865234] [-8.5873355865478516:9.2234764099121094] [-19.563980102539062:22.964973449707031] [-6.9573574066162109:6.5841097831726074] [-6.8853554725646973:6.1048092842102051] [-7.0467772483825684:6.4072265625] [-3.5113136768341064:3.6068713665008545] [-4.9752063751220703:7.1697998046875] [-16.285184860229492:16.107906341552734] [-5.9532160758972168:5.6109790802001953] [-5.1855692863464355:4.5246443748474121] [-6.8123178482055664:5.1589326858520508] [-2.9867725372314453:2.9623527526855469] [-4.3380908966064453:5.7167448997497559] [-13.769414901733398:11.179538726806641] [-5.214472770690918:5.1662430763244629] [-3.7565658092498779:2.9626834392547607] [-6.0360007286071777:4.0785074234008789] [-2.7007508277893066:2.2490553855895996] [-3.6219503879547119:4.4072442054748535] [-11.851308822631836:7.3353276252746582] [-18.379871368408203:11.671669006347656] [-18.468622207641602:20.086147308349609] [-19.797887802124023:18.368524551391602] [-12.26439380645752:15.629746437072754] [-12.035408020019531:11.78023624420166] [-20.898920059204102:23.946083068847656] [-15.541193962097168:11.243832588195801] [-13.455684661865234:13.64961051940918] [-12.954516410827637:12.56226921081543] [-8.718876838684082:12.262187957763672] [-9.056035041809082:9.6238651275634766] [-21.158296585083008:25.153581619262695] [-13.16316032409668:10.726879119873047] [-11.357192039489746:10.281281471252441] [-10.05196475982666:10.954960823059082] [-7.5962858200073242:11.281039237976074] [-7.3830122947692871:7.9757785797119141] [-20.312482833862305:24.062467575073242] [-11.00300121307373:10.046576499938965] [-9.1513519287109375:7.5977339744567871] [-9.2476902008056641:9.3416213989257812] [-6.1796555519104004:9.9385166168212891] [-5.9867515563964844:7.2966365814208984] [-19.563980102539062:22.964973449707031] [-8.3478908538818359:8.1885738372802734] [-5.9551868438720703:5.5390996932983398] [-8.0798673629760742:6.2069048881530762] [-3.535862922668457:6.0754313468933105] [-4.5109219551086426:5.9220185279846191] [-16.285184860229492:16.107906341552734] [-7.3497991561889648:7.007047176361084] [-4.3010635375976562:4.0511455535888672] [-7.1072297096252441:5.2556881904602051] [-2.7539803981781006:4.4686732292175293] [-3.8447890281677246:4.7081918716430664] [-13.769414901733398:11.179538726806641] [-5.979039192199707:5.9120159149169922] [-3.1520836353302002:2.9339127540588379] [-5.9239368438720703:4.2847065925598145] [-1.9391835927963257:3.4999547004699707] [-3.0578973293304443:3.6858570575714111] [-11.851308822631836:7.3353276252746582] [-19.080839157104492:11.641079902648926] [-20.262575149536133:18.487159729003906] [-13.089706420898438:16.579021453857422] [-8.2855758666992188:16.543022155761719] [-12.063684463500977:11.479323387145996] [-20.898920059204102:23.946083068847656] [-16.057224273681641:11.974509239196777] [-13.979974746704102:12.660313606262207] [-9.5656070709228516:9.0177936553955078] [-5.5961847305297852:13.744663238525391] [-9.1758184432983398:9.9116487503051758] [-21.158296585083008:25.153581619262695] [-13.530035018920898:11.140802383422852] [-11.646059989929199:9.6440439224243164] [-8.4488382339477539:7.4058847427368164] [-4.5260028839111328:10.498259544372559] [-8.008671760559082:8.4957742691040039] [-20.312482833862305:24.062467575073242] [-11.245687484741211:8.8110971450805664] [-9.5876951217651367:7.2737894058227539] [-7.6021604537963867:6.8874869346618652] [-3.6293237209320068:7.5296621322631836] [-7.3428826332092285:6.9045577049255371] [-19.563980102539062:22.964973449707031] [-8.5779895782470703:6.9973573684692383] [-6.583381175994873:4.8965706825256348] [-5.7419261932373047:5.7030501365661621] [-2.3037316799163818:4.6114010810852051] [-6.2305951118469238:5.7581615447998047] [-16.285184860229492:16.107906341552734] [-7.4991469383239746:6.0185685157775879] [-4.9199404716491699:3.8183889389038086] [-4.9640293121337891:4.9570064544677734] [-1.814653754234314:3.2769849300384521] [-5.3399262428283691:5.2545647621154785] [-13.769414901733398:11.179538726806641] [-6.2214703559875488:5.0287508964538574] [-3.8179640769958496:3.3201470375061035] [-4.4386615753173828:4.1030211448669434] [-1.5036005973815918:2.2309114933013916] [-4.4523024559020996:4.8861050605773926] [-11.851308822631836:7.3353276252746582] [-2.9519007205963135:4.3406858444213867] [-1.9847880601882935:2.45989990234375] [-1.8231134414672852:1.9192100763320923] [-3.2589807510375977:4.2975616455078125] [-2.0868403911590576:2.3209257125854492] [-1.8161579370498657:1.8825520277023315] [-3.075202465057373:3.8830897808074951] [-2.093519926071167:1.9699734449386597] [-1.8113502264022827:1.8712462186813354] [-11.394076347351074:9.2165794372558594] [-8.6094093322753906:8.0243539810180664] [-7.6347332000732422:6.8765397071838379] [-6.9086794853210449:5.5407271385192871] [-5.9598383903503418:5.6381740570068359] [-5.2085528373718262:5.3682990074157715] [-5.3698124885559082:4.9658384323120117] [-5.102656364440918:4.9572319984436035] [-5.5196628570556641:5.0828237533569336] [-5.1988892555236816:4.3783745765686035] [-4.4513487815856934:4.562199592590332] [-4.7082915306091309:4.9726338386535645] [-5.5453672409057617:4.8194456100463867] [-6.3076629638671875:4.5260710716247559] [-5.4481449127197266:6.3738932609558105] [-6.7979226112365723:6.6153669357299805] [-7.2290701866149902:7.3547940254211426] [-6.4184184074401855:7.0886144638061523] [-6.0947713851928711:12.58128833770752] [-9.4062891006469727:12.405817985534668] [-12.597931861877441:9.0249652862548828] [-47.438339233398438:34.128074645996094] [-30.903102874755859:24.074010848999023] [-23.461835861206055:18.002426147460938] [-17.926841735839844:12.864214897155762] [-12.39363956451416:7.474006175994873] [-10.08320140838623:6.1768660545349121] [-8.4747314453125:5.2325310707092285] [-7.4615988731384277:8.3151273727416992] [-8.7496957778930664:9.5215435028076172] [-9.0804672241210938:9.0907526016235352] [-9.4420843124389648:8.1771745681762695] [-8.7166833877563477:6.3982934951782227] [-8.6827268600463867:6.411372184753418] [-8.1633138656616211:5.9496049880981445] [-17.301668167114258:6.25140380859375] [-10.926713943481445:35.26385498046875] [-11.703857421875:88.058135986328125] [-10.457440376281738:148.99624633789062] [-7.8054981231689453:178.92689514160156] [-8.8337869644165039:136.00167846679688] [-14.517332077026367:82.857177734375] [-111.36465454101562:101.62075042724609] [-109.95264434814453:133.85342407226562] [-95.867462158203125:128.31698608398438] [-78.326126098632812:108.97209167480469] [-58.875770568847656:71.251327514648438] [-47.138740539550781:51.871875762939453] [-36.161052703857422:37.495182037353516] [-105.08339691162109:92.387901306152344] [-107.27498626708984:128.26066589355469] [-93.969390869140625:125.02428436279297] [-76.866897583007812:106.85758972167969] [-57.713203430175781:70.296394348144531] [-46.388645172119141:51.305137634277344] [-35.913829803466797:37.33526611328125] [-5.294464111328125:5.5428800582885742] [-11.467439651489258:10.973121643066406] [-8.174565315246582:9.6444787979125977] [-7.9480719566345215:8.4581384658813477] [-7.89654541015625:7.0319151878356934] [-7.0623335838317871:6.2577052116394043] [-6.3169674873352051:6.001187801361084] [-5.8020305633544922:5.7648072242736816] [-3.6229898929595947:3.8384385108947754] [-10.874320983886719:13.446560859680176] [-9.4174299240112305:10.205066680908203] [-7.9556069374084473:8.1448554992675781] [-6.6571965217590332:6.1859622001647949] [-5.2483453750610352:4.8587684631347656] [-4.6476297378540039:4.4935698509216309] [-4.0742201805114746:4.1972370147705078] [-2.6790046691894531:3.2672538757324219] [-25.500810623168945:17.931703567504883] [-17.985891342163086:13.882136344909668] [-13.839963912963867:12.716813087463379] [-10.416946411132812:10.881635665893555] [-7.7273831367492676:7.3500847816467285] [-6.6515779495239258:5.994328498840332] [-5.4695954322814941:5.2220182418823242] [-2.463374137878418:3.27774977684021] [-37.665081024169922:28.599727630615234] [-25.954557418823242:23.62321662902832] [-19.682132720947266:22.287616729736328] [-14.428289413452148:19.184541702270508] [-8.5000400543212891:12.46351432800293] [-7.1344709396362305:8.3175287246704102] [-6.0047578811645508:6.7495908737182617] [-3.7975919246673584:5.1709103584289551] [-6.1576900482177734:4.5707364082336426] [-3.805311918258667:4.6520342826843262] [-5.9181003570556641:4.6750612258911133] [-4.0655484199523926:4.7372231483459473] [-5.3006649017333984:4.7349343299865723] [-4.0387167930603027:4.7598743438720703] [-3.2118062973022461:4.6178240776062012] [-4.0700554847717285:4.7467660903930664] [-2.8792283535003662:4.7160987854003906] [-4.0576515197753906:4.6599578857421875] [-2.4866397380828857:5.0124545097351074] [-3.5139262676239014:4.089444637298584] [-2.2737109661102295:5.5394220352172852] [-3.4645650386810303:4.0432367324829102] [-2.2690784931182861:5.6874399185180664] [-3.3421661853790283:3.9374139308929443] [-2.2379906177520752:5.990562915802002] [-2.3467142581939697:4.2796568870544434] [-2.1217639446258545:6.0355300903320312] [-2.2609672546386719:4.342287540435791] [-2.1478254795074463:6.1007552146911621] [-2.1041831970214844:4.4332146644592285] [-2.1879093647003174:6.1887006759643555] [-15.400942802429199:17.888481140136719] [-16.682504653930664:22.149517059326172] [-29.076147079467773:35.681339263916016] [-11.839299201965332:12.85521411895752] [-18.224948883056641:15.291360855102539] [-26.512935638427734:27.746694564819336] [-15.288358688354492:15.210226058959961] [-13.988760948181152:18.967039108276367] [-20.056638717651367:28.035480499267578] [-9.3973188400268555:9.2222747802734375] [-14.511786460876465:12.605683326721191] [-26.126394271850586:27.06640625] [-13.137611389160156:14.592789649963379] [-12.15504264831543:14.69267463684082] [-14.604024887084961:21.669748306274414] [-7.862947940826416:6.3761019706726074] [-11.901836395263672:10.039460182189941] [-24.01774787902832:25.444988250732422] [-12.27072811126709:14.158463478088379] [-12.380786895751953:10.437254905700684] [-11.187959671020508:16.018892288208008] [-6.3491373062133789:5.3738975524902344] [-9.1455821990966797:7.5364861488342285] [-22.96624755859375:23.430368423461914] [-8.7875699996948242:11.859172821044922] [-10.473654747009277:7.0127410888671875] [-8.5038118362426758:8.635554313659668] [-5.2149777412414551:3.9265637397766113] [-5.9546298980712891:6.2169294357299805] [-19.087535858154297:15.940779685974121] [-6.9005928039550781:10.162280082702637] [-8.5454893112182617:5.8931550979614258] [-7.0125536918640137:5.1920127868652344] [-4.5560855865478516:3.374582052230835] [-5.474942684173584:5.0900568962097168] [-16.119413375854492:10.929424285888672] [-6.6625723838806152:8.9857263565063477] [-6.5221452713012695:4.8572044372558594] [-5.7725934982299805:3.3896434307098389] [-3.820019006729126:2.923133373260498] [-4.802696704864502:3.8559176921844482] [-14.204780578613281:7.8463134765625] [-15.335819244384766:14.570171356201172] [-23.955472946166992:21.247676849365234] [-25.210025787353516:22.721670150756836] [-10.485633850097656:10.655379295349121] [-14.137790679931641:13.968544960021973] [-26.512935638427734:27.746694564819336] [-14.621058464050293:12.006706237792969] [-15.599776268005371:19.223800659179688] [-17.685388565063477:17.02056884765625] [-8.5728750228881836:10.730057716369629] [-13.169705390930176:13.549610137939453] [-26.126394271850586:27.06640625] [-13.43048095703125:10.872855186462402] [-12.105779647827148:15.521724700927734] [-15.948657989501953:13.801516532897949] [-7.3241686820983887:9.5864410400390625] [-11.769673347473145:11.739252090454102] [-24.01774787902832:25.444988250732422] [-12.74962329864502:9.6705207824707031] [-12.497293472290039:11.531270027160645] [-13.078177452087402:10.781311988830566] [-5.8468084335327148:7.6268157958984375] [-9.9367542266845703:10.008584022521973] [-22.96624755859375:23.430368423461914] [-11.506660461425781:8.5146894454956055] [-11.034914016723633:7.6652421951293945] [-7.8300514221191406:6.4182724952697754] [-3.8791394233703613:5.6288609504699707] [-6.9571056365966797:8.5483303070068359] [-19.087535858154297:15.940779685974121] [-9.4873781204223633:8.9287033081054688] [-9.396702766418457:6.783534049987793] [-6.2842578887939453:4.8348631858825684] [-3.3172252178192139:4.7707400321960449] [-5.3661937713623047:7.7732033729553223] [-16.119413375854492:10.929424285888672] [-7.3810033798217773:9.6578855514526367] [-7.4370150566101074:5.7350101470947266] [-5.7315921783447266:3.7189135551452637] [-2.5741291046142578:3.574509859085083] [-5.660858154296875:7.5471029281616211] [-14.204780578613281:7.8463134765625] [-15.443180084228516:16.835002899169922] [-27.431064605712891:21.251129150390625] [-17.809835433959961:16.91826057434082] [-12.164993286132812:10.030372619628906] [-12.276943206787109:12.32269287109375] [-26.512935638427734:27.746694564819336] [-15.339293479919434:14.651281356811523] [-21.244428634643555:18.483848571777344] [-12.25616455078125:11.600771903991699] [-13.003072738647461:9.2342758178710938] [-11.930119514465332:12.408145904541016] [-26.126394271850586:27.06640625] [-13.481691360473633:12.714256286621094] [-16.385988235473633:14.599126815795898] [-9.6865806579589844:9.0007562637329102] [-12.152244567871094:7.6252737045288086] [-11.28856086730957:12.535379409790039] [-24.01774787902832:25.444988250732422] [-11.080953598022461:11.549967765808105] [-12.065154075622559:10.651850700378418] [-7.9662985801696777:6.8713626861572266] [-9.4550981521606445:6.6339101791381836] [-10.236284255981445:11.806442260742188] [-22.96624755859375:23.430368423461914] [-8.2186288833618164:9.1920499801635742] [-10.742639541625977:7.5666074752807617] [-6.3102245330810547:4.6853518486022949] [-4.7550592422485352:4.9673333168029785] [-8.2172260284423828:9.1476421356201172] [-19.087535858154297:15.940779685974121] [-6.4279232025146484:7.9457993507385254] [-9.3865089416503906:6.6356401443481445] [-5.3833208084106445:3.9308342933654785] [-2.8609435558319092:4.1385416984558105] [-6.9020071029663086:8.7730035781860352] [-16.119413375854492:10.929424285888672] [-5.5850114822387695:7.2297706604003906] [-7.5396909713745117:5.585385799407959] [-4.9458050727844238:3.3624238967895508] [-2.5928635597229004:3.4111928939819336] [-6.0375237464904785:8.7367773056030273] [-14.204780578613281:7.8463134765625] [-3.8565521240234375:4.9740772247314453] [-2.4598746299743652:3.6179447174072266] [-2.0007321834564209:2.7303726673126221] [-4.1873660087585449:5.2262668609619141] [-2.3326361179351807:3.2243211269378662] [-1.9321767091751099:2.6800975799560547] [-3.6045331954956055:4.188331127166748] [-2.1176559925079346:2.7470970153808594] [-1.8492244482040405:2.5419554710388184] [-9.7168798446655273:8.1330785751342773] [-9.8945798873901367:5.4057259559631348] [-8.5556068420410156:4.5637092590332031] [-6.6634821891784668:4.2151427268981934] [-4.2170929908752441:3.2930684089660645] [-3.5372371673583984:2.9476556777954102] [-3.2756056785583496:2.6120312213897705] [-7.664604663848877:5.1533646583557129] [-8.9339189529418945:5.450502872467041] [-8.7971534729003906:5.5821099281311035] [-7.7291021347045898:5.0297956466674805] [-5.0385122299194336:3.5357911586761475] [-4.3072676658630371:2.5917832851409912] [-4.0297832489013672:2.4581191539764404] [-5.6360645294189453:5.5400724411010742] [-10.207788467407227:6.5880336761474609] [-11.083024978637695:6.7137994766235352] [-9.5770397186279297:5.9393596649169922] [-6.6488814353942871:4.8442783355712891] [-7.4376440048217773:3.3827733993530273] [-7.2642226219177246:2.2944686412811279] [-31.762393951416016:32.840621948242188] [-18.507204055786133:19.873361587524414] [-13.379373550415039:13.739336967468262] [-9.9305248260498047:9.3283290863037109] [-7.3486933708190918:5.6153912544250488] [-6.4189724922180176:4.3733234405517578] [-5.5091743469238281:3.8133890628814697] [-6.7812271118164062:7.2149686813354492] [-10.574053764343262:6.8647556304931641] [-10.198904037475586:5.6122660636901855] [-8.0857229232788086:4.7680244445800781] [-7.2873396873474121:4.158289909362793] [-7.2803058624267578:4.3634562492370605] [-6.6682710647583008:4.0222439765930176] [-8.7658424377441406:6.9614682197570801] [-16.709396362304688:9.6745624542236328] [-21.806735992431641:7.4763574600219727] [-30.057975769042969:7.422917366027832] [-46.353282928466797:4.9491381645202637] [-41.256889343261719:3.9901466369628906] [-29.465459823608398:3.1868486404418945] [-89.125831604003906:58.633617401123047] [-85.702888488769531:58.636028289794922] [-72.6573486328125:55.404876708984375] [-56.363563537597656:46.839637756347656] [-44.630939483642578:42.662857055664062] [-41.849395751953125:37.753993988037109] [-37.022026062011719:32.794651031494141] [-85.268310546875:56.07904052734375] [-84.588188171386719:61.867111206054688] [-71.987197875976562:54.322322845458984] [-55.381706237792969:46.189098358154297] [-42.269100189208984:41.737152099609375] [-40.912864685058594:37.373332977294922] [-36.946090698242188:32.399917602539062] [-6.4885401725769043:10.475090980529785] [-5.9336133003234863:5.0938901901245117] [-5.2831344604492188:4.5413737297058105] [-4.2621240615844727:4.4083037376403809] [-3.6578688621520996:3.4148218631744385] [-3.7092556953430176:3.1666629314422607] [-3.8488736152648926:2.9035897254943848] [-6.4235987663269043:6.4108109474182129] [-5.7171692848205566:5.4902310371398926] [-6.0230808258056641:4.7564821243286133] [-5.6278576850891113:4.2614970207214355] [-4.5475482940673828:3.427480936050415] [-3.9366006851196289:3.0022215843200684] [-3.3501045703887939:2.5631494522094727] [-7.9486813545227051:7.9093165397644043] [-16.067314147949219:15.642916679382324] [-0.13029487431049347:32.575233459472656] [-24.73906135559082:24.226861953735352] [-13.365605354309082:14.733579635620117] [-0.088229633867740631:158.02732849121094] [-8.2849187850952148:8.2416305541992188] [-17.451244354248047:33.991584777832031] [-0.099516838788986206:34.429103851318359] [-26.32208251953125:25.776140213012695] [-15.880496978759766:15.206822395324707] [-0.067339025437831879:165.14610290527344] [-7.304781436920166:6.9004397392272949] [-8.4633331298828125:7.2956562042236328] [-0.23652711510658264:36.550853729248047] [-15.708721160888672:17.075464248657227] [-6.8439311981201172:9.9652624130249023] [-0.15185597538948059:163.919921875] [-7.2757105827331543:6.6369328498840332] [-11.577513694763184:15.766837120056152] [-0.0872698575258255:58.711959838867188] [-16.10499382019043:15.796490669250488] [-17.353696823120117:20.528972625732422] [-0.049987483769655228:223.02055358886719] [-6.5961403846740723:6.1871843338012695] [-7.6638526916503906:5.3228983879089355] [-0.36380693316459656:20.062036514282227] [-11.853598594665527:15.066982269287109] [-6.2159762382507324:10.333089828491211] [-0.25754183530807495:52.006267547607422] [-6.7060623168945312:5.8609557151794434] [-8.133967399597168:9.1242713928222656] [-0.19581437110900879:110.3770751953125] [-12.227871894836426:14.07408332824707] [-8.2328939437866211:15.489068031311035] [-0.099119141697883606:70.11395263671875] [-6.2334675788879395:5.9795732498168945] [-5.6282763481140137:3.6535012722015381] [-0.50681793689727783:11.14194393157959] [-8.5525484085083008:12.75233268737793] [-5.3333206176757812:9.7093820571899414] [-0.37242302298545837:38.035526275634766] [-5.9784736633300781:5.8815484046936035] [-5.6303153038024902:5.1651668548583984] [-0.47572258114814758:16.837442398071289] [-8.6156883239746094:12.17945384979248] [-5.9328370094299316:6.3251328468322754] [-0.37411022186279297:40.11651611328125] [-5.0771193504333496:5.3392415046691895] [-4.6272764205932617:2.452599048614502] [-0.8105587363243103:9.2967157363891602] [-6.4146227836608887:8.7634391784667969] [-4.8041791915893555:6.4630937576293945] [-0.60682672262191772:27.027339935302734] [-4.9801745414733887:5.3841166496276855] [-3.6335229873657227:2.234541654586792] [-0.76258230209350586:9.6667633056640625] [-6.4244465827941895:8.4949216842651367] [-3.9914922714233398:2.6697638034820557] [-0.61386585235595703:26.699581146240234] [-5.0907406806945801:4.7328810691833496] [-4.1229195594787598:1.7546366453170776] [-1.0262447595596313:9.3037958145141602] [-5.7557168006896973:6.6753621101379395] [-4.4617385864257812:4.3729996681213379] [-0.75020754337310791:24.546785354614258] [-5.0285873413085938:4.5944375991821289] [-3.1700046062469482:2.0568544864654541] [-0.9930645227432251:9.941685676574707] [-5.7987685203552246:6.6032018661499023] [-3.0536396503448486:2.0506396293640137] [-0.7694125771522522:27.882593154907227] [-4.7622318267822266:4.5358309745788574] [-3.748044490814209:1.3196017742156982] [-1.008408784866333:7.4904565811157227] [-5.0100197792053223:5.7912287712097168] [-3.4549655914306641:2.7656381130218506] [-0.71639442443847656:18.164739608764648] [-4.7425212860107422:4.4002890586853027] [-3.0342121124267578:1.3892793655395508] [-1.0804321765899658:7.6286177635192871] [-5.0529379844665527:5.7103219032287598] [-2.6140358448028564:1.1976226568222046] [-0.78450930118560791:18.936626434326172] [-8.1417398452758789:8.6503629684448242] [-24.589004516601562:30.842401504516602] [-106.96900939941406:117.49097442626953] [-6.8755474090576172:6.438377857208252] [-10.812253952026367:23.412643432617188] [-66.236869812011719:70.751258850097656] [-6.0493264198303223:6.6394314765930176] [-8.2621707916259766:18.322616577148438] [-48.538570404052734:50.673995971679688] [-5.4433212280273438:6.8211870193481445] [-6.096804141998291:13.44505786895752] [-36.010784149169922:37.284061431884766] [-4.6602067947387695:7.1526908874511719] [-3.7556006908416748:7.5646648406982422] [-23.184427261352539:22.972560882568359] [-3.8112015724182129:6.7885222434997559] [-3.0432078838348389:5.180201530456543] [-17.309932708740234:17.029645919799805] [-2.9591021537780762:5.7794456481933594] [-2.205655574798584:3.4594790935516357] [-12.943775177001953:12.753992080688477] [-2.8630411624908447:2.8134560585021973] [-1.616212010383606:1.6977355480194092] [-9.2382040023803711:9.9788494110107422] [-9.8736362457275391:9.8565139770507812] [-8.9811677932739258:9.7822980880737305] [-9.8712730407714844:9.8405427932739258] [-9.1177310943603516:10.040778160095215] [-9.8578090667724609:9.8135099411010742] [-8.3720598220825195:9.8872756958007812] [-9.8290195465087891:9.7656383514404297] [-7.3572444915771484:9.2304306030273438] [-9.0538825988769531:9.6298027038574219] [-6.496098518371582:8.57080078125] [-8.7670049667358398:9.4757270812988281] [-5.4695553779602051:7.6559243202209473] [-8.1126022338867188:8.2189998626708984] [-12.602603912353516:12.790207862854004] [-9.8451547622680664:9.8377656936645508] [-9.8802280426025391:10.084169387817383] [-13.292631149291992:13.567253112792969] [-12.786803245544434:10.025251388549805] [-9.8273658752441406:9.8144969940185547] [-10.077012062072754:9.8919277191162109] [-13.614133834838867:13.408234596252441] [-12.129878997802734:8.1787261962890625] [-9.8059501647949219:9.1872367858886719] [-10.59564208984375:9.1551637649536133] [-13.626015663146973:13.33563232421875] [-10.399785041809082:7.8326859474182129] [-8.673222541809082:8.22906494140625] [-9.5574188232421875:9.6858119964599609] [-12.728603363037109:12.633584976196289] [-7.6822729110717773:6.3411192893981934] [-7.0915493965148926:7.142237663269043] [-8.4836835861206055:8.7317256927490234] [-13.329681396484375:9.6071405410766602] [-5.9814343452453613:4.986936092376709] [-6.0505971908569336:5.7881646156311035] [-8.2657346725463867:7.1223974227905273] [-13.416534423828125:8.512690544128418] [-4.5816478729248047:4.2505636215209961] [-5.238523006439209:4.7427072525024414] [-7.0290536880493164:5.7161531448364258] [-12.128837585449219:8.1203718185424805] [-17.77699089050293:14.392043113708496] [-9.819890022277832:9.8144149780273438] [-9.4592704772949219:10.702302932739258] [-13.836874961853027:13.497111320495605] [-15.460734367370605:13.687005996704102] [-9.7968521118164062:9.7866382598876953] [-9.4043445587158203:9.5965499877929688] [-13.35009765625:13.888071060180664] [-16.410453796386719:11.408829689025879] [-9.776280403137207:9.7607707977294922] [-9.6667757034301758:9.3498706817626953] [-13.749505996704102:13.783825874328613] [-16.773031234741211:9.6383371353149414] [-9.7482919692993164:8.6703786849975586] [-9.2621316909790039:7.9961004257202148] [-13.988964080810547:13.065852165222168] [-13.77390193939209:6.913487434387207] [-9.665431022644043:6.3217720985412598] [-8.537083625793457:6.4047513008117676] [-14.143522262573242:9.3954582214355469] [-10.948486328125:5.7142367362976074] [-9.1528120040893555:5.3609619140625] [-8.7493915557861328:5.6751613616943359] [-12.9078369140625:9.4944181442260742] [-7.9899358749389648:4.0653295516967773] [-6.5855755805969238:4.7979774475097656] [-7.7796249389648438:5.3904504776000977] [-9.4718608856201172:9.7670774459838867] [-15.692897796630859:11.109193801879883] [-9.7545108795166016:9.7484407424926758] [-11.424713134765625:8.5306882858276367] [-13.874567985534668:13.661454200744629] [-14.598103523254395:10.550060272216797] [-9.7263355255126953:9.7159347534179688] [-9.7975835800170898:9.4630355834960938] [-13.784551620483398:13.191432952880859] [-12.424842834472656:9.2515649795532227] [-9.698735237121582:9.6839065551757812] [-10.381784439086914:9.4576559066772461] [-13.252400398254395:13.400379180908203] [-9.8046674728393555:7.756230354309082] [-9.6743946075439453:8.2302589416503906] [-10.594100952148438:8.5748834609985352] [-12.747794151306152:12.674458503723145] [-6.9527745246887207:4.5517821311950684] [-7.1671361923217773:6.4888415336608887] [-9.0912446975708008:6.3726000785827637] [-11.440643310546875:10.088292121887207] [-5.2804360389709473:3.7599086761474609] [-5.8619074821472168:5.224860668182373] [-8.2872676849365234:5.446263313293457] [-9.9147663116455078:8.2956228256225586] [-4.2571983337402344:3.1832590103149414] [-5.0937790870666504:4.4396677017211914] [-7.2523999214172363:4.533390998840332] [-9.7761917114257812:8.2361516952514648] [-12.171723365783691:16.662435531616211] [-9.8456058502197266:9.8511753082275391] [-10.236106872558594:11.434597015380859] [-13.217990875244141:13.852551460266113] [-12.50462532043457:16.530147552490234] [-9.8287372589111328:9.8376245498657227] [-10.970274925231934:9.0210981369018555] [-13.732185363769531:13.727509498596191] [-12.046119689941406:14.973869323730469] [-9.8030643463134766:9.8151435852050781] [-11.481881141662598:9.1481704711914062] [-13.61865234375:13.157411575317383] [-10.443685531616211:13.524519920349121] [-9.7590217590332031:9.7753686904907227] [-11.35612964630127:8.9808101654052734] [-13.019158363342285:12.873851776123047] [-8.711674690246582:10.121051788330078] [-8.3439254760742188:9.6500444412231445] [-9.1758899688720703:8.6194343566894531] [-13.451390266418457:11.901864051818848] [-7.4979720115661621:7.649139404296875] [-7.1317329406738281:8.2958641052246094] [-8.6316967010498047:7.4610452651977539] [-12.751970291137695:10.116463661193848] [-6.5595712661743164:6.1393523216247559] [-5.8013901710510254:7.3940401077270508] [-7.7489075660705566:6.0606298446655273] [-9.09130859375:9.0410051345825195] [-21.068702697753906:22.379079818725586] [-28.985984802246094:23.001941680908203] [-52.954864501953125:132.58152770996094] [-4.3004875183105469:4.3340306282043457] [-28.133960723876953:26.205600738525391] [-2.2488002777099609:2.1910605430603027] [-43.504196166992188:43.068901062011719] [-5.7734613418579102:5.7389950752258301] [-1.7777401208877563:7.4226393699645996] [-8.1428318023681641:7.3799028396606445] [-6.2071824073791504:6.2187542915344238] [-6.6585502624511719:5.2618122100830078] [-7.5825233459472656:6.3808555603027344] [-12.109617233276367:16.29863166809082] [-5.1276473999023438:5.7072653770446777] [-5.0618281364440918:5.958716869354248] [-2.9877009391784668:2.5442049503326416] [-9.947880744934082:9.8687925338745117] [-3.6648097038269043:3.2165265083312988] [-4.659461498260498:5.2117915153503418] [-2.3711433410644531:3.1778976917266846] [-0.76633065938949585:42.848987579345703] [-0.89895361661911011:30.043006896972656] [-1.0185284614562988:22.047063827514648] [-1.1667426824569702:15.09227466583252] [-1.5441000461578369:8.5212545394897461] [-1.8678858280181885:6.0615019798278809] [-2.1839358806610107:4.8233208656311035] [-3.6430685520172119:4.6805386543273926] [-5.3341107368469238:6.1646904945373535] [-0.36341837048530579:248.65234375] [-0.33563593029975891:137.56449890136719] [-0.70356637239456177:1.5229448080062866] [-0.71757304668426514:1.5535850524902344] [-0.73175472021102905:1.5846824645996094] [-0.75127023458480835:1.6277292966842651] [-0.80634176731109619:1.7654086351394653] [-0.88182425498962402:1.9441906213760376] [-1.0668879747390747:2.0933914184570312] [0.0020000000949949026:1133.7779541015625] [0:28685.345703125] [-0.99997216463088989:0.99996781349182129] [-0.99531155824661255:0.98368406295776367] [0:5711573.5] [0:1.0000001192092896] [0:10.264176368713379]
tree_sizes=1541 1577 1592 1568 1581 1573 1593 1564 1578 1562 1585 1573 1573 1582 1567 1582 1584 1568 1590 1582 1564 1582 1587 1548 1574 1584 1582 1586 1584 1571 1590 1575 1576 1572 1592 1590 1572 1551 1593 1568 1568 1588 1590 1565 1573 1583 1574 1592 1545 1598 1579 1562 1567 1587 1590 1572 1590 1591 1570 1564 1601 1568 1579 1579 1588 1582 1583 1566 1574 1586 1592 1601 1587 1587 1593 1582 1588 1581 1584 1595 1594 1594 1599 1584 1571 1581 1593 1599 1602 1591 1578 1582 1569 1578 1587 1594 1590 1599 1592 1604 1569 1590 1585 1598 1570 1590 1581 1575 1578 1603 1590 1578 1594 1586 1590 1597 1589 1590 1593 1583 1594 1600 1585 1582 1577 1585 1598 1570 1575 1595 1586 1587 1584 1592 1583 1598 1572 1611 1590 1585 1588 1577 1615 1596 1590 1586 1581 1598 1596 1595 1592 1589 1604 1591 1582 1584 1610 1590 1582 1583 1581 1569 1587 1601 1571 1601 1595 1592 1592 1581 1592 1579 1594 1566 1608 1587 1579 1579 1597 1596 1601 1608 1580 1592 1601 1596 1585 1594 1576 1589 1571 1593 1584 1576 1601 1576 1610 1602 1562 1578 1608 1564 1620 1590 1594 1604 1589 1594 1616 1588 1582 1601 1567 1589 1614 1571 1599 1607 1586 1585 1584 1597 1573 1576 1579 1607 1585 1567 1597 1601 1593 1580 1583 1588 1584 1580 1592 1600 1582 1589 1588 1594 1591 1579 1581 1617 1567 1594 1594 1594 1563 1587 1603 1595 1594 1587 1588 1600 1606 1584 1587 1586 1584 1584 1590 1604 1604 1567 1604 1586 1607 1587 1592 1587 1583 1589 1590 1587 1585 1589 1598 1586 1586 1594 1585 1598 1604 1606 1583 1600 1599 1606 1569 1585 1591 1591 1577 1604 1590 1600 1602 1585 1591 1605 1593 1592 1583 1592 1572 1589 1570 1587 1595 1579 1562 1607 1593 1589 1594 1597 1605 1599 1599 1579 1596 1567 1623 1596 1591 1589 1606 1596 1596 1590 1590 1587 1604 1597 1582 1578 1600 1602 1595 1581 1589 1612 1582 1608 1587 1583 1590 1587 1598 1596 1598 1608 1587 1601 1593 1576 1585 1597 1575 1563 1584 1594 1574 1593 1600 1589 1591 1612 1602 1587 1594 1589 1590 1575 1580 1594 1599 1616 1597 1602 1587 1565 1583 1589 1588 1591 1584 1578 1591 1598 1587 1600 1600 1604 1586 1576 1589 1595 1599 1597 1598 1609 1611 1588 1593 1589 1594 1578 1594 1596 1591 1595 1587 1591 1604 1584 1583 1604 1588 1592 1606 1593 1582 1602 1607 1584 1583 1587 1591 1595 1579 1594 1593 1593 1576 1564 1582 1607 1566 1603 1572 1571 1592 1597 1587 1569 1592 1575 1592 1601 1601 1594 1588 1595 1576

Tree=0
num_leaves=15
num_cat=0
split_feature=469 683 295 784 756 299 539 596 461 378 763 760 336 586
split_gain=3412.37 5247.08 2117.43 3792.17 1949.39 1473.09 1910.87 1429.44 1272.16 1386.17 1083.95 1073.74 1062.57 1385.4
threshold=-3.0040849447250362 -1.6979444026947019 2.9290078878402714 -0.040636682882904999 1.7217347621917727 -0.557979255914688 -0.36342605948448176 4.3057153224945077 1.3551911115646365 0.72095173597335827 0.010711537208408119 0.96637392044067394 2.0449250936508183 -0.97138568758964527
decision_type=2 2 2 2 2 2 2 2 2 2 2 2 2 2
left_child=1 -1 4 -4 5 6 -2 8 -6 -10 12 -12 -7 -14
right_child=2 -3 3 -5 7 10 -8 -9 9 -11 11 -13 13 -15
leaf_value=-0.023539576377224435 0.00059510255826321704 0.02096831707213653 0.028850772200934658 0.066398103595930236 0.027571082723745307 0.025089977076550952 0.022984801323929993 0.043185433161282795 0.053708292533941666 0.029783754670585399 0.025921045496892284 0.028761876682424383 0.0044519318728576222 0.026716440595939681
leaf_weight=327 372 1141 1191 329 18738 161431 14374 636 375 648 163498 14464 553 542
leaf_count=327 372 1141 1191 329 18738 161431 14374 636 375 648 163498 14464 553 542
internal_value=0.02564 0.0105263 0.0256997 0.0374015 0.0256517 0.025479 0.0223868 0.0286565 0.0281716 0.0389237 0.0256131 0.0261523 0.0250227 0.0152939
internal_weight=378619 1468 377151 1520 375631 355234 14746 20397 19761 1023 340488 177962 162526 1095
internal_count=378619 1468 377151 1520 375631 355234 14746 20397 19761 1023 340488 177962 162526 1095
is_linear=0
shrinkage=1


Tree=1
num_leaves=15
num_cat=0
split_feature=470 286 295 784 756 276 560 596 461 448 348 761 293 608
split_gain=3793.47 5484.74 2144.74 3673.59 1890.02 1485.17 2005.05 1413.53 1199.37 1267.94 1116.98 1759.26 1586.65 1410.01
threshold=-2.8530418872833248 1.1323021054267886 2.9290078878402714 -0.040636682882904999 1.7217347621917727 -0.670886069536209 -0.37307906150817866 4.3057153224945077 1.3551911115646365 1.5904102325439455 0.40265661478042608 0.65102759003639232 0.93441584706306469 -0.091632355004549013
decision_type=2 2 2 2 2 2 2 2 2 2 2 2 2 2
left_child=1 -1 4 -4 5 6 -2 8 -6 -10 11 -7 13 -13
right_child=2 -3 3 -5 7 10 -8 -9 9 -11 -12 12 -14 -15
leaf_value=-0.005309138808066609 -0.027948727055039004 -0.05104442506659309 0.0032917982059785318 0.039908056983817886 0.0019161858949852688 -5.2677950978325645e-05 -0.0027353056424151341 0.017592499658512877 0.02555971454208654 0.0031026137176844541 -0.0014977900424532778 0.013600739239955693 0.011439091713395296 0.0014771473393550192
leaf_weight=1138 303 323 1186 338 18793 267739 14035 621 432 581 44618 977 1860 25719
leaf_count=1138 303 323 1186 338 18793 267739 14035 621 432 581 44618 977 1860 25719
internal_value=-1.41289e-08 -0.0159731 6.26975e-05 0.0118245 1.43569e-05 -0.000155796 -0.00330632 0.00297079 0.00249505 0.012989 -2.31061e-05 0.000199047 0.00255759 0.00193069
internal_weight=378663 1461 377202 1524 375678 355251 14338 20427 19806 1013 340913 296295 28556 26696
internal_count=378663 1461 377202 1524 375678 355251 14338 20427 19806 1013 340913 296295 28556 26696
is_linear=0
shrinkage=0.01


Tree=2
num_leaves=15
num_cat=0
split_feature=470 286 202 276 739 756 288 346 688 780 763 426 754 782
split_gain=3709.74 5311.39 2086.37 3981.45 1976.17 1348.6 1635.22 1550.14 1429.22 2047.65 1040.68 1269.03 1024.36 996.129
threshold=-2.8530418872833248 1.1323021054267886 2.2593821287155156 1.2977052927017214 -2.8794105052947994 2.0154063701629643 -0.18225499242544171 -0.82807156443595875 -1.951470613479614 -0.73163339495658863 -0.0072760160546749822 1.6021974086761477 0.64487028121948253 -0.71352738142013539
decision_type=2 2 2 2 2 2 2 2 2 2 2 2 2 2
left_child=1 -1 5 4 -4 6 7 8 9 -2 11 -8 -6 -7
right_child=2 -3 3 -5 12 13 10 -9 -10 -11 -12 -13 -14 -15
leaf_value=-0.0053672218895523382 -0.033572224446156242 -0.050735279983158285 0.027381842187910434 0.030202193430005596 -0.00097006058683327004 0.0053656710796471749 -0.00041292676791178194 -0.00089285263425579022 -0.0032222099501314212 -0.0077430600658387498 0.00073570574231781737 -0.020106007723910052 0.0072134026853042854 -0.00025912430229204817
leaf_weight=1127 356 317 301 571 4257 7830 140033 53358 8868 1793 151705 308 2364 5254
leaf_count=1127 356 317 301 571 4257 7830 140033 53358 8868 1793 151705 308 2364 5254
internal_value=3.7687e-06 -0.0158839 6.54619e-05 0.00528243 0.00314569 -4.06104e-05 -0.000156437 -0.00159887 -0.00501045 -0.012292 0.000161602 -0.000459005 0.00196473 0.00311003
internal_weight=378442 1444 376998 7493 6922 369505 356421 64375 11017 2149 292046 140341 6621 13084
internal_count=378442 1444 376998 7493 6922 369505 356421 64375 11017 2149 292046 140341 6621 13084
is_linear=0
shrinkage=0.01


Tree=3
num_leaves=15
num_cat=0
split_feature=470 286 202 276 654 298 674 575 756 562 590 348 428 468
split_gain=3408.7 5004.84 1994.04 4011.27 2316.82 1290.04 1730.35 1702.05 1316.59 1282.31 1298.06 1233.23 1614.06 1738.68
threshold=-2.8530418872833248 1.1323021054267886 2.4036732912063603 1.2977052927017214 -1.994687497615814 -0.77182134985923756 -1.0251276493072508 0.25397959351539617 1.7467708587646487 -1.1718168854713438 1.8229145407676699 0.40265661478042608 0.27332054078578955 3.0251653194427495
decision_type=2 2 2 2 2 2 2 2 2 2 2 2 2 2
left_child=1 -1 5 4 -4 6 7 -2 11 10 -10 -7 13 -13
right_child=2 -3 3 -5 -6 8 -8 -9 9 -11 -12 12 -14 -15
leaf_value=-0.0049676272166867246 -0.035555468295526228 -0.04863549771400999 0.029391654666906561 0.033468872905242225 0.001749723795972371 0.00016855768390591525 -0.002327553515505008 -0.0034687708961897564 0.005250499077193928 0.00085764546698833828 0.023564808249595531 -0.0031303780415253045 0.00036171008956433745 -0.026620212665293366
leaf_weight=1142 300 323 302 461 5266 297658 11356 352 5361 11913 400 22629 21295 300
leaf_count=1142 300 323 302 461 5266 297658 11356 352 5361 11913 400 22629 21295 300
internal_value=1.65516e-07 -0.0151208 5.96301e-05 0.00575495 0.00334881 -3.30869e-05 -0.0032546 -0.0188514 7.46763e-05 0.00273451 0.00659923 -6.2979e-05 -0.00162075 -0.00346065
internal_weight=379058 1465 377593 6029 5568 371564 12008 652 359556 17674 5761 341882 44224 22929
internal_count=379058 1465 377593 6029 5568 371564 12008 652 359556 17674 5761 341882 44224 22929
is_linear=0
shrinkage=0.01


Tree=4
num_leaves=15
num_cat=0
split_feature=470 286 202 276 739 756 288 346 688 780 562 596 754 335
split_gain=3476.02 4936.35 2025.44 3477.33 2152.6 1289.56 1528.01 1594.74 1474.78 1976.99 1229.48 1429.32 1004.18 998.166
threshold=-2.8530418872833248 1.1323021054267886 2.2593821287155156 1.2977052927017214 -2.8794105052947994 1.7467708587646487 -0.18225499242544171 -0.82807156443595875 -1.951470613479614 -0.73163339495658863 -1.1718168854713438 2.1910208463668828 0.64487028121948253 1.3903072476387026
decision_type=2 2 2 2 2 2 2 2 2 2 2 2 2 2
left_child=1 -1 5 4 -4 6 7 8 9 -2 11 -7 -6 -8
right_child=2 -3 3 -5 12 10 13 -9 -10 -11 -12 -13 -14 -15
leaf_value=-0.0053136333161046623 -0.035120057687599057 -0.049019547679594586 0.027788852971365845 0.028653170345622671 -0.00095710361072167424 0.0050620769543607506 -1.1127723850199859e-05 -0.00090579648505290707 -0.0034350969067456724 -0.0082714495667444328 0.00073626270436894653 0.026716162147558075 0.0071571382332558256 0.0028237807337466113
leaf_weight=1146 322 316 319 563 4261 5650 276144 51969 8260 1499 12491 304 2352 12985
leaf_count=1146 322 316 319 563 4261 5650 276144 51969 8260 1499 12491 304 2352 12985
internal_value=-9.38068e-06 -0.0152944 5.06835e-05 0.00519023 0.00320768 -5.38082e-05 -0.000189235 -0.00161285 -0.00524879 -0.0133489 0.00252204 0.00625343 0.00194171 0.000116377
internal_weight=378581 1462 377119 7495 6932 369624 351179 62050 10081 1821 18445 5954 6613 289129
internal_count=378581 1462 377119 7495 6932 369624 351179 62050 10081 1821 18445 5954 6613 289129
is_linear=0
shrinkage=0.01


Tree=5
num_leaves=15
num_cat=0
split_feature=470 286 295 784 756 276 551 596 461 378 762 268 469 32
split_gain=3380.09 4607.5 2012.92 3478.11 1679.63 1375.61 1726.57 1337.81 1063.8 1223.5 1044.77 1470.44 1142.33 1033.8
threshold=-2.8530418872833248 1.1323021054267886 2.9290078878402714 -0.040636682882904999 1.7467708587646487 -0.670886069536209 -0.5045785903930663 4.3057153224945077 1.3551911115646365 0.72095173597335827 1.6114176511764529 1.0109834074974062 2.7700023651123051 -0.18769741058349607
decision_type=2 2 2 2 2 2 2 2 2 2 2 2 2 2
left_child=1 -1 4 -4 5 6 -2 8 -6 -10 12 -12 13 -7
right_child=2 -3 3 -5 7 10 -8 -9 9 -11 11 -13 -14 -15
leaf_value=-0.0054424412463493846 -0.024436556746390205 -0.047865151762962341 0.0032408317654901383 0.03897593110549858 0.0018222834479611637 -0.00090370981048436001 -0.0025972777299892108 0.017143533168228593 0.026714409374892712 0.0037675311556103798 0.0020917436562315384 0.017897250455063071 -0.016271749450516137 0.00029336891562635622
leaf_weight=1136 352 313 1200 334 18112 106518 14051 615 355 632 10877 603 417 223440
leaf_count=1136 352 313 1200 334 18112 106518 14051 615 355 632 10877 603 417 223440
internal_value=6.32208e-06 -0.0151331 6.52312e-05 0.011423 1.82854e-05 -0.000139012 -0.00316416 0.00285812 0.00238067 0.0123876 -1.13792e-05 0.00295163 -0.000114511 -9.31069e-05
internal_weight=378955 1449 377506 1534 375972 356258 14403 19714 19099 987 341855 11480 330375 329958
internal_count=378955 1449 377506 1534 375972 356258 14403 19714 19099 987 341855 11480 330375 329958
is_linear=0
shrinkage=0.01


Tree=6
num_leaves=15
num_cat=0
split_feature=470 286 295 576 756 276 557 596 348 761 293 608 428 582
split_gain=3345.91 4848.42 1871.75 3135.87 1727.44 1367.56 1979.29 1324.42 1053.41 1797.28 1575.76 1361.49 1325.03 1288.05
threshold=-2.8530418872833248 1.1323021054267886 2.9290078878402714 1.2416237592697146 1.7467708587646487 -0.670886069536209 -0.47417080402374262 4.3057153224945077 0.40265661478042608 0.65102759003639232 0.93441584706306469 -0.091632355004549013 0.27332054078578955 1.4280834197998049
decision_type=2 2 2 2 2 2 2 2 2 2 2 2 2 2
left_child=1 -1 4 -4 5 6 -2 -6 9 -7 11 -11 13 -10
right_child=2 -3 3 -5 7 8 -8 -9 12 10 -12 -13 -14 -15
leaf_value=-0.0051299882732783646 -0.027342282662623962 -0.048794435517485406 0.0036383188163237731 0.038775865700291956 0.0024207107965702034 -5.8288716319984511e-05 -0.0025912288954930934 0.01727988791069196 -0.0021063261001814625 0.013272514629635144 0.011329502041041753 0.0014962946759595236 0.00034816504188796553 -0.0086975346070854928
leaf_weight=1123 311 311 1213 303 19171 267684 14094 600 20043 1001 1898 25893 21535 3465
leaf_count=1123 311 311 1213 303 19171 267684 14094 600 20043 1001 1898 25893 21535 3465
internal_value=-1.90773e-07 -0.0151407 5.81667e-05 0.0110746 1.3126e-05 -0.000146758 -0.00316277 0.00288866 -1.93678e-05 0.000197138 0.00257027 0.00194415 -0.00144388 -0.00308442
internal_weight=378645 1434 377211 1516 375695 355924 14405 19771 341519 296476 28792 26894 45043 23508
internal_count=378645 1434 377211 1516 375695 355924 14405 19771 341519 296476 28792 26894 45043 23508
is_linear=0
shrinkage=0.01


Tree=7
num_leaves=15
num_cat=0
split_feature=470 286 202 276 739 291 586 763 432 417 688 140 136 178
split_gain=3429.46 4846.99 1854.44 3791.17 1919.05 1231.78 1312.37 1246.5 2364.94 1964.17 1240.97 1115.55 1087.37 1500.78
threshold=-2.8530418872833248 1.1323021054267886 2.4036732912063603 1.2977052927017214 -2.8794105052947994 0.52593290805816661 -2.8336436748504634 -0.52083906531333912 1.4991747140884402 0.90057235956192028 2.3848030567169194 1.6962111592292788 -0.042472476139664643 -0.66750040650367726
decision_type=2 2 2 2 2 2 2 2 2 2 2 2 2 2
left_child=1 -1 5 4 -4 7 -7 8 10 -10 -2 12 -8 -14
right_child=2 -3 3 -5 -6 6 11 -9 9 -11 -12 -13 13 -15
leaf_value=-0.005060044789238426 -0.0012177694808864128 -0.047767213504857527 0.026972427480732617 0.033109727735002224 0.0018095031071654985 0.019791056414378835 0.00054572699413075586 -3.8835756448469285e-06 -0.0056336704993322616 -0.036073202524071847 -0.01378237367843985 -0.01268765477452948 0.024838096233644733 0.003112329636249112
leaf_weight=1139 53721 329 302 442 5239 354 61982 238834 549 335 778 570 306 13843
leaf_count=1139 53721 329 302 442 5239 354 61982 238834 549 335 778 570 306 13843
internal_value=6.80344e-06 -0.0151447 6.65618e-05 0.00558021 0.00327303 -2.25857e-05 0.00110277 -0.000317369 -0.00166875 -0.0177119 -0.00140213 0.00101138 0.00111725 0.00361659
internal_weight=378723 1468 377255 5983 5541 371272 77055 294217 55383 884 54499 76701 76131 14149
internal_count=378723 1468 377255 5983 5541 371272 77055 294217 55383 884 54499 76701 76131 14149
is_linear=0
shrinkage=0.01


Tree=8
num_leaves=15
num_cat=0
split_feature=470 286 295 784 756 276 557 596 461 378 762 288 469 32
split_gain=3292.28 4860.54 1937.16 3274.02 1626.93 1338.83 2036.68 1295.77 1119.56 1253.5 1026.84 1406.8 1115.97 1019.4
threshold=-2.8530418872833248 1.1323021054267886 2.9290078878402714 -0.040636682882904999 1.7217347621917727 -0.670886069536209 -0.47417080402374262 4.3057153224945077 1.3551911115646365 0.72095173597335827 1.6114176511764529 1.1084291934967043 2.7700023651123051 -0.18769741058349607
decision_type=2 2 2 2 2 2 2 2 2 2 2 2 2 2
left_child=1 -1 4 -4 5 6 -2 8 -6 -10 12 -12 13 -7
right_child=2 -3 3 -5 7 10 -8 -9 9 -11 11 -13 -14 -15
leaf_value=-0.0048330644932048812 -0.027823650778274107 -0.047985008835618265 0.0031900479253828802 0.037682001350297076 0.0017395559565194613 -0.00091112651113862118 -0.0025653557353547585 0.016845760134727022 0.02680521019729579 0.0038652339961360365 0.0021588125954733442 0.019083434229517734 -0.016006115870002439 0.00027908067090604032
leaf_weight=1126 307 322 1198 339 18694 106327 14003 613 363 652 10860 495 422 222540
leaf_count=1126 307 322 1198 339 18694 106327 14003 613 363 652 10860 495 422 222540
internal_value=-5.47092e-06 -0.014952 5.27555e-05 0.0111839 6.57268e-06 -0.000151038 -0.00314531 0.00275692 0.00230209 0.0124288 -2.50752e-05 0.00292887 -0.000127109 -0.000105761
internal_weight=378261 1448 376813 1537 375276 354954 14310 20322 19709 1015 340644 11355 329289 328867
internal_count=378261 1448 376813 1537 375276 354954 14310 20322 19709 1015 340644 11355 329289 328867
is_linear=0
shrinkage=0.01


Tree=9
num_leaves=15
num_cat=0
split_feature=470 286 295 576 298 678 566 763 202 335 291 336 586 588
split_gain=3191.9 4666.22 1894.61 3149.57 1241.28 1705.4 2335.39 1245 1390.72 2187.2 1352.23 1039.92 1290.46 1006.3
threshold=-2.8530418872833248 1.1323021054267886 2.9290078878402714 1.2416237592697146 -0.77182134985923756 -0.8203049600124358 -0.29593466222286219 0.010711537208408119 2.1532630920410161 -1.1873642802238462 1.0020907521247866 2.0449250936508183 -0.9393024444580077 0.26159393787384039
decision_type=2 2 2 2 2 2 2 2 2 2 2 2 2 2
left_child=1 -1 4 -4 5 6 -2 11 -9 -10 13 -6 -13 -11
right_child=2 -3 3 -5 7 -7 -8 8 9 10 -12 12 -14 -15
leaf_value=-0.0048639771752771108 -0.036187126260706005 -0.047099493932514246 0.0036054094909602915 0.038472172948348919 -0.00043229259311360904 -0.0019860900212844753 -0.0042545882743160127 0.00053218246442439626 0.028942983553353105 -0.0029480100058697097 0.022882468670287301 -0.018247071932288337 0.0021650315343910015 0.0065351295999574463
leaf_weight=1148 336 321 1216 311 167713 11126 660 189564 358 1948 330 705 534 2581
leaf_count=1148 336 321 1216 311 167713 11126 660 189564 358 1948 330 705 534 2581
internal_value=1.06505e-05 -0.0146018 6.83018e-05 0.0111122 2.28444e-05 -0.00312244 -0.0155273 0.000127832 0.00067268 0.00575625 0.00393627 -0.000500316 -0.00955496 0.00246124
internal_weight=378851 1469 377382 1527 375855 12122 996 363733 194781 5217 4859 168952 1239 4529
internal_count=378851 1469 377382 1527 375855 12122 996 363733 194781 5217 4859 168952 1239 4529
is_linear=0
shrinkage=0.01


Tree=10
num_leaves=15
num_cat=0
split_feature=470 286 295 784 756 596 276 557 461 378 348 761 293 428
split_gain=3102.78 4490.43 1837.05 2971.78 1612.29 1337.05 1256.86 1936.57 1118.35 1285.89 1039.22 1713.24 1465.98 1323.63
threshold=-2.8530418872833248 1.1323021054267886 2.9290078878402714 -0.040636682882904999 1.7217347621917727 4.3057153224945077 -0.670886069536209 -0.47417080402374262 1.3551911115646365 0.72095173597335827 0.40265661478042608 0.65102759003639232 0.93441584706306469 0.27332054078578955
decision_type=2 2 2 2 2 2 2 2 2 2 2 2 2 2
left_child=1 -1 4 -4 6 8 7 -2 -6 -10 11 -8 -13 -12
right_child=2 -3 3 -5 5 -7 10 -9 9 -11 13 12 -14 -15
leaf_value=-0.004763342284349637 -0.027218560648645151 -0.045977165727429305 0.0033092211484858965 0.036241269210974376 0.0017242590123390286 0.016813552159417905 -5.0564131674555644e-05 -0.0024778015581861925 0.027032980424788317 0.0037280033780268868 -0.0030835407498306911 0.0019271442593696781 0.011117581507366876 0.00035386049539984431
leaf_weight=1145 304 326 1200 337 18738 635 267682 13999 361 646 23339 26683 1838 21518
leaf_count=1145 304 326 1200 337 18738 635 267682 13999 361 646 23339 26683 1838 21518
internal_value=6.00816e-06 -0.0143913 6.29025e-05 0.0109026 1.7984e-05 0.00275191 -0.000138952 -0.00304092 0.00228313 0.0124464 -1.70813e-05 0.000197759 0.00252679 -0.00143519
internal_weight=378751 1471 377280 1537 375743 20380 355363 14303 19745 1007 341060 296203 28521 44857
internal_count=378751 1471 377280 1537 375743 20380 355363 14303 19745 1007 341060 296203 28521 44857
is_linear=0
shrinkage=0.01


Tree=11
num_leaves=15
num_cat=0
split_feature=470 286 202 276 654 291 763 333 592 140 136 178 32 178
split_gain=3176.28 4580.27 1800.31 3271.99 2291.98 1213.06 1210.9 2324.74 1176.94 1107.08 1074.38 1381.42 1072.53 1052.66
threshold=-2.8530418872833248 1.1323021054267886 2.2593821287155156 1.2456473708152773 -1.994687497615814 0.52593290805816661 -0.52083906531333912 2.6312332153320317 -2.3808305263519283 1.6962111592292788 -0.027663227170705792 -0.64507368206977833 -0.62898716330528248 0.038386924192309387
decision_type=2 2 2 2 2 2 2 2 2 2 2 2 2 2
left_child=1 -1 5 4 -4 6 7 -2 -7 10 -10 -12 -8 -5
right_child=2 -3 3 13 -6 8 12 -9 9 -11 11 -13 -14 -15
leaf_value=-0.0048471488051409981 -0.0015111057868157235 -0.046337795017779557 0.027355463611338688 0.011286693141386609 0.001462044694073785 0.018935509681884372 -0.0018688564815842108 -0.027009246513156945 0.00053709464096785735 -0.01284194306983491 0.023576593631111524 0.0031383447950863092 0.00021178825267319159 0.037621661360388345
leaf_weight=1155 54846 328 341 301 6509 347 28073 340 62447 555 320 12996 209739 345
leaf_count=1155 54846 328 341 301 6509 347 28073 340 62447 555 320 12996 209739 345
internal_value=-9.96486e-06 -0.0145183 4.7849e-05 0.00489302 0.00282693 -5.06605e-05 -0.000343695 -0.00167793 0.00106906 0.000982883 0.00108752 0.00366412 -3.39622e-05 0.0260585
internal_weight=378642 1483 377159 7496 6850 369663 292998 55186 76665 76318 75763 13316 237812 646
internal_count=378642 1483 377159 7496 6850 369663 292998 55186 76665 76318 75763 13316 237812 646
is_linear=0
shrinkage=0.01


Tree=12
num_leaves=15
num_cat=0
split_feature=470 286 202 276 654 574 341 595 32 101 590 763 762 390
split_gain=2977.27 4262.99 1809.07 3483.66 2267.36 1419.16 1202.5 1515.94 1205.55 1062.35 1106.87 938.682 1555.7 1392.11
threshold=-2.8530418872833248 1.1323021054267886 2.1532630920410161 1.2977052927017214 -2.1250028610229488 -1.0370401144027708 1.2350032329559328 -2.0234605073928829 -0.21311718970537183 1.9359634518623354 0.50954377651214611 -0.29327744245529169 -2.2446320056915279 1.3693249821662905
decision_type=2 2 2 2 2 2 2 2 2 2 2 2 2 2
left_child=1 -1 6 4 -4 -5 8 -8 9 -2 -11 13 -13 -10
right_child=2 -3 3 5 -6 -7 7 -9 11 10 -12 12 -14 -15
leaf_value=-0.0048054619353785242 -0.00092567358841062362 -0.045174941590104982 0.028372506588245885 0.039908295617749293 0.0016180528295789511 0.010387617498265833 0.023790244315793879 0.0020019866427491042 -0.00060741513650726842 -0.0027670303324053283 -0.018742699043414714 0.018082271334413286 0.0005724017616718231 -0.015992003596886274
leaf_weight=1149 107689 321 310 340 8001 332 305 19086 72844 1234 656 489 165340 573
leaf_count=1149 107689 321 310 340 8001 332 305 19086 72844 1234 656 489 165340 573
internal_value=-1.06873e-06 -0.0141089 5.46566e-05 0.00448348 0.00268171 0.0260454 -5.36266e-05 0.00236885 -0.000188419 -0.00105697 -0.00845022 0.00020945 0.00062621 -0.00073181
internal_weight=378669 1470 377199 8983 8311 672 368216 19391 348825 109579 1890 239246 165829 73417
internal_count=378669 1470 377199 8983 8311 672 368216 19391 348825 109579 1890 239246 165829 73417
is_linear=0
shrinkage=0.01


Tree=13
num_leaves=15
num_cat=0
split_feature=470 286 295 784 756 299 539 596 461 378 348 761 772 422
split_gain=2994.6 4218.82 1804.67 3010.11 1538.4 1248.89 1702.87 1212.27 1170.56 1270.12 1123.33 1741.92 1592.27 1297.11
threshold=-2.8530418872833248 1.1323021054267886 2.9290078878402714 -0.040636682882904999 1.7217347621917727 -0.557979255914688 -0.36342605948448176 4.3057153224945077 1.3551911115646365 0.72095173597335827 0.40265661478042608 0.65102759003639232 0.91472646594047557 0.2251432612538338
decision_type=2 2 2 2 2 2 2 2 2 2 2 2 2 2
left_child=1 -1 4 -4 5 6 -2 8 -6 -10 11 -7 -13 -12
right_child=2 -3 3 -5 7 10 -8 -9 9 -11 13 12 -14 -15
leaf_value=-0.0047867788086847505 -0.023959899980220058 -0.044932899700347771 0.0030156846435702728 0.035984736123009696 0.0016503169566894486 -5.2976902972770323e-05 -0.0024469321152838343 0.016144537220160599 0.026602606878021552 0.0037506882270845489 -0.0032064380695057417 0.0013985759524604948 0.0074287745030802398 0.00015604177250359879
leaf_weight=1120 358 324 1176 344 18746 266321 14381 627 378 646 22385 22695 5410 23508
leaf_count=1120 358 324 1176 344 18746 266321 14381 627 378 646 22385 22695 5410 23508
internal_value=-1.10309e-05 -0.0142854 4.4402e-05 0.0108475 9.09003e-08 -0.000153395 -0.00300123 0.0026694 0.00222616 0.0125343 -2.98876e-05 0.00019697 0.0025638 -0.00148474
internal_weight=378419 1444 376975 1520 375455 355058 14739 20397 19770 1024 340319 294426 28105 45893
internal_count=378419 1444 376975 1520 375455 355058 14739 20397 19770 1024 340319 294426 28105 45893
is_linear=0
shrinkage=0.01


Tree=14
num_leaves=15
num_cat=0
split_feature=470 286 202 276 654 574 756 766 551 348 468 570 633 595
split_gain=3109 4381.04 1684.46 3368 2108.96 1341.39 1184.07 1383.14 1892.96 1149.68 1840.32 1260.6 1218.83 1129.89
threshold=-2.8530418872833248 1.1323021054267886 2.1532630920410161 1.2456473708152773 -2.1250028610229488 -1.0370401144027708 2.0154063701629643 -0.77310836315155018 -0.5045785903930663 0.40265661478042608 1.0479314327239992 0.44300131499767309 1.2389082312583926 -2.0234605073928829
decision_type=2 2 2 2 2 2 2 2 2 2 2 2 2 2
left_child=1 -1 6 4 -4 -5 7 8 -2 10 13 -12 -11 -9
right_child=2 -3 3 5 -6 -7 -8 9 -10 12 11 -13 -14 -15
leaf_value=-0.004949724348315177 -0.027076682158220171 -0.045734723622715752 0.027260344273164462 0.037103646975800285 0.001415456353386049 0.0098655139795661758 0.0029058216939443753 0.013999734969737396 -0.0026795326923620402 -0.000747833814596903 0.0024762537290421265 0.011643858357490783 -0.0050245617799759305 2.8390416328474721e-05
leaf_weight=1150 306 324 309 381 7921 365 12990 560 13605 34800 5206 2096 8225 290247
leaf_count=1150 306 324 309 381 7921 365 12990 560 13605 34800 5206 2096 8225 290247
internal_value=-9.7657e-06 -0.0144069 4.72841e-05 0.00432254 0.00244955 0.0243822 -5.72143e-05 -0.00016578 -0.0032543 -3.96511e-05 0.000180928 0.00513238 -0.00156736 5.62556e-05
internal_weight=378485 1474 377011 8976 8230 746 368035 355045 13911 341134 298109 7302 43025 290807
internal_count=378485 1474 377011 8976 8230 746 368035 355045 13911 341134 298109 7302 43025 290807
is_linear=0
shrinkage=0.01


Tree=15
num_leaves=15
num_cat=0
split_feature=470 286 202 276 654 291 140 586 763 333 136 590 757 762
split_gain=2894.44 4086.94 1650.3 3015.59 2070.14 1177.21 1199.78 1182.38 1143.35 2202.39 1028.15 1308.68 1007.68 1259.78
threshold=-2.8530418872833248 1.1323021054267886 2.2593821287155156 1.2456473708152773 -1.994687497615814 0.52593290805816661 1.6962111592292788 -2.8336436748504634 -0.52083906531333912 2.6312332153320317 -0.042472476139664643 2.5096241235733037 -0.70071613788604725 -0.46905098855495447
decision_type=2 2 2 2 2 2 2 2 2 2 2 2 2 2
left_child=1 -1 5 4 -4 8 7 -7 9 -2 -9 -12 13 -10
right_child=2 -3 3 -5 -6 6 -8 10 12 -11 11 -13 -14 -15
leaf_value=-0.0047877090766983354 -0.0014635561549306562 -0.04461968183340588 0.026253414078340143 0.025291285055968463 0.0014470047083004766 0.01905347018968314 -0.013122348591403696 0.00052740918832192246 -0.0066859554355583059 -0.026419629139925113 0.0030448477748787491 0.023334704693463958 0.00018930888100292874 -0.00085434204218135391
leaf_weight=1119 54927 317 335 630 6495 348 572 61894 4571 336 13803 306 213742 19224
leaf_count=1119 54927 317 335 630 6495 348 572 61894 4571 336 13803 306 213742 19224
internal_value=-5.35443e-07 -0.0140728 5.37835e-05 0.00470408 0.00273682 -4.02962e-05 0.00106044 0.0011701 -0.000329529 -0.00162479 0.00108323 0.00351731 -2.80738e-05 -0.00197926
internal_weight=378619 1436 377183 7460 6830 369723 76923 76351 292800 55263 76003 14109 237537 23795
internal_count=378619 1436 377183 7460 6830 369723 76923 76351 292800 55263 76003 14109 237537 23795
is_linear=0
shrinkage=0.01


Tree=16
num_leaves=15
num_cat=0
split_feature=470 288 202 294 739 617 27 171 592 384 288 688 300 674
split_gain=2954.28 3900.42 1744.48 2388.78 1781.4 1170.21 1859.07 1661.87 2256.86 3154.58 1444.62 1291.8 1263.74 2403.85
threshold=-2.8530418872833248 1.0223170518875124 2.4036732912063603 0.64930641651153576 -2.8794105052947994 0.0034177683992311363 -0.72268339991569508 -0.44143632054328913 -1.3606873154640196 -0.42013482749462122 1.2007861137390139 2.8733414411544804 -0.7875445783138274 -0.7334480583667754
decision_type=2 2 2 2 2 2 2 2 2 2 2 2 2 2
left_child=1 -1 5 4 -4 7 -7 8 9 -2 -10 12 13 -8
right_child=2 -3 3 -5 -6 6 11 -9 10 -11 -12 -13 -14 -15
leaf_value=-0.0051474581452301974 0.035820803637419234 -0.043706273018268113 0.026127450295586521 0.028395970392306999 0.0022368527740520435 -0.0031706973242911986 -0.032065214505826591 7.9432973151658955e-05 0.00090266661619480167 0.0060600172917578965 0.015304261235658121 -0.012407719404014304 -1.667031399780859e-05 -0.0034028116603859889
leaf_weight=1156 358 322 312 400 5322 23076 300 110454 25799 6572 696 840 199717 3513
leaf_count=1156 358 322 312 400 5322 23076 300 110454 25799 6572 696 840 199717 3513
internal_value=-3.79519e-06 -0.0140193 5.18395e-05 0.00537659 0.00364761 -3.49722e-05 -0.000481451 0.000670797 0.00262376 0.0076961 0.00129224 -0.00017752 -0.00012583 -0.00581346
internal_weight=378837 1478 377359 6034 5634 371325 227446 143879 33425 6930 26495 204370 203530 3813
internal_count=378837 1478 377359 6034 5634 371325 227446 143879 33425 6930 26495 204370 203530 3813
is_linear=0
shrinkage=0.01


Tree=17
num_leaves=15
num_cat=0
split_feature=470 288 295 576 756 276 551 590 461 378 762 288 469 32
split_gain=2788.3 3941.23 1667.35 2694.59 1487.1 1219.07 1750.6 1169.29 1180.9 1444.52 1015.58 1410.6 1104.04 982.307
threshold=-2.8530418872833248 1.0223170518875124 2.9290078878402714 1.2416237592697146 1.6465494036674502 -0.670886069536209 -0.5045785903930663 4.4839868545532235 1.3551911115646365 0.72095173597335827 1.6114176511764529 1.1315192580223086 2.7700023651123051 -0.22932494431734082
decision_type=2 2 2 2 2 2 2 2 2 2 2 2 2 2
left_child=1 -1 4 -4 5 6 -2 8 -6 -10 12 -12 13 -7
right_child=2 -3 3 -5 7 10 -8 -9 9 -11 11 -13 -14 -15
leaf_value=-0.0048003458375428304 -0.024519947394930575 -0.043868398114816465 0.0035317597756513871 0.035915607577161328 0.0015774183303344906 -0.00096047111317831965 -0.0024386572821897467 0.015597249480035909 0.027042149267573638 0.0031761736244256956 0.0021669003362408726 0.019606795543041466 -0.016213748888615431 0.00024573296991022014
leaf_weight=1154 349 315 1225 307 20519 95137 13807 644 392 676 10882 465 406 232411
leaf_count=1154 349 315 1225 307 20519 95137 13807 644 392 676 10882 465 406 232411
internal_value=2.8943e-06 -0.0136545 5.6801e-05 0.0104004 1.40699e-05 -0.000143774 -0.00301687 0.00252156 0.0021174 0.012272 -2.37351e-05 0.00291483 -0.000125579 -0.000104649
internal_weight=378689 1469 377220 1532 375688 353457 14156 22231 21587 1068 339301 11347 327954 327548
internal_count=378689 1469 377220 1532 375688 353457 14156 22231 21587 1068 339301 11347 327954 327548
is_linear=0
shrinkage=0.01


Tree=18
num_leaves=15
num_cat=0
split_feature=470 286 295 784 756 596 299 36 735 773 679 348 761 772
split_gain=2731.32 4017.26 1665.02 2749.02 1471.84 1212.92 1211.46 1640.22 1825.08 1225.16 1874.35 1114.23 1721.64 1565.54
threshold=-2.8530418872833248 1.1323021054267886 2.9290078878402714 -0.040636682882904999 1.7217347621917727 4.3057153224945077 -0.557979255914688 -0.99973163008689869 -0.37685038149356836 -0.59929096698760975 -0.023394105024635788 0.40265661478042608 0.65102759003639232 0.91472646594047557
decision_type=2 2 2 2 2 2 2 2 2 2 2 2 2 2
left_child=1 -1 4 -4 6 -6 7 8 -2 10 -9 12 -8 -14
right_child=2 -3 3 -5 5 -7 11 9 -10 -11 -12 -13 13 -15
leaf_value=-0.0044346753505978371 -0.032139505449581794 -0.043422268461490027 0.0030237126986947045 0.034473184925752895 0.0021868385852188013 0.016099322474742005 -3.4844888699115587e-05 -0.030474302182027273 -0.006429633014854455 -0.00068176089475940449 -0.0042320886943108061 -0.001459077738229614 0.0014042792778305349 0.0073597772715580526
leaf_weight=1154 350 325 1206 343 19679 628 266557 330 1148 11744 1264 46022 22699 5464
leaf_count=1154 350 325 1206 343 19679 628 266557 330 1148 11744 1264 46022 22699 5464
internal_value=4.8035e-06 -0.013467 5.83043e-05 0.0103383 1.53931e-05 0.0026325 -0.000134209 -0.00292957 -0.0127809 -0.00180568 -0.00997522 -1.23337e-05 0.000213666 0.00256413
internal_weight=378913 1479 377434 1549 375885 20307 355578 14836 1498 13338 1594 340742 294720 28163
internal_count=378913 1479 377434 1549 375885 20307 355578 14836 1498 13338 1594 340742 294720 28163
is_linear=0
shrinkage=0.01


Tree=19
num_leaves=15
num_cat=0
split_feature=470 286 202 290 654 291 140 763 333 592 688 757 762 447
split_gain=2691.5 3935.22 1610.87 2390.94 1991.49 1133.35 1276.49 1149.52 2269.35 1043.09 1025.87 1011.82 1255.29 1177.65
threshold=-2.8530418872833248 1.1323021054267886 2.2593821287155156 0.82171639800071727 -1.994687497615814 0.50612738728523265 1.6962111592292788 -0.59827244281768788 2.6312332153320317 -2.3808305263519283 2.4999294281005864 -0.70071613788604725 -0.78951746225357045 1.4431307911872866
decision_type=2 2 2 2 2 2 2 2 2 2 2 2 2 2
left_child=1 -1 5 4 -4 7 9 8 10 -7 -2 12 -9 -13
right_child=2 -3 3 -5 -6 6 -8 11 -10 -11 -12 13 -14 -15
leaf_value=-0.0042569855314526705 -0.0014173217612917625 -0.042674371929077262 0.026229095032132485 0.029977320399354246 0.0021476328566727332 0.017933749402556012 -0.013179420817761666 -0.0083141849968492599 -0.027755625089853554 0.0010343748722135781 -0.014475646751230491 3.2642596857310649e-05 -0.0011777895780434803 0.0045838096920314802
leaf_weight=1122 45351 332 342 335 6818 347 610 2767 314 80192 590 212271 21421 5822
leaf_count=1122 45351 332 342 335 6818 347 610 2767 314 80192 590 212271 21421 5822
internal_value=-2.46831e-06 -0.013489 5.02339e-05 0.00463372 0.00336775 -4.29374e-05 0.00100097 -0.00033658 -0.00178079 0.00111162 -0.00159125 -6.07355e-05 -0.00200036 0.000154545
internal_weight=378634 1454 377180 7495 7160 369685 81149 288536 46255 80539 45941 242281 24188 218093
internal_count=378634 1454 377180 7495 7160 369685 81149 288536 46255 80539 45941 242281 24188 218093
is_linear=0
shrinkage=0.01


Tree=20
num_leaves=15
num_cat=0
split_feature=470 286 202 276 654 574 756 28 617 101 562 782 343 469
split_gain=2546.64 3715.55 1616.79 3157.72 2100.61 1378.59 1119.65 1337.59 1202.89 1126.59 951.846 1022.86 919.048 918.942
threshold=-2.8530418872833248 1.1323021054267886 2.1532630920410161 1.2456473708152773 -2.1250028610229488 -1.0320086479187009 1.9468729496002199 -0.78954404592514027 0.0034177683992311363 1.7566332221031191 -1.1718168854713438 -0.72751635313034047 0.39605982601642614 2.7700023651123051
decision_type=2 2 2 2 2 2 2 2 2 2 2 2 2 2
left_child=1 12 6 4 -4 -5 7 8 9 -2 11 -8 -1 -9
right_child=2 -3 3 5 -6 -7 10 13 -10 -11 -12 -13 -14 -15
leaf_value=-0.016754423454380069 0.00037484501783129119 -0.041903301195869609 0.027184721348088199 0.035990709196418814 0.0013915873455451766 0.0084860155175149592 0.010761657002907292 6.2452177931428493e-05 -0.0037656499024032375 -0.01502851246915432 0.00087827166606680026 0.0013920366340874721 0.0020594161124084186 -0.015727560425777908
leaf_weight=371 16364 324 309 397 7927 352 2481 318366 18489 469 9452 2194 762 349
leaf_count=371 16364 324 309 397 7927 352 2481 318366 18489 469 9452 2194 762 349
internal_value=7.99696e-07 -0.0131044 5.212e-05 0.00423849 0.00242281 0.0236215 -5.02727e-05 -0.000160498 -0.00200628 -7.16479e-05 0.00270841 0.00638911 -0.00428492 4.4176e-05
internal_weight=378606 1457 377149 8985 8236 749 368164 354037 35322 16833 14127 4675 1133 318715
internal_count=378606 1457 377149 8985 8236 749 368164 354037 35322 16833 14127 4675 1133 318715
is_linear=0
shrinkage=0.01


Tree=21
num_leaves=15
num_cat=0
split_feature=470 286 756 26 762 288 470 596 299 35 734 773 756 461
split_gain=2529.01 3699.49 1514.51 1480.15 1313.93 2738.53 1744.79 1244.03 1089.61 1502.8 1711.27 1223.47 1785.29 1014.45
threshold=-2.8530418872833248 1.1323021054267886 1.7217347621917727 1.6067992448806765 1.6114176511764529 1.1315192580223086 2.3844604492187504 4.3057153224945077 -0.557979255914688 -0.70920172333717335 -0.74977675080299366 -0.59929096698760975 -0.10303075239062308 1.3551911115646365
decision_type=2 2 2 2 2 2 2 2 2 2 2 2 2 2
left_child=1 -1 3 4 6 -6 8 13 9 10 -2 12 -11 -4
right_child=2 -3 7 -5 5 -7 -8 -9 -10 11 -12 -13 -14 -15
leaf_value=-0.0042943272099073013 -0.030317932989802107 -0.041896277111001884 0.0017164730657111616 0.0040431042312532054 0.0019902428521177537 0.023921407963631926 -0.023084110329149379 0.016173715702242623 -0.00016415966591725337 -0.03088828552306069 -0.0065692575463038453 -0.00031439478147655714 -0.0041195835258248685 0.011905176773919003
leaf_weight=1138 338 322 18744 8418 10628 582 316 644 322391 302 2133 10592 1138 1012
leaf_count=1138 338 322 18744 8418 10628 582 316 644 322391 302 2133 10592 1138 1012
internal_value=5.03568e-06 -0.0130415 5.62174e-05 -9.53459e-05 -0.000195559 0.00316944 -0.000307604 0.00270487 -0.000284871 -0.00296428 -0.0100351 -0.00149791 -0.0100798 0.0022499
internal_weight=378698 1460 377238 356838 348420 11210 337210 20400 336894 14503 2471 12032 1440 19756
internal_count=378698 1460 377238 356838 348420 11210 337210 20400 336894 14503 2471 12032 1440 19756
is_linear=0
shrinkage=0.01


Tree=22
num_leaves=15
num_cat=0
split_feature=470 286 295 576 756 596 276 551 461 448 26 340 617 782
split_gain=2557.93 3560.64 1561.77 2515.32 1449.22 1114.08 1097.31 1622.42 1055.62 1194.71 965.585 1001.09 1002.74 1563.78
threshold=-2.8530418872833248 1.1323021054267886 2.9290078878402714 1.2416237592697146 1.7217347621917727 4.3057153224945077 -0.70589849352836598 -0.5045785903930663 1.3551911115646365 1.5904102325439455 1.5049508810043337 -2.1801134347915645 0.0039231288246810445 1.7643703222274782
decision_type=2 2 2 2 2 2 2 2 2 2 2 2 2 2
left_child=1 -1 4 -4 6 8 7 -2 -6 -10 11 -8 13 -13
right_child=2 -3 3 -5 5 -7 10 -9 9 -11 -12 12 -14 -15
leaf_value=-0.0044122265510035839 -0.025227111493702978 -0.040946203263481799 0.0034784175537794933 0.034898799660243666 0.0016241445419564694 0.015518003785707434 -0.0071054664245143511 -0.0024190296551261639 0.023996054340750403 0.0024172122507684361 0.0031648000644746654 0.00055708748953182464 -0.00050281015666307533 0.016863104005203571
leaf_weight=1137 300 331 1233 303 18689 627 2020 12822 441 590 9166 122816 207729 571
leaf_count=1137 300 331 1233 303 18689 627 2020 12822 441 590 9166 122816 207729 571
internal_value=-3.97659e-06 -0.0130894 4.76265e-05 0.0100455 6.22682e-06 0.00260043 -0.000142422 -0.00297807 0.00217441 0.0119283 -3.35506e-05 -0.000121736 -7.87043e-05 0.000635268
internal_weight=378775 1468 377307 1536 375771 20347 355424 13122 19720 1031 342302 333136 331116 123387
internal_count=378775 1468 377307 1536 375771 20347 355424 13122 19720 1031 342302 333136 331116 123387
is_linear=0
shrinkage=0.01


Tree=23
num_leaves=15
num_cat=0
split_feature=470 286 202 276 654 574 31 101 590 58 633 756 616 140
split_gain=2398.6 3452.7 1519.1 2852.12 2136.49 1247.72 1078.17 921.711 1344.03 917.135 897.736 892.756 792.728 906.95
threshold=-2.8530418872833248 1.1323021054267886 2.1532630920410161 1.2456473708152773 -2.1250028610229488 -1.0370401144027708 -0.087354738265275941 1.9359634518623354 0.51767617464065563 -1.0245604515075681 3.3654134273529057 2.0154063701629643 1.4247820377349856 0.80987328290939342
decision_type=2 2 2 2 2 2 2 2 2 2 2 2 2 2
left_child=1 9 6 4 -4 -5 7 -2 -9 -1 12 -8 13 -6
right_child=2 -3 3 5 10 -7 11 8 -10 -11 -12 -13 -14 -15
leaf_value=0.010167296559270471 -0.00060022007443261128 -0.04046812757449008 0.027051749623460745 0.034718642135507162 -0.0014480695349551223 0.0084287841974118576 0.00029659095277744635 -0.001482520168354119 -0.018130414878279426 -0.009599071011738361 -0.0099305627666234682 0.0042180012080030374 0.016009191765154984 0.0059436114611234525
leaf_weight=305 150162 324 317 385 4101 356 209865 1426 718 837 630 5951 381 2762
leaf_count=305 150162 324 317 385 4101 356 209865 1426 718 837 630 5951 381 2762
internal_value=-5.13677e-07 -0.0126804 4.94561e-05 0.00411966 0.002393 0.0226416 -4.95204e-05 -0.000693685 -0.00717374 -0.00423583 0.00133424 0.000405102 0.00233856 0.00153532
internal_weight=378520 1466 377054 8932 8191 741 368122 152306 2144 1142 7874 215816 7244 6863
internal_count=378520 1466 377054 8932 8191 741 368122 152306 2144 1142 7874 215816 7244 6863
is_linear=0
shrinkage=0.01


Tree=24
num_leaves=15
num_cat=0
split_feature=470 286 202 276 654 574 291 586 140 763 333 757 762 773
split_gain=2383.41 3565.49 1505.22 2765.4 2077.51 1245.81 1089.18 1133.34 1116.82 1100.76 2117.14 1029.81 1250.92 1109.57
threshold=-2.8530418872833248 1.1323021054267886 2.1532630920410161 1.2456473708152773 -2.1250028610229488 -1.0370401144027708 0.52593290805816661 -2.8336436748504634 1.6962111592292788 -0.52083906531333912 2.6312332153320317 -0.71382361650466908 -0.78951746225357045 -0.28774301707744593
decision_type=2 2 2 2 2 2 2 2 2 2 2 2 2 2
left_child=1 -1 6 4 -4 -5 9 -8 -9 10 -2 12 13 -11
right_child=2 -3 3 5 -6 -7 7 8 -10 11 -12 -13 -14 -15
leaf_value=-0.0040797716112366293 -0.0014389733802186156 -0.041112351691240771 0.026610708151889199 0.034380136743859445 0.0013572729081123441 0.0081124021425061331 0.018361437504813075 0.0010370884893447501 -0.013063511434162851 -0.019724133997610575 -0.025942035273478273 0.00018854138782141219 -0.0012035285466355686 -0.0046900585344291064
leaf_weight=1128 54582 320 320 386 7865 354 355 75550 546 646 335 214040 20199 1944
leaf_count=1128 54582 320 320 386 7865 354 355 75550 546 646 335 214040 20199 1944
internal_value=4.86525e-06 -0.0127124 5.4366e-05 0.00410756 0.00240704 0.0223584 -4.41001e-05 0.00101822 0.000932509 -0.000322528 -0.00159783 -2.66943e-05 -0.00204663 -0.00856228
internal_weight=378570 1448 377122 8925 8185 740 368197 76451 76096 291746 54917 236829 22789 2590
internal_count=378570 1448 377122 8925 8185 740 368197 76451 76096 291746 54917 236829 22789 2590
is_linear=0
shrinkage=0.01


Tree=25
num_leaves=15
num_cat=0
split_feature=470 288 295 784 756 596 276 551 461 378 762 288 348 761
split_gain=2282.89 3224.05 1536.87 2617.62 1480.52 1201.85 1106.63 1640.5 1009.85 1266.67 981.122 1218.43 1048.69 1836.51
threshold=-2.8530418872833248 1.0016285181045534 2.9290078878402714 -0.040636682882904999 1.7217347621917727 4.3057153224945077 -0.670886069536209 -0.50484108924865712 1.3551911115646365 0.72095173597335827 1.6114176511764529 1.1084291934967043 0.13769162446260455 0.65102759003639232
decision_type=2 2 2 2 2 2 2 2 2 2 2 2 2 2
left_child=1 -1 4 -4 6 8 7 -2 -6 -10 12 -12 13 -8
right_child=2 -3 3 -5 5 -7 10 -9 9 -11 11 -13 -14 -15
leaf_value=-0.0036238538574202383 -0.025245498172356745 -0.037363796894761978 0.0027612748576264744 0.033499840582020525 0.0016537399077585235 0.015924387801949456 -7.2891519408431579e-05 -0.0023369673413229952 0.026038944037965476 0.0031541702232150172 0.0021487500838746026 0.017928051262128132 -0.0011984282099134649 0.0030342471199684964
leaf_weight=1107 300 363 1188 343 18744 639 237886 14089 370 654 10915 493 70729 20656
leaf_count=1107 300 363 1188 343 18744 639 237886 14089 370 654 10915 493 70729 20656
internal_value=8.34275e-06 -0.0123452 5.71635e-05 0.00999101 1.61282e-05 0.00263407 -0.000134474 -0.00284897 0.00218879 0.0117635 -1.9663e-05 0.00286084 -0.000119629 0.000175566
internal_weight=378476 1470 377006 1531 375475 20407 355068 14389 19768 1024 340679 11408 329271 258542
internal_count=378476 1470 377006 1531 375475 20407 355068 14389 19768 1024 340679 11408 329271 258542
is_linear=0
shrinkage=0.01


Tree=26
num_leaves=15
num_cat=0
split_feature=470 286 26 756 762 288 470 596 299 35 734 773 679 461
split_gain=2327.89 3326.8 1457.52 1370.66 1222.07 2531.96 1695.58 1066.5 1025.05 1529.6 1711.68 1099.4 1724.78 999.812
threshold=-2.8530418872833248 1.1323021054267886 1.6067992448806765 1.7217347621917727 1.6114176511764529 1.1315192580223086 2.3844604492187504 4.3057153224945077 -0.557979255914688 -0.69264525175094593 -0.84486082196235646 -0.59929096698760975 -0.023394105024635788 1.3551911115646365
decision_type=2 2 2 2 2 2 2 2 2 2 2 2 2 2
left_child=1 -1 3 4 6 -6 8 13 9 10 -2 12 -11 -5
right_child=2 -3 -4 7 5 -7 -8 -9 -10 11 -12 -13 -14 -15
leaf_value=-0.0041732767918311424 -0.030808540546274511 -0.039791155807500658 0.0040730388534628422 0.0015397127016992119 0.0019253001638825928 0.023195951225499223 -0.023029349949182487 0.015222050860687671 -0.00016434909150102618 -0.029683505356492966 -0.0066208439672114008 -0.00025895044107675409 -0.0035833710282129924 0.011753366927249567
leaf_weight=1128 321 324 8760 18381 10668 571 308 618 322400 309 2217 10605 1130 992
leaf_count=1128 321 324 8760 18381 10668 571 308 618 322400 309 2217 10605 1130 992
internal_value=-2.61584e-06 -0.0125537 4.63512e-05 -4.9582e-05 -0.000195701 0.00304525 -0.000303868 0.00249554 -0.000281731 -0.00287321 -0.00989701 -0.00137915 -0.00951799 0.00207429
internal_weight=378732 1452 377280 368520 348529 11239 337290 19991 336982 14582 2538 12044 1439 19373
internal_count=378732 1452 377280 368520 348529 11239 337290 19991 336982 14582 2538 12044 1439 19373
is_linear=0
shrinkage=0.01


Tree=27
num_leaves=15
num_cat=0
split_feature=469 683 295 784 617 615 345 27 134 688 782 100 762 294
split_gain=1949.72 3429.24 1466.72 2345.21 1176.26 2406.4 1938.57 1560.34 1518.66 1257.54 1215.64 2003.97 1178.56 1290.61
threshold=-3.0040849447250362 -1.6979444026947019 2.9290078878402714 -0.040636682882904999 0.0034177683992311363 2.2859213352203374 -0.23434894531965253 -0.72268339991569508 2.2674137353897099 2.8733414411544804 1.7643703222274782 0.025596608407795433 -0.44338381290435785 0.0070332197938114413
decision_type=2 2 2 2 2 2 2 2 2 2 2 2 2 2
left_child=1 -1 4 -4 5 8 -7 12 10 -9 -2 -12 13 -6
right_child=2 -3 3 -5 7 6 -8 9 -10 -11 11 -13 -14 -15
leaf_value=-0.039290646210454867 0.00052284669581377659 -0.0030670087799241773 0.0029241799944717817 0.032076787079924361 -0.018102014899355194 0.022646338010460315 0.0042538541345225975 -0.00011442285004157592 -0.017230907192072965 -0.012411446548686056 0.031708520818047412 -0.0025819439102935308 -0.001560358334256298 -0.0047813046114523593
leaf_weight=321 142219 1136 1192 341 830 825 1820 205106 460 815 308 349 17889 5269
leaf_count=321 142219 1136 1192 341 830 825 1820 205106 460 815 308 349 17889 5269
internal_value=-4.65726e-06 -0.0114716 4.02152e-05 0.00973846 1.46607e-07 0.000702113 0.0101175 -0.00044559 0.000526982 -0.000164293 0.000586558 0.0139552 -0.00285819 -0.00664733
internal_weight=378880 1457 377423 1533 375890 145981 2645 229909 143336 205921 142876 657 23988 6099
internal_count=378880 1457 377423 1533 375890 145981 2645 229909 143336 205921 142876 657 23988 6099
is_linear=0
shrinkage=0.01


Tree=28
num_leaves=15
num_cat=0
split_feature=470 286 295 784 756 276 551 461 378 590 762 288 348 761
split_gain=2195.94 2944.65 1453.43 2508.61 1340.79 1063.19 1418.87 1044.23 1315.54 1097.49 944.025 1208.13 1024.35 1710.91
threshold=-2.8530418872833248 1.1323021054267886 2.9290078878402714 -0.040636682882904999 1.6465494036674502 -0.670886069536209 -0.5045785903930663 1.3551911115646365 0.72095173597335827 4.4839868545532235 1.6114176511764529 1.1084291934967043 0.13769162446260455 0.65102759003639232
decision_type=2 2 2 2 2 2 2 2 2 2 2 2 2 2
left_child=1 -1 4 -4 5 6 -2 9 -9 -6 12 -12 13 -7
right_child=2 -3 3 -5 7 10 -8 8 -10 -11 11 -13 -14 -15
leaf_value=-0.004431598232971891 -0.022122830514698176 -0.038249272351389502 0.0027217627556966285 0.032929968109572896 0.0014889239259716059 -6.8276527738726778e-05 -0.0022951413274803025 0.025913303111784823 0.0031255952992815866 0.014441716198605545 0.0020987389006143962 0.017870792098606852 -0.0011949859696283129 0.0029549954480507616
leaf_weight=1142 351 315 1203 338 20634 237775 13818 397 662 656 10883 489 69876 20298
leaf_count=1142 351 315 1203 338 20634 237775 13818 397 662 656 10883 489 69876 20298
internal_value=7.64681e-06 -0.0121618 5.52731e-05 0.00968459 1.52781e-05 -0.000134961 -0.00281681 0.00238957 0.0119903 0.00190121 -2.28153e-05 0.00280713 -0.000121112 0.000169721
internal_weight=378837 1457 377380 1541 375839 353490 14169 22349 1059 21290 339321 11372 327949 258073
internal_count=378837 1457 377380 1541 375839 353490 14169 22349 1059 21290 339321 11372 327949 258073
is_linear=0
shrinkage=0.01


Tree=29
num_leaves=15
num_cat=0
split_feature=470 286 202 276 654 574 291 140 586 763 333 32 688 756
split_gain=2103.08 2955.69 1462.87 2638.81 2104.42 1335.8 1051.77 1205.66 1127.54 1115.38 2079.66 1054.63 1032.23 995.455
threshold=-2.8530418872833248 1.1323021054267886 2.1532630920410161 1.2456473708152773 -2.1250028610229488 -1.0370401144027708 0.50612738728523265 1.6962111592292788 -2.8336436748504634 -0.78063312172889698 2.4116219282150273 -0.62898716330528248 2.3848030567169194 2.2057491540908818
decision_type=2 2 2 2 2 2 2 2 2 2 2 2 2 2
left_child=1 -1 6 4 -4 -5 9 8 -8 10 12 -11 -2 -13
right_child=2 -3 3 5 -6 -7 7 -9 -10 11 -12 13 -14 -15
leaf_value=-0.0040779903987243913 -0.0015626233217367232 -0.037666853428627668 0.027077802632150334 0.034026423235565928 0.0013348447946243572 0.00722513982431608 0.018516453831004823 -0.01326191407991195 0.00099385241268497011 -0.0018680082382983346 -0.025229974466031615 2.7002748148540491e-05 -0.015255296465263449 0.0043822309516011052
leaf_weight=1146 30591 322 311 393 7900 363 349 571 79812 29875 364 220556 541 5356
leaf_count=1146 30591 322 311 393 7900 363 349 571 79812 29875 364 220556 541 5356
internal_value=1.22726e-05 -0.0118528 5.91026e-05 0.00404527 0.00237331 0.0216754 -3.82384e-05 0.000970081 0.00107474 -0.000321643 -0.00209671 -0.000102926 -0.00181021 0.000130637
internal_weight=378450 1468 376982 8967 8211 756 368015 80732 80161 287283 31496 255787 31132 225912
internal_count=378450 1468 376982 8967 8211 756 368015 80732 80161 287283 31496 255787 31132 225912
is_linear=0
shrinkage=0.01


Tree=30
num_leaves=15
num_cat=0
split_feature=470 286 26 756 762 288 470 596 299 35 734 773 679 348
split_gain=1889.7 2950.54 1426 1326.6 1160.19 2451.84 1635.12 1082.43 1012.75 1501.32 1774.27 1082.76 1696.01 935.717
threshold=-2.8530418872833248 1.1323021054267886 1.6067992448806765 1.7217347621917727 1.6114176511764529 1.1315192580223086 2.3844604492187504 4.3057153224945077 -0.557979255914688 -0.66200289130210865 -0.84486082196235646 -0.59929096698760975 -0.023394105024635788 0.13769162446260455
decision_type=2 2 2 2 2 2 2 2 2 2 2 2 2 2
left_child=1 -1 3 4 6 -6 8 -5 9 10 -2 12 -11 -10
right_child=2 -3 -4 7 5 -7 -8 -9 13 11 -12 -13 -14 -15
leaf_value=-0.0035839873961949387 -0.030685572911128615 -0.037507987433300541 0.0040408469003481752 0.0020204781233095436 0.00187727994437199 0.023083711959154388 -0.022686204046290941 0.015136488133187716 0.00012070217082024706 -0.029684586042405651 -0.0064088102953366137 -0.00021036454342982961 -0.0034974491960396443 -0.0011845918686453508
leaf_weight=1137 329 313 8694 19421 10648 555 306 631 252411 303 2347 10406 1085 70171
leaf_count=1137 329 313 8694 19421 10648 555 306 631 252411 303 2347 10406 1085 70171
internal_value=-1.55862e-06 -0.0113176 4.25267e-05 -5.19907e-05 -0.000195936 0.00296712 -0.000301144 0.00244789 -0.000279476 -0.00286577 -0.00959901 -0.00132437 -0.00955455 -0.000163293
internal_weight=378757 1450 377307 368613 348561 11203 337358 20052 337052 14470 2676 11794 1388 322582
internal_count=378757 1450 377307 368613 348561 11203 337358 20052 337052 14470 2676 11794 1388 322582
is_linear=0
shrinkage=0.01


Tree=31
num_leaves=15
num_cat=0
split_feature=470 286 26 756 762 288 470 185 390 299 35 734 784 135
split_gain=2135.58 3222.83 1412.29 1279.81 1185.38 2546.54 1499.83 1012.86 1669.11 965.708 1452.25 1683.23 975.661 1678.04
threshold=-2.8530418872833248 1.1323021054267886 1.6067992448806765 1.7217347621917727 1.6114176511764529 1.1315192580223086 2.3844604492187504 2.3161268234252934 1.4801752567291262 -0.557979255914688 -0.70920172333717335 -0.74977675080299366 1.6154304146766665 0.30034068226814276
decision_type=2 2 2 2 2 2 2 2 2 2 2 2 2 2
left_child=1 -1 3 4 6 -6 9 -5 -9 10 11 -2 -12 -14
right_child=2 -3 -4 7 5 -7 -8 8 -10 -11 12 -13 13 -15
leaf_value=-0.0038459042255059419 -0.029808437234973714 -0.038916118219876061 0.0040183849384220136 0.0018128911625494668 0.001886085656314488 0.02335794175490993 -0.021640226191984021 0.030355370632876442 0.004226344474142385 -0.00016459485216291641 -0.00030712002872068547 -0.0063059523442197899 -0.0029814444162200087 -0.028436027296127108
leaf_weight=1144 339 322 8708 18709 10628 563 309 311 968 322205 10624 2154 1091 322
leaf_count=1144 339 322 8708 18709 10628 563 309 311 968 322205 10624 2154 1091 322
internal_value=-4.51602e-06 -0.011969 4.26501e-05 -5.1584e-05 -0.000192883 0.00300604 -0.00029927 0.00240788 0.0109494 -0.000278403 -0.00279841 -0.00971364 -0.00135245 -0.00909805
internal_weight=378397 1466 376931 368223 348235 11191 337044 19988 1279 336735 14530 2493 12037 1413
internal_count=378397 1466 376931 368223 348235 11191 337044 19988 1279 336735 14530 2493 12037 1413
is_linear=0
shrinkage=0.01


Tree=32
num_leaves=15
num_cat=0
split_feature=470 286 756 762 268 469 617 178 454 378 89 32 101 596
split_gain=2103.77 3047.9 1308.31 1277.04 2523.49 1402.49 1328.59 1077.53 1417.92 1499.26 1210.27 1045.5 1200.67 1134.55
threshold=-2.8530418872833248 1.1323021054267886 1.6465494036674502 1.6114176511764529 1.0109834074974062 2.7700023651123051 -0.0069023391697555772 -0.49956876039504999 1.4208424687385561 0.72095173597335827 1.1202171444892886 -0.18769741058349607 1.9359634518623354 0.40113741159439092
decision_type=2 2 2 2 2 2 2 2 2 2 2 2 2 2
left_child=1 -1 3 5 -5 11 -6 -4 10 -10 -9 12 -2 -14
right_child=2 -3 7 4 6 -7 -8 8 9 -11 -12 -13 13 -15
leaf_value=-0.0040042513356946989 -0.00084367185880278512 -0.038288482109273471 -0.0026784472759844393 0.0019480965518222362 0.033325440559221924 -0.017231725826242449 0.0060711181497877242 0.0014664880447081306 0.027947321708149828 0.0052424601241822582 0.0086727585605901863 0.00020361300338323074 -0.0036941803708815803 -0.021149340406404146
leaf_weight=1139 109805 318 3499 10767 383 463 341 14747 442 818 2751 231612 1202 527
leaf_count=1139 109805 318 3499 10767 383 463 341 14747 442 818 2751 231612 1202 527
internal_value=7.18485e-06 -0.0119042 5.38038e-05 -9.36667e-05 0.00318269 -0.000203414 0.0209971 0.0024046 0.0033546 0.0135194 0.00260805 -0.000179435 -0.000974768 -0.00919553
internal_weight=378814 1457 377357 355100 11491 343609 724 22257 18758 1260 17498 343146 111534 1729
internal_count=378814 1457 377357 355100 11491 343609 724 22257 18758 1260 17498 343146 111534 1729
is_linear=0
shrinkage=0.01


Tree=33
num_leaves=15
num_cat=0
split_feature=470 286 295 784 756 178 447 140 590 335 288 428 301 776
split_gain=2116.05 3086.36 1387 2194.8 1239.63 1046.55 1413.49 1435.61 1103.83 1048.24 996.569 1149.94 1812.33 1043.7
threshold=-2.8530418872833248 1.1323021054267886 2.9290078878402714 -0.040636682882904999 1.6465494036674502 -0.49956876039504999 1.5224556326866152 0.16921463608741763 4.4839868545532235 0.10085669904947282 -0.18225499242544171 -1.4546387791633604 -0.94222742319107045 0.24202643334865573
decision_type=2 2 2 2 2 2 2 2 2 2 2 2 2 2
left_child=1 -1 4 -4 10 -6 8 -8 9 -7 11 12 -2 -13
right_child=2 -3 3 -5 5 6 7 -9 -10 -11 -12 13 -14 -15
leaf_value=-0.0039460274943393901 -0.024269609969037514 -0.038231977427611807 0.0029122997530871479 0.031298684227421589 -0.0027478470043653673 0.0002990163419633361 0.026273116014235712 0.0049974705843921358 0.015417107302734779 0.0056983274935988263 0.00011212983567518944 -0.0012611411212489305 -0.0038958960563714364 0.0039266338140191356
leaf_weight=1144 473 323 1181 336 3465 11698 492 866 613 5173 288973 55675 3942 4149
leaf_count=1144 473 323 1181 336 3465 11698 492 866 613 5173 288973 55675 3942 4149
internal_value=-2.04456e-06 -0.0119077 4.4908e-05 0.00952505 6.10543e-06 0.00229129 0.00321991 0.012975 0.00244826 0.00195934 -0.000138336 -0.00126472 -0.00617823 -0.000900159
internal_weight=378503 1467 377036 1517 375519 22307 18842 1358 17484 16871 353212 64239 4415 59824
internal_count=378503 1467 377036 1517 375519 22307 18842 1358 17484 16871 353212 64239 4415 59824
is_linear=0
shrinkage=0.01


Tree=34
num_leaves=15
num_cat=0
split_feature=470 683 295 784 633 763 660 611 617 447 429 596 273 762
split_gain=2010.26 2868.73 1340.23 2057.19 1215.18 1116.35 1204.47 1347.81 1851.16 1034.36 1626.26 1039.56 939.745 977.355
threshold=-2.8530418872833248 -1.6979444026947019 2.9290078878402714 -0.040636682882904999 3.7951171398162846 0.010711537208408119 -0.77053984999656666 -0.30897180736064905 -0.37952487170696253 1.5224556326866152 -0.014924189541488884 5.1421241760253915 0.50124001502990734 -2.2446320056915279
decision_type=2 2 2 2 2 2 2 2 2 2 2 2 2 2
left_child=1 -1 4 -4 5 -2 7 8 -7 11 -11 -9 13 -8
right_child=2 -3 3 -5 -6 6 12 9 -10 10 -12 -13 -14 -15
leaf_value=-0.037432461237502816 -0.00055237840206459469 -0.0040571201210003191 0.0031292936123706616 0.031132035038865288 -0.010172780418696886 0.0050966829357748343 0.0098953503300684056 0.00099294008091446099 0.031003354913881426 0.023149154025117764 0.0037317585632180108 0.013227845445778359 0.0020021435741614415 -0.00017132505909143604
leaf_weight=314 173719 1152 1185 319 1150 1118 951 27034 351 533 2011 693 24835 143021
leaf_count=314 173719 1152 1185 319 1150 1118 951 27034 351 533 2011 693 24835 143021
internal_value=-5.18514e-06 -0.0116133 4.05775e-05 0.00939932 2.58563e-06 3.43932e-05 0.000542674 0.00232926 0.0116201 0.00187102 0.00794878 0.00130805 0.000206514 -0.000103465
internal_weight=378386 1466 376920 1504 375416 374266 200547 31740 1469 30271 2544 27727 168807 143972
internal_count=378386 1466 376920 1504 375416 374266 200547 31740 1469 30271 2544 27727 168807 143972
is_linear=0
shrinkage=0.01


Tree=35
num_leaves=15
num_cat=0
split_feature=470 683 26 617 615 776 140 27 171 288 341 688 706 773
split_gain=2010.65 3132.79 1327.57 1276.94 2261.47 1946.84 1576.86 1453.8 1452.71 2362.25 4078.63 1324.17 1274.06 1532.61
threshold=-2.8530418872833248 -1.6979444026947019 1.5049508810043337 0.0034177683992311363 2.2859213352203374 0.23359658569097522 1.9206783771514895 -0.70633408427238453 -0.44967156648635859 0.52332201600074779 -0.074760235846042619 2.8733414411544804 -0.016078457236289975 0.78918865323066723
decision_type=2 2 2 2 2 2 2 2 2 2 2 2 2 2
left_child=1 -1 3 4 6 -6 8 -5 9 -2 -11 -9 -12 -14
right_child=2 -3 -4 7 5 -7 -8 11 -10 10 12 -13 13 -15
leaf_value=-0.038410206797295773 0.0013974757888541519 -0.003609830220127896 0.0035991110843908232 -0.0028042260050407555 0.0035471558111214692 0.022529468373878734 -0.016741620024358694 -0.00018802472832887658 2.4763192221675697e-05 0.037687509794078214 0.0011821214901163342 -0.013127795268311352 0.007087147522774122 0.030421968891056188
leaf_weight=318 28372 1124 10206 24827 1515 828 507 199186 106701 436 2259 774 1144 362
leaf_count=318 28372 1124 10206 24827 1515 828 507 199186 106701 436 2259 774 1144 362
internal_value=-1.75384e-07 -0.0117047 4.51982e-05 -5.38483e-05 0.000688014 0.0103893 0.000523939 -0.000522918 0.000589186 0.00243694 0.00941725 -0.00023942 0.00596161 0.0130214
internal_weight=378559 1442 377117 366911 142124 2343 139781 224787 139274 32573 4201 199960 3765 1506
internal_count=378559 1442 377117 366911 142124 2343 139781 224787 139274 32573 4201 199960 3765 1506
is_linear=0
shrinkage=0.01


Tree=36
num_leaves=15
num_cat=0
split_feature=470 288 295 784 633 756 461 378 173 299 35 734 773 679
split_gain=1696.14 2764.94 1318.62 2183.57 1219.02 1352.31 1011.9 1214.42 1054.74 991.153 1385.71 1575.77 1176.5 1784.04
threshold=-2.8530418872833248 1.0016285181045534 2.9290078878402714 -0.040636682882904999 3.7951171398162846 1.6230199337005617 1.3551911115646365 0.72095173597335827 2.523863792419434 -0.557979255914688 -0.66200289130210865 -0.74977675080299366 -0.59929096698760975 -0.023394105024635788
decision_type=2 2 2 2 2 2 2 2 2 2 2 2 2 2
left_child=1 -1 4 -4 5 9 8 -8 -7 10 11 -2 13 -12
right_child=2 -3 3 -5 -6 6 7 -9 -10 -11 12 -13 -14 -15
leaf_value=-0.0025719344748830679 -0.028828593053381538 -0.034078416625872771 0.0026849645560566371 0.030797871660513395 -0.010292378213511307 0.0013312913331495675 0.025410856256776859 0.0032501120161950669 0.0098812971984283907 4.7966890760157336e-06 -0.029536137116609972 -0.0061082436211717696 -8.6842072267992988e-05 -0.0033559640455298285
leaf_weight=1081 338 357 1197 341 1124 19850 392 636 1537 337533 326 2216 10638 1077
leaf_count=1081 338 357 1197 341 1124 19850 392 636 1537 337533 326 2216 10638 1077
internal_value=1.10523e-05 -0.010754 5.26591e-05 0.0092334 1.45832e-05 4.60622e-05 0.00242653 0.0120242 0.0019544 -0.000105598 -0.00265516 -0.00931572 -0.0012293 -0.0097688
internal_weight=378643 1438 377205 1538 375667 374543 22415 1028 21387 352128 14595 2554 12041 1403
internal_count=378643 1438 377205 1538 375667 374543 22415 1028 21387 352128 14595 2554 12041 1403
is_linear=0
shrinkage=0.01


Tree=37
num_leaves=15
num_cat=0
split_feature=470 37 130 202 276 739 574 348 468 755 429 618 761 95
split_gain=1842.55 2688.85 1827.5 1300.15 2353.9 1676.21 1216.17 1050.79 2191.77 1110.76 1274.19 1077.21 1605.71 1166
threshold=-2.8530418872833248 0.46034687757492071 -0.49182413518428797 2.1532630920410161 1.2456473708152773 -2.8794105052947994 -1.0370401144027708 0.40265661478042608 1.1363822221755984 1.3001022934913637 -0.014924189541488884 0.10814275592565538 0.65102759003639232 2.2435413599014287
decision_type=2 2 2 2 2 2 2 2 2 2 2 2 2 2
left_child=1 -1 -3 7 5 -5 -6 8 11 -10 -11 13 -13 -2
right_child=3 2 -4 4 6 -7 -8 -9 9 10 -12 12 -14 -15
leaf_value=0.0016916674070184632 -0.0002403217838048126 -0.042439358567093077 -0.0096016845997903763 0.024289989809806706 0.032658237364976909 0.001317099650676007 0.006817806987190451 -0.0013693964693357677 0.0030544692511389787 0.0220314591731589 0.005758618304846759 0.00055378545320126113 0.0051594491500787463 -0.011519859383855795
leaf_weight=778 239445 311 379 311 381 7950 358 51846 6026 726 1416 59145 8662 900
leaf_count=778 239445 311 379 311 381 7950 358 51846 6026 726 1416 59145 8662 900
internal_value=-2.00452e-06 -0.0111079 -0.025181 4.18084e-05 0.00379272 0.00223853 0.0206496 -5.00856e-05 0.000166227 0.00527261 0.0114268 3.05418e-05 0.00114348 -0.000283514
internal_weight=378634 1468 690 377166 9000 8261 739 368166 316320 8168 2142 308152 67807 240345
internal_count=378634 1468 690 377166 9000 8261 739 368166 316320 8168 2142 308152 67807 240345
is_linear=0
shrinkage=0.01


Tree=38
num_leaves=15
num_cat=0
split_feature=470 683 26 617 761 288 612 383 372 27 688 100 762 294
split_gain=2039.95 3033.84 1251.65 1228.2 1853.46 1554.8 1428.08 1722.98 1426.18 1396.83 1162.61 1129.83 1094.58 1003.26
threshold=-2.8530418872833248 -1.6979444026947019 1.6067992448806765 0.0034177683992311363 0.34662723541259771 1.2898626327514651 1.5804503560066225 0.378167673945427 -0.021947270259261128 -0.70633408427238453 2.8733414411544804 -0.581945240497589 1.5512773990631106 -0.88753911852836598
decision_type=2 2 2 2 2 2 2 2 2 2 2 2 2 2
left_child=1 -1 3 4 12 6 -6 -8 -7 11 13 -5 -2 -11
right_child=2 -3 -4 9 5 8 7 -9 -10 10 -12 -13 -14 -15
leaf_value=-0.0379883079949195 -0.00023434536520310445 -0.0038603053210894984 0.0037798282022868807 0.00054444232875066549 0.0016769728163884042 0.0034969389232893818 0.0033222045331677288 0.018659265329946981 0.031594849303684065 -0.0054323152185566928 -0.01219086920128783 -0.0041229706970831413 0.0045952271714931924 -8.3153610040491492e-05
leaf_weight=319 99920 1149 8742 7365 34306 385 2150 1100 330 3550 789 17478 4904 196352
leaf_count=319 99920 1149 8742 7365 34306 385 2150 1100 330 3550 789 17478 4904 196352
internal_value=-1.65635e-06 -0.0116873 4.44187e-05 -4.43664e-05 0.000680238 0.00256316 0.00227995 0.00859558 0.0169721 -0.000504127 -0.000227117 -0.00273994 -7.56912e-06 -0.000178682
internal_weight=378839 1468 377371 368629 143095 38271 37556 3250 715 225534 200691 24843 104824 199902
internal_count=378839 1468 377371 368629 143095 38271 37556 3250 715 225534 200691 24843 104824 199902
is_linear=0
