tree
version=v4
num_class=1
num_tree_per_iteration=1
label_index=0
max_feature_idx=791
objective=regression
feature_names=bid_qty ask_qty buy_qty sell_qty volume X1 X2 X3 X4 X5 X6 X7 X8 X9 X10 X11 X12 X13 X14 X15 X16 X17 X18 X19 X20 X21 X22 X23 X24 X25 X26 X27 X28 X29 X30 X31 X32 X33 X34 X35 X36 X37 X38 X39 X40 X41 X42 X43 X44 X45 X46 X47 X48 X49 X50 X51 X52 X53 X54 X55 X56 X57 X58 X59 X60 X61 X62 X63 X64 X65 X66 X67 X68 X69 X70 X71 X72 X73 X74 X75 X76 X77 X78 X79 X80 X81 X82 X83 X84 X85 X86 X87 X88 X89 X90 X91 X92 X93 X94 X95 X96 X97 X98 X99 X100 X101 X102 X103 X104 X105 X106 X107 X108 X109 X110 X111 X112 X113 X114 X115 X116 X117 X118 X119 X120 X121 X122 X123 X124 X125 X126 X127 X128 X129 X130 X131 X132 X133 X134 X135 X136 X137 X138 X139 X140 X141 X142 X143 X144 X145 X146 X147 X148 X149 X150 X151 X152 X153 X154 X155 X156 X157 X158 X159 X160 X161 X162 X163 X164 X165 X166 X167 X168 X169 X170 X171 X172 X173 X174 X175 X176 X177 X178 X179 X180 X181 X182 X183 X184 X185 X186 X187 X188 X189 X190 X191 X192 X193 X194 X195 X196 X197 X198 X199 X200 X201 X202 X203 X204 X205 X206 X207 X208 X209 X210 X211 X212 X213 X214 X215 X216 X217 X218 X219 X220 X221 X222 X223 X224 X225 X226 X227 X228 X229 X230 X231 X232 X233 X234 X235 X236 X237 X238 X239 X240 X241 X242 X243 X244 X245 X246 X247 X248 X249 X250 X251 X252 X253 X254 X255 X256 X257 X258 X259 X260 X261 X262 X263 X264 X265 X266 X267 X268 X269 X270 X271 X272 X273 X274 X275 X276 X277 X278 X279 X280 X281 X282 X283 X284 X285 X286 X287 X288 X289 X290 X291 X292 X293 X294 X295 X296 X297 X298 X299 X300 X301 X302 X303 X304 X305 X306 X307 X308 X309 X310 X311 X312 X313 X314 X315 X316 X317 X318 X319 X320 X321 X322 X323 X324 X325 X326 X327 X328 X329 X330 X331 X332 X333 X334 X335 X336 X337 X338 X339 X340 X341 X342 X343 X344 X345 X346 X347 X348 X349 X350 X351 X352 X353 X354 X355 X356 X357 X358 X359 X360 X361 X362 X363 X364 X365 X366 X367 X368 X369 X370 X371 X372 X373 X374 X375 X376 X377 X378 X379 X380 X381 X382 X383 X384 X385 X386 X387 X388 X389 X390 X391 X392 X393 X394 X395 X396 X397 X398 X399 X400 X401 X402 X403 X404 X405 X406 X407 X408 X409 X410 X411 X412 X413 X414 X415 X416 X417 X418 X419 X420 X421 X422 X423 X424 X425 X426 X427 X428 X429 X430 X431 X432 X433 X434 X435 X436 X437 X438 X439 X440 X441 X442 X443 X444 X445 X446 X447 X448 X449 X450 X451 X452 X453 X454 X455 X456 X457 X458 X459 X460 X461 X462 X463 X464 X465 X466 X467 X468 X469 X470 X471 X472 X473 X474 X475 X476 X477 X478 X479 X480 X481 X482 X483 X484 X485 X486 X487 X488 X489 X490 X491 X492 X493 X494 X495 X496 X497 X498 X499 X500 X501 X502 X503 X504 X505 X506 X507 X508 X509 X510 X511 X512 X513 X514 X515 X516 X517 X518 X519 X520 X521 X522 X523 X524 X525 X526 X527 X528 X529 X530 X531 X532 X533 X534 X535 X536 X537 X538 X539 X540 X541 X542 X543 X544 X545 X546 X547 X548 X549 X550 X551 X552 X553 X554 X555 X556 X557 X558 X559 X560 X561 X562 X563 X564 X565 X566 X567 X568 X569 X570 X571 X572 X573 X574 X575 X576 X577 X578 X579 X580 X581 X582 X583 X584 X585 X586 X587 X588 X589 X590 X591 X592 X593 X594 X595 X596 X597 X598 X599 X600 X601 X602 X603 X604 X605 X606 X607 X608 X609 X610 X611 X612 X613 X614 X615 X616 X617 X618 X619 X620 X621 X622 X623 X624 X625 X626 X627 X628 X629 X630 X631 X632 X633 X634 X635 X636 X637 X638 X639 X640 X641 X642 X643 X644 X645 X646 X647 X648 X649 X650 X651 X652 X653 X654 X655 X656 X657 X658 X659 X660 X661 X662 X663 X664 X665 X666 X667 X668 X669 X670 X671 X672 X673 X674 X675 X676 X677 X678 X679 X680 X681 X682 X683 X684 X685 X686 X687 X688 X689 X690 X691 X692 X693 X694 X695 X696 X697 X698 X699 X700 X701 X702 X703 X704 X705 X706 X707 X708 X709 X710 X711 X712 X713 X714 X715 X716 X717 X718 X719 X720 X721 X722 X723 X724 X725 X726 X727 X728 X729 X730 X731 X732 X733 X734 X735 X736 X737 X738 X739 X740 X741 X742 X743 X744 X745 X746 X747 X748 X749 X750 X751 X752 X753 X754 X755 X756 X757 X758 X759 X760 X761 X762 X763 X764 X765 X766 X767 X768 X769 X770 X771 X772 X773 X774 X775 X776 X777 X778 X779 X780 book_total_qty trade_total_qty book_imbalance trade_imbalance volume_per_book_qty volume_per_trade_qty log_volume
feature_infos=[0.0010000000474974513:1114.9320068359375] [0.0010000000474974513:993.5250244140625] [0:17609.56640625] [0:15574.6328125] [0:28685.345703125] [-4.1476030349731445:4.8481864929199219] [-7.1781964302062988:9.3954334259033203] [-6.1251621246337891:7.849541187286377] [-5.5623359680175781:6.9416995048522949] [-4.9888176918029785:6.3585009574890137] [-4.670924186706543:5.7221264839172363] [-4.4739551544189453:5.3811674118041992] [-4.3262233734130859:5.155555248260498] [-3.9435617923736572:3.7155840396881104] [-8.3920469284057617:10.454862594604492] [-7.4622445106506348:8.0521392822265625] [-6.1422171592712402:6.7388339042663574] [-5.2601137161254883:5.8790440559387207] [-4.3647680282592773:5.0007052421569824] [-3.9749956130981445:4.6096177101135254] [-3.9317803382873535:4.3346757888793945] [-3.2949872016906738:3.1921656131744385] [-16.12006950378418:19.585250854492188] [-12.647032737731934:15.203801155090332] [-10.244500160217285:11.383847236633301] [-8.0956201553344727:8.1538028717041016] [-6.6754550933837891:6.0834879875183105] [-5.6610803604125977:5.2558059692382812] [-4.7346701622009277:4.4497041702270508] [-3.2452547550201416:2.6584835052490234] [-17.730539321899414:25.617166519165039] [-14.425519943237305:18.717031478881836] [-12.767160415649414:14.681242942810059] [-11.852538108825684:11.364195823669434] [-9.5118570327758789:7.7447733879089355] [-7.446558952331543:6.3820610046386719] [-5.568730354309082:5.1937055587768555] [-4.7212333679199219:4.9544687271118164] [-4.0716590881347656:5.3459153175354004] [-4.6045894622802734:4.6567282676696777] [-3.825023889541626:5.1553092002868652] [-4.3247690200805664:4.3876814842224121] [-3.5750946998596191:4.7516422271728516] [-3.276561975479126:3.8179416656494141] [-2.4441385269165039:3.6012499332427979] [-3.2309474945068359:3.7739489078521729] [-2.4781022071838379:3.5821819305419922] [-3.300748348236084:3.7031855583190918] [-2.5834095478057861:3.4718184471130371] [-2.5974593162536621:3.1402449607849121] [-2.0650200843811035:2.7354667186737061] [-2.6782553195953369:3.1088411808013916] [-2.1290020942687988:2.7659642696380615] [-2.7385833263397217:3.1016900539398193] [-2.2733850479125977:2.8372688293457031] [-2.1939542293548584:2.5220863819122314] [-1.9550538063049316:2.3998117446899414] [-2.2462315559387207:2.5417938232421875] [-2.0012795925140381:2.4144268035888672] [-2.2981061935424805:2.5336205959320068] [-2.0405371189117432:2.3969955444335938] [-14.053279876708984:10.998215675354004] [-21.603143692016602:23.922109603881836] [-14.850983619689941:19.488603591918945] [-7.5574483871459961:10.079464912414551] [-16.190835952758789:13.075648307800293] [-20.898920059204102:23.946083068847656] [-12.258450508117676:9.8235874176025391] [-16.356657028198242:16.125207901000977] [-11.228370666503906:14.359105110168457] [-6.3568778038024902:6.488494873046875] [-14.157965660095215:11.123653411865234] [-21.158296585083008:25.153581619262695] [-10.76771354675293:8.8840475082397461] [-13.494958877563477:11.797913551330566] [-8.904383659362793:10.402630805969238] [-5.1340541839599609:5.6566085815429688] [-11.840236663818359:10.245189666748047] [-20.312482833862305:24.062467575073242] [-9.1942768096923828:8.4314584732055664] [-10.159236907958984:8.5676918029785156] [-7.7974328994750977:8.6435174942016602] [-4.6160826683044434:4.6236934661865234] [-8.5873355865478516:9.2234764099121094] [-19.563980102539062:22.964973449707031] [-6.9573574066162109:6.5841097831726074] [-6.8853554725646973:6.1048092842102051] [-7.0467772483825684:6.4072265625] [-3.5113136768341064:3.6068713665008545] [-4.9752063751220703:7.1697998046875] [-16.285184860229492:16.107906341552734] [-5.9532160758972168:5.6109790802001953] [-5.1855692863464355:4.5246443748474121] [-6.8123178482055664:5.1589326858520508] [-2.9867725372314453:2.9623527526855469] [-4.3380908966064453:5.7167448997497559] [-13.769414901733398:11.179538726806641] [-5.214472770690918:5.1662430763244629] [-3.7565658092498779:2.9626834392547607] [-6.0360007286071777:4.0785074234008789] [-2.7007508277893066:2.2490553855895996] [-3.6219503879547119:4.4072442054748535] [-11.851308822631836:7.3353276252746582] [-18.379871368408203:11.671669006347656] [-18.468622207641602:20.086147308349609] [-19.797887802124023:18.368524551391602] [-12.26439380645752:15.629746437072754] [-12.035408020019531:11.78023624420166] [-20.898920059204102:23.946083068847656] [-15.541193962097168:11.243832588195801] [-13.455684661865234:13.64961051940918] [-12.954516410827637:12.56226921081543] [-8.718876838684082:12.262187957763672] [-9.056035041809082:9.6238651275634766] [-21.158296585083008:25.153581619262695] [-13.16316032409668:10.726879119873047] [-11.357192039489746:10.281281471252441] [-10.05196475982666:10.954960823059082] [-7.5962858200073242:11.281039237976074] [-7.3830122947692871:7.9757785797119141] [-20.312482833862305:24.062467575073242] [-11.00300121307373:10.046576499938965] [-9.1513519287109375:7.5977339744567871] [-9.2476902008056641:9.3416213989257812] [-6.1796555519104004:9.9385166168212891] [-5.9867515563964844:7.2966365814208984] [-19.563980102539062:22.964973449707031] [-8.3478908538818359:8.1885738372802734] [-5.9551868438720703:5.5390996932983398] [-8.0798673629760742:6.2069048881530762] [-3.535862922668457:6.0754313468933105] [-4.5109219551086426:5.9220185279846191] [-16.285184860229492:16.107906341552734] [-7.3497991561889648:7.007047176361084] [-4.3010635375976562:4.0511455535888672] [-7.1072297096252441:5.2556881904602051] [-2.7539803981781006:4.4686732292175293] [-3.8447890281677246:4.7081918716430664] [-13.769414901733398:11.179538726806641] [-5.979039192199707:5.9120159149169922] [-3.1520836353302002:2.9339127540588379] [-5.9239368438720703:4.2847065925598145] [-1.9391835927963257:3.4999547004699707] [-3.0578973293304443:3.6858570575714111] [-11.851308822631836:7.3353276252746582] [-19.080839157104492:11.641079902648926] [-20.262575149536133:18.487159729003906] [-13.089706420898438:16.579021453857422] [-8.2855758666992188:16.543022155761719] [-12.063684463500977:11.479323387145996] [-20.898920059204102:23.946083068847656] [-16.057224273681641:11.974509239196777] [-13.979974746704102:12.660313606262207] [-9.5656070709228516:9.0177936553955078] [-5.5961847305297852:13.744663238525391] [-9.1758184432983398:9.9116487503051758] [-21.158296585083008:25.153581619262695] [-13.530035018920898:11.140802383422852] [-11.646059989929199:9.6440439224243164] [-8.4488382339477539:7.4058847427368164] [-4.5260028839111328:10.498259544372559] [-8.008671760559082:8.4957742691040039] [-20.312482833862305:24.062467575073242] [-11.245687484741211:8.8110971450805664] [-9.5876951217651367:7.2737894058227539] [-7.6021604537963867:6.8874869346618652] [-3.6293237209320068:7.5296621322631836] [-7.3428826332092285:6.9045577049255371] [-19.563980102539062:22.964973449707031] [-8.5779895782470703:6.9973573684692383] [-6.583381175994873:4.8965706825256348] [-5.7419261932373047:5.7030501365661621] [-2.3037316799163818:4.6114010810852051] [-6.2305951118469238:5.7581615447998047] [-16.285184860229492:16.107906341552734] [-7.4991469383239746:6.0185685157775879] [-4.9199404716491699:3.8183889389038086] [-4.9640293121337891:4.9570064544677734] [-1.814653754234314:3.2769849300384521] [-5.3399262428283691:5.2545647621154785] [-13.769414901733398:11.179538726806641] [-6.2214703559875488:5.0287508964538574] [-3.8179640769958496:3.3201470375061035] [-4.4386615753173828:4.1030211448669434] [-1.5036005973815918:2.2309114933013916] [-4.4523024559020996:4.8861050605773926] [-11.851308822631836:7.3353276252746582] [-2.9519007205963135:4.3406858444213867] [-1.9847880601882935:2.45989990234375] [-1.8231134414672852:1.9192100763320923] [-3.2589807510375977:4.2975616455078125] [-2.0868403911590576:2.3209257125854492] [-1.8161579370498657:1.8825520277023315] [-3.075202465057373:3.8830897808074951] [-2.093519926071167:1.9699734449386597] [-1.8113502264022827:1.8712462186813354] [-11.394076347351074:9.2165794372558594] [-8.6094093322753906:8.0243539810180664] [-7.6347332000732422:6.8765397071838379] [-6.9086794853210449:5.5407271385192871] [-5.9598383903503418:5.6381740570068359] [-5.2085528373718262:5.3682990074157715] [-5.3698124885559082:4.9658384323120117] [-5.102656364440918:4.9572319984436035] [-5.5196628570556641:5.0828237533569336] [-5.1988892555236816:4.3783745765686035] [-4.4513487815856934:4.562199592590332] [-4.7082915306091309:4.9726338386535645] [-5.5453672409057617:4.8194456100463867] [-6.3076629638671875:4.5260710716247559] [-5.4481449127197266:6.3738932609558105] [-6.7979226112365723:6.6153669357299805] [-7.2290701866149902:7.3547940254211426] [-6.4184184074401855:7.0886144638061523] [-6.0947713851928711:12.58128833770752] [-9.4062891006469727:12.405817985534668] [-12.597931861877441:9.0249652862548828] [-47.438339233398438:34.128074645996094] [-30.903102874755859:24.074010848999023] [-23.461835861206055:18.002426147460938] [-17.926841735839844:12.864214897155762] [-12.39363956451416:7.474006175994873] [-10.08320140838623:6.1768660545349121] [-8.4747314453125:5.2325310707092285] [-7.4615988731384277:8.3151273727416992] [-8.7496957778930664:9.5215435028076172] [-9.0804672241210938:9.0907526016235352] [-9.4420843124389648:8.1771745681762695] [-8.7166833877563477:6.3982934951782227] [-8.6827268600463867:6.411372184753418] [-8.1633138656616211:5.9496049880981445] [-17.301668167114258:6.25140380859375] [-10.926713943481445:35.26385498046875] [-11.703857421875:88.058135986328125] [-10.457440376281738:148.99624633789062] [-7.8054981231689453:178.92689514160156] [-8.8337869644165039:136.00167846679688] [-14.517332077026367:82.857177734375] [-111.36465454101562:101.62075042724609] [-109.95264434814453:133.85342407226562] [-95.867462158203125:128.31698608398438] [-78.326126098632812:108.97209167480469] [-58.875770568847656:71.251327514648438] [-47.138740539550781:51.871875762939453] [-36.161052703857422:37.495182037353516] [-105.08339691162109:92.387901306152344] [-107.27498626708984:128.26066589355469] [-93.969390869140625:125.02428436279297] [-76.866897583007812:106.85758972167969] [-57.713203430175781:70.296394348144531] [-46.388645172119141:51.305137634277344] [-35.913829803466797:37.33526611328125] [-5.294464111328125:5.5428800582885742] [-11.467439651489258:10.973121643066406] [-8.174565315246582:9.6444787979125977] [-7.9480719566345215:8.4581384658813477] [-7.89654541015625:7.0319151878356934] [-7.0623335838317871:6.2577052116394043] [-6.3169674873352051:6.001187801361084] [-5.8020305633544922:5.7648072242736816] [-3.6229898929595947:3.8384385108947754] [-10.874320983886719:13.446560859680176] [-9.4174299240112305:10.205066680908203] [-7.9556069374084473:8.1448554992675781] [-6.6571965217590332:6.1859622001647949] [-5.2483453750610352:4.8587684631347656] [-4.6476297378540039:4.4935698509216309] [-4.0742201805114746:4.1972370147705078] [-2.6790046691894531:3.2672538757324219] [-25.500810623168945:17.931703567504883] [-17.985891342163086:13.882136344909668] [-13.839963912963867:12.716813087463379] [-10.416946411132812:10.881635665893555] [-7.7273831367492676:7.3500847816467285] [-6.6515779495239258:5.994328498840332] [-5.4695954322814941:5.2220182418823242] [-2.463374137878418:3.27774977684021] [-37.665081024169922:28.599727630615234] [-25.954557418823242:23.62321662902832] [-19.682132720947266:22.287616729736328] [-14.428289413452148:19.184541702270508] [-8.5000400543212891:12.46351432800293] [-7.1344709396362305:8.3175287246704102] [-6.0047578811645508:6.7495908737182617] [-3.7975919246673584:5.1709103584289551] [-6.1576900482177734:4.5707364082336426] [-3.805311918258667:4.6520342826843262] [-5.9181003570556641:4.6750612258911133] [-4.0655484199523926:4.7372231483459473] [-5.3006649017333984:4.7349343299865723] [-4.0387167930603027:4.7598743438720703] [-3.2118062973022461:4.6178240776062012] [-4.0700554847717285:4.7467660903930664] [-2.8792283535003662:4.7160987854003906] [-4.0576515197753906:4.6599578857421875] [-2.4866397380828857:5.0124545097351074] [-3.5139262676239014:4.089444637298584] [-2.2737109661102295:5.5394220352172852] [-3.4645650386810303:4.0432367324829102] [-2.2690784931182861:5.6874399185180664] [-3.3421661853790283:3.9374139308929443] [-2.2379906177520752:5.990562915802002] [-2.3467142581939697:4.2796568870544434] [-2.1217639446258545:6.0355300903320312] [-2.2609672546386719:4.342287540435791] [-2.1478254795074463:6.1007552146911621] [-2.1041831970214844:4.4332146644592285] [-2.1879093647003174:6.1887006759643555] [-15.400942802429199:17.888481140136719] [-16.682504653930664:22.149517059326172] [-29.076147079467773:35.681339263916016] [-11.839299201965332:12.85521411895752] [-18.224948883056641:15.291360855102539] [-26.512935638427734:27.746694564819336] [-15.288358688354492:15.210226058959961] [-13.988760948181152:18.967039108276367] [-20.056638717651367:28.035480499267578] [-9.3973188400268555:9.2222747802734375] [-14.511786460876465:12.605683326721191] [-26.126394271850586:27.06640625] [-13.137611389160156:14.592789649963379] [-12.15504264831543:14.69267463684082] [-14.604024887084961:21.669748306274414] [-7.862947940826416:6.3761019706726074] [-11.901836395263672:10.039460182189941] [-24.01774787902832:25.444988250732422] [-12.27072811126709:14.158463478088379] [-12.380786895751953:10.437254905700684] [-11.187959671020508:16.018892288208008] [-6.3491373062133789:5.3738975524902344] [-9.1455821990966797:7.5364861488342285] [-22.96624755859375:23.430368423461914] [-8.7875699996948242:11.859172821044922] [-10.473654747009277:7.0127410888671875] [-8.5038118362426758:8.635554313659668] [-5.2149777412414551:3.9265637397766113] [-5.9546298980712891:6.2169294357299805] [-19.087535858154297:15.940779685974121] [-6.9005928039550781:10.162280082702637] [-8.5454893112182617:5.8931550979614258] [-7.0125536918640137:5.1920127868652344] [-4.5560855865478516:3.374582052230835] [-5.474942684173584:5.0900568962097168] [-16.119413375854492:10.929424285888672] [-6.6625723838806152:8.9857263565063477] [-6.5221452713012695:4.8572044372558594] [-5.7725934982299805:3.3896434307098389] [-3.820019006729126:2.923133373260498] [-4.802696704864502:3.8559176921844482] [-14.204780578613281:7.8463134765625] [-15.335819244384766:14.570171356201172] [-23.955472946166992:21.247676849365234] [-25.210025787353516:22.721670150756836] [-10.485633850097656:10.655379295349121] [-14.137790679931641:13.968544960021973] [-26.512935638427734:27.746694564819336] [-14.621058464050293:12.006706237792969] [-15.599776268005371:19.223800659179688] [-17.685388565063477:17.02056884765625] [-8.5728750228881836:10.730057716369629] [-13.169705390930176:13.549610137939453] [-26.126394271850586:27.06640625] [-13.43048095703125:10.872855186462402] [-12.105779647827148:15.521724700927734] [-15.948657989501953:13.801516532897949] [-7.3241686820983887:9.5864410400390625] [-11.769673347473145:11.739252090454102] [-24.01774787902832:25.444988250732422] [-12.74962329864502:9.6705207824707031] [-12.497293472290039:11.531270027160645] [-13.078177452087402:10.781311988830566] [-5.8468084335327148:7.6268157958984375] [-9.9367542266845703:10.008584022521973] [-22.96624755859375:23.430368423461914] [-11.506660461425781:8.5146894454956055] [-11.034914016723633:7.6652421951293945] [-7.8300514221191406:6.4182724952697754] [-3.8791394233703613:5.6288609504699707] [-6.9571056365966797:8.5483303070068359] [-19.087535858154297:15.940779685974121] [-9.4873781204223633:8.9287033081054688] [-9.396702766418457:6.783534049987793] [-6.2842578887939453:4.8348631858825684] [-3.3172252178192139:4.7707400321960449] [-5.3661937713623047:7.7732033729553223] [-16.119413375854492:10.929424285888672] [-7.3810033798217773:9.6578855514526367] [-7.4370150566101074:5.7350101470947266] [-5.7315921783447266:3.7189135551452637] [-2.5741291046142578:3.574509859085083] [-5.660858154296875:7.5471029281616211] [-14.204780578613281:7.8463134765625] [-15.443180084228516:16.835002899169922] [-27.431064605712891:21.251129150390625] [-17.809835433959961:16.91826057434082] [-12.164993286132812:10.030372619628906] [-12.276943206787109:12.32269287109375] [-26.512935638427734:27.746694564819336] [-15.339293479919434:14.651281356811523] [-21.244428634643555:18.483848571777344] [-12.25616455078125:11.600771903991699] [-13.003072738647461:9.2342758178710938] [-11.930119514465332:12.408145904541016] [-26.126394271850586:27.06640625] [-13.481691360473633:12.714256286621094] [-16.385988235473633:14.599126815795898] [-9.6865806579589844:9.0007562637329102] [-12.152244567871094:7.6252737045288086] [-11.28856086730957:12.535379409790039] [-24.01774787902832:25.444988250732422] [-11.080953598022461:11.549967765808105] [-12.065154075622559:10.651850700378418] [-7.9662985801696777:6.8713626861572266] [-9.4550981521606445:6.6339101791381836] [-10.236284255981445:11.806442260742188] [-22.96624755859375:23.430368423461914] [-8.2186288833618164:9.1920499801635742] [-10.742639541625977:7.5666074752807617] [-6.3102245330810547:4.6853518486022949] [-4.7550592422485352:4.9673333168029785] [-8.2172260284423828:9.1476421356201172] [-19.087535858154297:15.940779685974121] [-6.4279232025146484:7.9457993507385254] [-9.3865089416503906:6.6356401443481445] [-5.3833208084106445:3.9308342933654785] [-2.8609435558319092:4.1385416984558105] [-6.9020071029663086:8.7730035781860352] [-16.119413375854492:10.929424285888672] [-5.5850114822387695:7.2297706604003906] [-7.5396909713745117:5.585385799407959] [-4.9458050727844238:3.3624238967895508] [-2.5928635597229004:3.4111928939819336] [-6.0375237464904785:8.7367773056030273] [-14.204780578613281:7.8463134765625] [-3.8565521240234375:4.9740772247314453] [-2.4598746299743652:3.6179447174072266] [-2.0007321834564209:2.7303726673126221] [-4.1873660087585449:5.2262668609619141] [-2.3326361179351807:3.2243211269378662] [-1.9321767091751099:2.6800975799560547] [-3.6045331954956055:4.188331127166748] [-2.1176559925079346:2.7470970153808594] [-1.8492244482040405:2.5419554710388184] [-9.7168798446655273:8.1330785751342773] [-9.8945798873901367:5.4057259559631348] [-8.5556068420410156:4.5637092590332031] [-6.6634821891784668:4.2151427268981934] [-4.2170929908752441:3.2930684089660645] [-3.5372371673583984:2.9476556777954102] [-3.2756056785583496:2.6120312213897705] [-7.664604663848877:5.1533646583557129] [-8.9339189529418945:5.450502872467041] [-8.7971534729003906:5.5821099281311035] [-7.7291021347045898:5.0297956466674805] [-5.0385122299194336:3.5357911586761475] [-4.3072676658630371:2.5917832851409912] [-4.0297832489013672:2.4581191539764404] [-5.6360645294189453:5.5400724411010742] [-10.207788467407227:6.5880336761474609] [-11.083024978637695:6.7137994766235352] [-9.5770397186279297:5.9393596649169922] [-6.6488814353942871:4.8442783355712891] [-7.4376440048217773:3.3827733993530273] [-7.2642226219177246:2.2944686412811279] [-31.762393951416016:32.840621948242188] [-18.507204055786133:19.873361587524414] [-13.379373550415039:13.739336967468262] [-9.9305248260498047:9.3283290863037109] [-7.3486933708190918:5.6153912544250488] [-6.4189724922180176:4.3733234405517578] [-5.5091743469238281:3.8133890628814697] [-6.7812271118164062:7.2149686813354492] [-10.574053764343262:6.8647556304931641] [-10.198904037475586:5.6122660636901855] [-8.0857229232788086:4.7680244445800781] [-7.2873396873474121:4.158289909362793] [-7.2803058624267578:4.3634562492370605] [-6.6682710647583008:4.0222439765930176] [-8.7658424377441406:6.9614682197570801] [-16.709396362304688:9.6745624542236328] [-21.806735992431641:7.4763574600219727] [-30.057975769042969:7.422917366027832] [-46.353282928466797:4.9491381645202637] [-41.256889343261719:3.9901466369628906] [-29.465459823608398:3.1868486404418945] [-89.125831604003906:58.633617401123047] [-85.702888488769531:58.636028289794922] [-72.6573486328125:55.404876708984375] [-56.363563537597656:46.839637756347656] [-44.630939483642578:42.662857055664062] [-41.849395751953125:37.753993988037109] [-37.022026062011719:32.794651031494141] [-85.268310546875:56.07904052734375] [-84.588188171386719:61.867111206054688] [-71.987197875976562:54.322322845458984] [-55.381706237792969:46.189098358154297] [-42.269100189208984:41.737152099609375] [-40.912864685058594:37.373332977294922] [-36.946090698242188:32.399917602539062] [-6.4885401725769043:10.475090980529785] [-5.9336133003234863:5.0938901901245117] [-5.2831344604492188:4.5413737297058105] [-4.2621240615844727:4.4083037376403809] [-3.6578688621520996:3.4148218631744385] [-3.7092556953430176:3.1666629314422607] [-3.8488736152648926:2.9035897254943848] [-6.4235987663269043:6.4108109474182129] [-5.7171692848205566:5.4902310371398926] [-6.0230808258056641:4.7564821243286133] [-5.6278576850891113:4.2614970207214355] [-4.5475482940673828:3.427480936050415] [-3.9366006851196289:3.0022215843200684] [-3.3501045703887939:2.5631494522094727] [-7.9486813545227051:7.9093165397644043] [-16.067314147949219:15.642916679382324] [-0.13029487431049347:32.575233459472656] [-24.73906135559082:24.226861953735352] [-13.365605354309082:14.733579635620117] [-0.088229633867740631:158.02732849121094] [-8.2849187850952148:8.2416305541992188] [-17.451244354248047:33.991584777832031] [-0.099516838788986206:34.429103851318359] [-26.32208251953125:25.776140213012695] [-15.880496978759766:15.206822395324707] [-0.067339025437831879:165.14610290527344] [-7.304781436920166:6.9004397392272949] [-8.4633331298828125:7.2956562042236328] [-0.23652711510658264:36.550853729248047] [-15.708721160888672:17.075464248657227] [-6.8439311981201172:9.9652624130249023] [-0.15185597538948059:163.919921875] [-7.2757105827331543:6.6369328498840332] [-11.577513694763184:15.766837120056152] [-0.0872698575258255:58.711959838867188] [-16.10499382019043:15.796490669250488] [-17.353696823120117:20.528972625732422] [-0.049987483769655228:223.02055358886719] [-6.5961403846740723:6.1871843338012695] [-7.6638526916503906:5.3228983879089355] [-0.36380693316459656:20.062036514282227] [-11.853598594665527:15.066982269287109] [-6.2159762382507324:10.333089828491211] [-0.25754183530807495:52.006267547607422] [-6.7060623168945312:5.8609557151794434] [-8.133967399597168:9.1242713928222656] [-0.19581437110900879:110.3770751953125] [-12.227871894836426:14.07408332824707] [-8.2328939437866211:15.489068031311035] [-0.099119141697883606:70.11395263671875] [-6.2334675788879395:5.9795732498168945] [-5.6282763481140137:3.6535012722015381] [-0.50681793689727783:11.14194393157959] [-8.5525484085083008:12.75233268737793] [-5.3333206176757812:9.7093820571899414] [-0.37242302298545837:38.035526275634766] [-5.9784736633300781:5.8815484046936035] [-5.6303153038024902:5.1651668548583984] [-0.47572258114814758:16.837442398071289] [-8.6156883239746094:12.17945384979248] [-5.9328370094299316:6.3251328468322754] [-0.37411022186279297:40.11651611328125] [-5.0771193504333496:5.3392415046691895] [-4.6272764205932617:2.452599048614502] [-0.8105587363243103:9.2967157363891602] [-6.4146227836608887:8.7634391784667969] [-4.8041791915893555:6.4630937576293945] [-0.60682672262191772:27.027339935302734] [-4.9801745414733887:5.3841166496276855] [-3.6335229873657227:2.234541654586792] [-0.76258230209350586:9.6667633056640625] [-6.4244465827941895:8.4949216842651367] [-3.9914922714233398:2.6697638034820557] [-0.61386585235595703:26.699581146240234] [-5.0907406806945801:4.7328810691833496] [-4.1229195594787598:1.7546366453170776] [-1.0262447595596313:9.3037958145141602] [-5.7557168006896973:6.6753621101379395] [-4.4617385864257812:4.3729996681213379] [-0.75020754337310791:24.546785354614258] [-5.0285873413085938:4.5944375991821289] [-3.1700046062469482:2.0568544864654541] [-0.9930645227432251:9.941685676574707] [-5.7987685203552246:6.6032018661499023] [-3.0536396503448486:2.0506396293640137] [-0.7694125771522522:27.882593154907227] [-4.7622318267822266:4.5358309745788574] [-3.748044490814209:1.3196017742156982] [-1.008408784866333:7.4904565811157227] [-5.0100197792053223:5.7912287712097168] [-3.4549655914306641:2.7656381130218506] [-0.71639442443847656:18.164739608764648] [-4.7425212860107422:4.4002890586853027] [-3.0342121124267578:1.3892793655395508] [-1.0804321765899658:7.6286177635192871] [-5.0529379844665527:5.7103219032287598] [-2.6140358448028564:1.1976226568222046] [-0.78450930118560791:18.936626434326172] [-8.1417398452758789:8.6503629684448242] [-24.589004516601562:30.842401504516602] [-106.96900939941406:117.49097442626953] [-6.8755474090576172:6.438377857208252] [-10.812253952026367:23.412643432617188] [-66.236869812011719:70.751258850097656] [-6.0493264198303223:6.6394314765930176] [-8.2621707916259766:18.322616577148438] [-48.538570404052734:50.673995971679688] [-5.4433212280273438:6.8211870193481445] [-6.096804141998291:13.44505786895752] [-36.010784149169922:37.284061431884766] [-4.6602067947387695:7.1526908874511719] [-3.7556006908416748:7.5646648406982422] [-23.184427261352539:22.972560882568359] [-3.8112015724182129:6.7885222434997559] [-3.0432078838348389:5.180201530456543] [-17.309932708740234:17.029645919799805] [-2.9591021537780762:5.7794456481933594] [-2.205655574798584:3.4594790935516357] [-12.943775177001953:12.753992080688477] [-2.8630411624908447:2.8134560585021973] [-1.616212010383606:1.6977355480194092] [-9.2382040023803711:9.9788494110107422] [-9.8736362457275391:9.8565139770507812] [-8.9811677932739258:9.7822980880737305] [-9.8712730407714844:9.8405427932739258] [-9.1177310943603516:10.040778160095215] [-9.8578090667724609:9.8135099411010742] [-8.3720598220825195:9.8872756958007812] [-9.8290195465087891:9.7656383514404297] [-7.3572444915771484:9.2304306030273438] [-9.0538825988769531:9.6298027038574219] [-6.496098518371582:8.57080078125] [-8.7670049667358398:9.4757270812988281] [-5.4695553779602051:7.6559243202209473] [-8.1126022338867188:8.2189998626708984] [-12.602603912353516:12.790207862854004] [-9.8451547622680664:9.8377656936645508] [-9.8802280426025391:10.084169387817383] [-13.292631149291992:13.567253112792969] [-12.786803245544434:10.025251388549805] [-9.8273658752441406:9.8144969940185547] [-10.077012062072754:9.8919277191162109] [-13.614133834838867:13.408234596252441] [-12.129878997802734:8.1787261962890625] [-9.8059501647949219:9.1872367858886719] [-10.59564208984375:9.1551637649536133] [-13.626015663146973:13.33563232421875] [-10.399785041809082:7.8326859474182129] [-8.673222541809082:8.22906494140625] [-9.5574188232421875:9.6858119964599609] [-12.728603363037109:12.633584976196289] [-7.6822729110717773:6.3411192893981934] [-7.0915493965148926:7.142237663269043] [-8.4836835861206055:8.7317256927490234] [-13.329681396484375:9.6071405410766602] [-5.9814343452453613:4.986936092376709] [-6.0505971908569336:5.7881646156311035] [-8.2657346725463867:7.1223974227905273] [-13.416534423828125:8.512690544128418] [-4.5816478729248047:4.2505636215209961] [-5.238523006439209:4.7427072525024414] [-7.0290536880493164:5.7161531448364258] [-12.128837585449219:8.1203718185424805] [-17.77699089050293:14.392043113708496] [-9.819890022277832:9.8144149780273438] [-9.4592704772949219:10.702302932739258] [-13.836874961853027:13.497111320495605] [-15.460734367370605:13.687005996704102] [-9.7968521118164062:9.7866382598876953] [-9.4043445587158203:9.5965499877929688] [-13.35009765625:13.888071060180664] [-16.410453796386719:11.408829689025879] [-9.776280403137207:9.7607707977294922] [-9.6667757034301758:9.3498706817626953] [-13.749505996704102:13.783825874328613] [-16.773031234741211:9.6383371353149414] [-9.7482919692993164:8.6703786849975586] [-9.2621316909790039:7.9961004257202148] [-13.988964080810547:13.065852165222168] [-13.77390193939209:6.913487434387207] [-9.665431022644043:6.3217720985412598] [-8.537083625793457:6.4047513008117676] [-14.143522262573242:9.3954582214355469] [-10.948486328125:5.7142367362976074] [-9.1528120040893555:5.3609619140625] [-8.7493915557861328:5.6751613616943359] [-12.9078369140625:9.4944181442260742] [-7.9899358749389648:4.0653295516967773] [-6.5855755805969238:4.7979774475097656] [-7.7796249389648438:5.3904504776000977] [-9.4718608856201172:9.7670774459838867] [-15.692897796630859:11.109193801879883] [-9.7545108795166016:9.7484407424926758] [-11.424713134765625:8.5306882858276367] [-13.874567985534668:13.661454200744629] [-14.598103523254395:10.550060272216797] [-9.7263355255126953:9.7159347534179688] [-9.7975835800170898:9.4630355834960938] [-13.784551620483398:13.191432952880859] [-12.424842834472656:9.2515649795532227] [-9.698735237121582:9.6839065551757812] [-10.381784439086914:9.4576559066772461] [-13.252400398254395:13.400379180908203] [-9.8046674728393555:7.756230354309082] [-9.6743946075439453:8.2302589416503906] [-10.594100952148438:8.5748834609985352] [-12.747794151306152:12.674458503723145] [-6.9527745246887207:4.5517821311950684] [-7.1671361923217773:6.4888415336608887] [-9.0912446975708008:6.3726000785827637] [-11.440643310546875:10.088292121887207] [-5.2804360389709473:3.7599086761474609] [-5.8619074821472168:5.224860668182373] [-8.2872676849365234:5.446263313293457] [-9.9147663116455078:8.2956228256225586] [-4.2571983337402344:3.1832590103149414] [-5.0937790870666504:4.4396677017211914] [-7.2523999214172363:4.533390998840332] [-9.7761917114257812:8.2361516952514648] [-12.171723365783691:16.662435531616211] [-9.8456058502197266:9.8511753082275391] [-10.236106872558594:11.434597015380859] [-13.217990875244141:13.852551460266113] [-12.50462532043457:16.530147552490234] [-9.8287372589111328:9.8376245498657227] [-10.970274925231934:9.0210981369018555] [-13.732185363769531:13.727509498596191] [-12.046119689941406:14.973869323730469] [-9.8030643463134766:9.8151435852050781] [-11.481881141662598:9.1481704711914062] [-13.61865234375:13.157411575317383] [-10.443685531616211:13.524519920349121] [-9.7590217590332031:9.7753686904907227] [-11.35612964630127:8.9808101654052734] [-13.019158363342285:12.873851776123047] [-8.711674690246582:10.121051788330078] [-8.3439254760742188:9.6500444412231445] [-9.1758899688720703:8.6194343566894531] [-13.451390266418457:11.901864051818848] [-7.4979720115661621:7.649139404296875] [-7.1317329406738281:8.2958641052246094] [-8.6316967010498047:7.4610452651977539] [-12.751970291137695:10.116463661193848] [-6.5595712661743164:6.1393523216247559] [-5.8013901710510254:7.3940401077270508] [-7.7489075660705566:6.0606298446655273] [-9.09130859375:9.0410051345825195] [-21.068702697753906:22.379079818725586] [-28.985984802246094:23.001941680908203] [-52.954864501953125:132.58152770996094] [-4.3004875183105469:4.3340306282043457] [-28.133960723876953:26.205600738525391] [-2.2488002777099609:2.1910605430603027] [-43.504196166992188:43.068901062011719] [-5.7734613418579102:5.7389950752258301] [-1.7777401208877563:7.4226393699645996] [-8.1428318023681641:7.3799028396606445] [-6.2071824073791504:6.2187542915344238] [-6.6585502624511719:5.2618122100830078] [-7.5825233459472656:6.3808555603027344] [-12.109617233276367:16.29863166809082] [-5.1276473999023438:5.7072653770446777] [-5.0618281364440918:5.958716869354248] [-2.9877009391784668:2.5442049503326416] [-9.947880744934082:9.8687925338745117] [-3.6648097038269043:3.2165265083312988] [-4.659461498260498:5.2117915153503418] [-2.3711433410644531:3.1778976917266846] [-0.76633065938949585:42.848987579345703] [-0.89895361661911011:30.043006896972656] [-1.0185284614562988:22.047063827514648] [-1.1667426824569702:15.09227466583252] [-1.5441000461578369:8.5212545394897461] [-1.8678858280181885:6.0615019798278809] [-2.1839358806610107:4.8233208656311035] [-3.6430685520172119:4.6805386543273926] [-5.3341107368469238:6.1646904945373535] [-0.36341837048530579:248.65234375] [-0.33563593029975891:137.56449890136719] [-0.70356637239456177:1.5229448080062866] [-0.71757304668426514:1.5535850524902344] [-0.73175472021102905:1.5846824645996094] [-0.75127023458480835:1.6277292966842651] [-0.80634176731109619:1.7654086351394653] [-0.88182425498962402:1.9441906213760376] [-1.0668879747390747:2.0933914184570312] [0.0020000000949949026:1133.7779541015625] [0:28685.345703125] [-0.99997216463088989:0.99996781349182129] [-0.99531155824661255:0.98368406295776367] [0:5711573.5] [0:1.0000001192092896] [0:10.264176368713379]
tree_sizes=3030 3110 3104 3113 3101 3116 3105 3094 3099 3126 3133 3110 3097 3099 3112 3123 3103 3127 3091 3117 3119 3114 3128 3126 3117 3104 3122 3122 3118 3113 3134 3130 3115 3134 3091 3106 3106 3102 3109 3127 3115 3116 3121 3117 3138 3131 3114 3097 3133 3116 3098 3122 3128 3115 3106 3113 3123 3141 3089 3130 3109 3125 3133 3118 3148 3136 3114 3126 3142 3129 3099 3120 3114 3090 3133 3116 3133 3149 3119 3127 3128 3139

Tree=0
num_leaves=31
num_cat=0
split_feature=469 678 295 742 756 299 35 734 596 773 679 763 760 336 586 454 140 782 184 89 336 93 429 779 595 184 424 756 615 743
split_gain=3345.17 3855.71 2076.75 2508.57 1946.66 1469.92 1733.14 1849.21 1341.96 1199.89 1390.18 1083.76 1070.88 1031.3 1288.34 974.189 1982.76 856.244 776.111 744.527 725.17 675.164 650.07 895.626 825.48 635.813 629.945 572.779 744.471 754.039
threshold=-3.0040849447250362 -1.1782757639884947 2.9290078878402714 -0.39963170886039728 1.7217347621917727 -0.557979255914688 -0.70920172333717335 -0.33795911073684687 4.3057153224945077 -0.59929096698760975 -0.023394054733216759 0.010711537208408119 0.96637392044067394 2.0449250936508183 -0.97138568758964527 1.3099168539047243 0.16921463608741763 1.7640040516853335 -0.96764379739761341 1.3573991656303408 -1.420371353626251 -0.89870983362197865 1.3753167986869814 -0.71732720732688893 -2.0234605073928829 -0.54047346115112294 -0.22428346425294873 0.005782672669738532 -0.32477779686450953 -1.4232826828956602
decision_type=2 2 2 2 2 2 2 2 2 2 2 2 2 2 2 2 2 2 2 2 2 2 2 2 2 2 2 2 2 2
left_child=1 -1 4 -4 5 6 7 -2 15 10 -8 13 17 22 -15 19 -17 18 -13 -6 -14 -21 24 -24 -7 -26 -19 28 29 -27
right_child=2 -3 3 -5 8 11 9 -9 -10 -11 -12 12 20 14 -16 16 -18 26 -20 21 -22 -23 23 -25 25 27 -28 -29 -30 -31
leaf_value=-0.0099993949048433999 -0.0014450744198496214 0.023162108234101506 0.054089106964671486 0.027623136614447413 0.026696747942050812 0.03681081810008742 0.0032674805223347064 0.01953586851837881 0.042418285451802089 0.025124294123332468 0.023239517350129382 0.036414391244279073 0.035626218172782373 0.0055062298993070226 0.026662059596373005 0.050010372200690933 0.027947686157896293 0.042075470673553307 0.025808897474189532 0.029456702864620623 0.028016365946221367 0.042464236384659168 0.018189876629360068 0.024318702220786192 0.02649444243220548 0.01003998615549755 0.028087353880857854 0.02550301720576012 0.024545473412904584 0.021996888664339277
leaf_weight=511 500 957 513 1007 15868 570 520 1986 636 10807 933 643 1344 553 542 551 1302 501 161528 1527 13120 513 2911 12417 31871 542 826 65789 41770 5561
leaf_count=511 500 957 513 1007 15868 570 520 1986 636 10807 933 643 1344 553 542 551 1302 501 161528 1527 13120 513 2911 12417 31871 542 826 65789 41770 5561
internal_value=0.02564 0.010825 0.0256996 0.0371769 0.0256517 0.025479 0.0223934 0.0148652 0.0286521 0.0239575 0.0155853 0.0256131 0.0261522 0.0250228 0.0155651 0.0281678 0.034976 0.025921 0.0258543 0.0274393 0.0287554 0.0330519 0.0250901 0.0231343 0.0252961 0.0252471 0.0337734 0.0248972 0.0240656 0.0208168
internal_weight=378619 1468 377151 1520 375631 355234 14746 2486 20397 12260 1453 340488 177962 162526 1095 19761 1853 163498 162171 17908 14464 2040 161431 15328 146103 145533 1327 113662 47873 6103
internal_count=378619 1468 377151 1520 375631 355234 14746 2486 20397 12260 1453 340488 177962 162526 1095 19761 1853 163498 162171 17908 14464 2040 161431 15328 146103 145533 1327 113662 47873 6103
is_linear=0
shrinkage=1


Tree=1
num_leaves=31
num_cat=0
split_feature=470 37 295 742 756 276 95 596 461 762 288 32 101 595 769 568 42 337 679 609 136 347 178 589 470 173 39 141 777 582
split_gain=3720.69 4069.57 2105.69 2375.04 1888.4 1481.11 1374.03 1326.82 1157.75 1053.61 1313.62 1034.1 1190.32 1007.45 1015.89 1004.85 886.641 743.853 741.563 712.554 668.145 796.396 684.992 655.516 617.863 601.808 622.878 595.825 594.359 562.66
threshold=-2.8530418872833248 0.46034687757492071 2.9290078878402714 -0.41111084818840021 1.7217347621917727 -0.670886069536209 -1.1757304668426511 4.3057153224945077 1.3551911115646365 1.6114176511764529 1.0875548720359804 -0.18769741058349607 1.7566332221031191 -1.7115048170089719 0.65306898951530468 -1.1720383763313291 -0.352627083659172 0.080585978925228133 -1.5173901319503782 0.18217597901821139 -0.45633082091808314 -0.17074565589427945 -0.49520301818847651 -0.85375195741653431 1.7600373029708865 0.44005261361598974 -0.42453107237815851 -0.015601978171616791 -0.033630205318331712 -0.23600379377603528
decision_type=2 2 2 2 2 2 2 2 2 2 2 2 2 2 2 2 2 2 2 2 2 2 2 2 2 2 2 2 2 2
left_child=1 -1 4 -4 5 6 -2 8 18 11 23 12 13 14 -7 -10 -14 24 -6 27 -20 -22 -23 28 -13 -24 -27 -19 -11 -30
right_child=2 -3 3 -5 7 9 -8 -9 15 10 -12 17 16 -15 -16 -17 -18 19 20 -21 21 22 25 -25 -26 26 -28 -29 29 -31
leaf_value=9.481687105355495e-05 -0.015803012366861061 -0.032748480423970217 0.028353735141370771 0.002463317353123576 0.0081807925449245613 0.00014262552274955969 -0.0025238391146557744 0.016813049596240231 0.022038949859960719 0.0016536207783392246 0.017742532493442403 -5.7558637631294844e-06 -0.014023226588205966 -0.00089227565247340396 0.018293631981632346 0.0023248160753839941 -0.0010956807547594944 0.0017826424212027626 -0.0030984500932270619 0.0022985438067015264 -0.00057128962765101493 -0.0027541032020770499 0.00012849821354073745 0.00065661213625412842 -0.0078270911052330354 0.0049888538082086507 0.013046831992718179 -0.0016675233871324274 0.0042873732867755431 0.016916725717089076
leaf_weight=786 780 675 501 1023 1667 702 13558 621 501 1511 522 171637 1149 103201 501 512 968 8991 2856 30228 6095 1182 1668 7921 966 4059 1266 11164 768 684
leaf_count=786 780 675 501 1023 1667 702 13558 621 501 1511 522 171637 1149 103201 501 512 968 8991 2856 30228 6095 1182 1668 7921 966 4059 1266 11164 768 684
internal_value=-2.39527e-08 -0.0156607 6.27016e-05 0.0116049 1.43409e-05 -0.000155844 -0.00329864 0.00296722 0.00249186 -2.3201e-05 0.00295809 -0.000126832 -0.000937127 -0.000784473 0.00813012 0.0126529 -0.00827377 0.000260371 0.00191202 0.00132874 0.0012798 0.00216382 0.00419411 0.00217113 -5.17832e-05 0.00537975 0.00700815 -0.000127827 0.0061418 0.0106018
internal_weight=378663 1461 377202 1524 375678 355251 14338 20427 19806 340913 11406 329507 106521 104404 1203 1013 2117 222986 18793 50383 17126 14270 8175 10884 172603 6993 5325 20155 2963 1452
internal_count=378663 1461 377202 1524 375678 355251 14338 20427 19806 340913 11406 329507 106521 104404 1203 1013 2117 222986 18793 50383 17126 14270 8175 10884 172603 6993 5325 20155 2963 1452
is_linear=0
shrinkage=0.01


Tree=2
num_leaves=31
num_cat=0
split_feature=202 276 449 592 776 329 756 766 688 348 761 428 99 182 661 618 782 59 618 740 100 424 429 593 295 761 137 780 429 24
split_gain=2138.18 3771.95 1992.84 4789.69 1458.07 1930.66 1341.49 1443.25 1594.72 1185.14 1814.01 1402.31 1361.03 1175.47 1173.56 1149.4 978.496 1219.82 955.294 956.992 947.112 936.279 924.568 947.932 913.668 901.942 830.472 826.581 809.116 783.45
threshold=2.2593821287155156 1.2977052927017214 -2.5781534910202022 -1.4457183480262754 0.16573166102170947 -1.0875410437583921 2.0154063701629643 -0.77310836315155018 -1.8567003011703489 0.40265661478042608 0.65102759003639232 0.27332054078578955 -1.17582231760025 0.53438052535057079 -1.3582512736320493 -0.088763095438480363 -0.71352738142013539 -0.40556403994560236 1.3488813042640688 -1.669874310493469 0.66046905517578136 -0.87969616055488575 1.0379596352577212 0.46062560379505163 1.0038794875144961 0.74683696031570446 1.9333814382553103 -0.73147282004356373 0.36142049729824072 1.3823423981666567
decision_type=2 2 2 2 2 2 2 2 2 2 2 2 2 2 2 2 2 2 2 2 2 2 2 2 2 2 2 2 2 2
left_child=2 4 3 -1 -2 -6 7 8 -4 10 18 12 13 -11 21 -15 17 -8 26 -20 27 -12 23 -19 -16 -25 29 -14 -23 -9
right_child=1 -3 6 -5 5 -7 16 9 -10 11 14 -13 20 15 24 -17 -18 22 19 -21 -22 28 -24 25 -26 -27 -28 -29 -30 -31
leaf_value=-0.033520558459982773 -0.0032601582032633636 0.028899355600505539 -0.015254942802703324 -0.0018762799884208324 0.023880751523405776 0.0039450069673113222 0.00044168088102806719 -0.00015578269775663514 -0.0023362622980963731 -0.0046925679127627932 -0.00045930076644283845 0.00028814430392589389 -0.0070106495288383879 -0.027550016319607018 0.0014988722451045869 -0.0076461901044253379 -0.00023893072643904804 0.0040260472158795187 0.018014386932384645 0.0025691713083072659 0.0086289082161712053 0.019450401984254791 0.00010123772142270272 0.0053883062808444048 0.0091141679533107076 0.018990742354486011 -0.010390658965905953 -0.001586025617815356 0.0048928963637337184 0.0033603327925480278
leaf_weight=549 2332 571 985 2408 507 4083 3103 260516 12971 2543 678 21152 3445 506 23586 724 5254 1375 500 1564 730 913 1029 776 1642 1546 732 14572 705 6445
leaf_count=549 2332 571 985 2408 507 4083 3103 260516 12971 2543 678 21152 3445 506 23586 724 5254 1375 500 1564 730 913 1029 776 1642 1546 732 14572 705 6445
internal_value=3.86632e-06 0.0052747 -0.000103299 -0.00821108 0.00313262 0.00638067 -3.7042e-05 -0.000153158 -0.00329925 -2.39157e-05 0.000202138 -0.00156116 -0.00329492 -0.00873759 0.00264521 -0.0165906 0.00310147 0.00533049 -4.75794e-05 0.00664832 -0.00217921 0.00941624 0.00850216 0.0108079 0.00201157 0.0146543 -0.000100439 -0.00263979 0.0134442 -7.02829e-05
internal_weight=378442 7493 370949 2957 6922 4590 367992 354909 13956 340953 297281 43672 22520 3773 27524 1230 13083 7829 269757 2064 18747 2296 4726 3697 25228 2322 267693 18017 1618 266961
internal_count=378442 7493 370949 2957 6922 4590 367992 354909 13956 340953 297281 43672 22520 3773 27524 1230 13083 7829 269757 2064 18747 2296 4726 3697 25228 2322 267693 18017 1618 266961
is_linear=0
shrinkage=0.01


Tree=3
num_leaves=31
num_cat=0
split_feature=470 37 202 276 654 756 276 688 562 335 688 455 43 32 680 178 337 222 615 95 181 469 610 628 340 275 777 100 772 592
split_gain=3356.72 3730.21 2001.77 3688.02 1295.57 1283.54 1465.4 1945.32 1263.09 1160.72 1190.83 1092.35 1083.99 1013.8 843.944 988.394 784.915 946.151 876.309 723.017 998.056 720.557 720.559 661.843 647.139 641.225 635.119 621.454 614.733 615.449
threshold=-2.8530418872833248 0.46034687757492071 2.4036732912063603 1.2456473708152773 -1.5218990445137022 1.7467708587646487 -0.670886069536209 -1.8567003011703489 -1.1718168854713438 1.2557935118675234 2.8733414411544804 0.20522309094667437 0.32381089031696325 -0.18769741058349607 -0.33107155561447138 -0.45884135365486139 0.074280392378568663 -1.1715989708900449 -0.10268384218215941 1.6102932691574099 -1.0321591496467588 0.65348875522613536 1.0141013264656069 0.94818031787872326 -1.9723881483078001 -0.84409776329994191 -0.028856858611106869 0.15562538057565692 3.1833188533782963 -1.2447564601898191
decision_type=2 2 2 2 2 2 2 2 2 2 2 2 2 2 2 2 2 2 2 2 2 2 2 2 2 2 2 2 2 2
left_child=1 -1 5 4 -4 6 7 -2 11 10 13 25 -12 19 15 -13 17 18 -15 21 -21 -8 -23 -11 -19 -7 -10 -28 29 -18
right_child=2 -3 3 -5 -6 8 9 -9 26 23 12 14 -14 16 -16 -17 28 24 -20 20 -22 22 -24 -25 -26 -27 27 -29 -30 -31
leaf_value=9.1924565842587991e-05 -0.02000819951673416 -0.031321504435950213 0.017243930903888403 0.029729119936283195 0.0015110028453658986 -0.0044833633974774465 -0.0011303826844474504 -0.002480984089982275 -0.0026268157549619686 0.0020949837426894038 -0.0022903899418996224 0.0012000700856504148 -0.020202077537070255 -0.016613225258468891 0.0018598865908028444 0.016733317171802969 0.0029409530831328678 -0.0068193667361953038 -0.002948874387310937 -0.014110106197375493 -0.00027483372812667656 0.0008467046103247895 0.010937308906946613 0.012457641747234821 0.00011456820254674552 0.0053195039578471364 0.00085739137103543631 0.007455819866055334 0.010933187077959147 0.00045961151545620096
leaf_weight=794 616 671 537 531 4961 1038 89566 13597 3874 16677 902 536 505 506 912 1807 14855 1307 3253 932 1116 11075 707 593 165724 1684 6992 1749 620 30421
leaf_count=794 616 671 537 531 4961 1038 89566 13597 3874 16677 902 536 505 506 912 1807 14855 1307 3253 932 1116 11075 707 593 165724 1684 6992 1749 620 30421
internal_value=3.7539e-07 -0.0148549 5.99707e-05 0.00575201 0.00318923 -3.31497e-05 -0.000168189 -0.0033081 0.00252417 -3.59818e-05 -0.000171811 0.00629042 -0.0091919 -0.000130732 0.0101562 0.0132792 0.000258039 -5.40771e-05 -0.00498217 -0.000945206 -0.00675719 -0.000824486 0.00149587 0.00248574 5.82864e-05 0.00156786 0.000721922 0.00221258 0.00141829 0.00127608
internal_weight=379058 1465 377593 6029 5498 371564 352972 14213 18592 338759 321489 5977 1407 320082 3255 2343 216686 170790 3759 103396 2048 101348 11782 17270 167031 2722 12615 8741 45896 45276
internal_count=379058 1465 377593 6029 5498 371564 352972 14213 18592 338759 321489 5977 1407 320082 3255 2343 216686 170790 3759 103396 2048 101348 11782 17270 167031 2722 12615 8741 45896 45276
is_linear=0
shrinkage=0.01


Tree=4
num_leaves=31
num_cat=0
split_feature=470 39 202 276 683 291 763 333 136 454 31 595 744 756 378 754 176 92 780 755 94 761 347 616 615 100 338 55 89 689
split_gain=3416.52 3531.26 2028.42 3386.51 1776 1270.88 1292.79 2070.63 997.956 969.432 906.321 884.595 877.569 857.417 1279.12 843.512 833.007 710.297 824.442 755.85 654.727 605.649 604.646 809.643 738.768 1883.11 581.484 552.45 540.376 539.665
threshold=-2.8530418872833248 0.40996530652046209 2.4036732912063603 1.2456473708152773 -2.0181115865707393 0.52593290805816661 -0.52083906531333912 2.4116219282150273 -0.019136804156005379 1.5680375695228579 -0.091611977666616426 -2.0234605073928829 -1.9946419000625608 1.2272846698760989 0.77060535550117504 0.89671948552131664 1.4658994674682619 -0.21856331825256345 -0.73125872015953053 1.4793586730957033 0.59108230471611034 -0.083910580724477754 0.097663082182407393 0.51278364658355724 -0.59139361977577198 0.1273845657706261 0.89300549030303966 -0.64470073580741871 1.9679855704307558 -0.33448676764965052
decision_type=2 2 2 2 2 2 2 2 2 2 2 2 2 2 2 2 2 2 2 2 2 2 2 2 2 2 2 2 2 2
left_child=1 -1 5 4 -4 6 7 17 11 10 -8 -7 -10 -11 -15 -6 22 18 20 -19 -2 29 23 -13 25 -24 -26 -21 -23 -12
right_child=2 -3 3 -5 15 8 9 -9 12 13 21 16 -14 14 -16 -17 -18 19 -20 27 -22 28 24 -25 26 -27 -28 -29 -30 -31
leaf_value=0.0004259874195577939 -0.004433896637675348 -0.030112710605892871 0.018879016856020146 0.029211102664012483 -0.0012716511494730378 0.012287315747535575 -0.00085341285236568271 -0.020979761550696415 0.012625589013762505 0.0015285813144230765 -0.0029733021296070201 0.0022590110064061013 0.0028460348974716971 0.022528571829617986 0.0033348699759020578 0.0078837959124994725 -0.01127671908103676 -0.0012588438564463556 -0.001128326938183878 0.010984966669582093 -0.012655341906856457 0.00096396600193407261 -0.00067667633008532981 0.014041577608242142 -7.8777757891692108e-05 -0.020597882367997464 0.0023615902859935789 0.0014590925165534267 0.0082976854471001199 3.4063878735132615e-05
leaf_weight=747 5995 715 602 511 3561 589 97119 503 949 3281 6553 5884 12310 519 946 1347 549 36116 7850 731 1139 67500 2443 602 40396 540 12825 2856 971 61932
leaf_count=747 5995 715 602 511 3561 589 97119 503 949 3281 6553 5884 12310 519 946 1347 549 36116 7850 731 1139 67500 2443 602 40396 540 12825 2856 971 61932
internal_value=-9.11839e-06 -0.0150111 5.10228e-05 0.0057846 0.00336886 -4.27702e-05 -0.000342448 -0.0017211 0.00109968 -2.35558e-05 -0.00011472 0.0005798 0.0035908 0.00442702 0.0106537 0.00129523 0.000461136 -0.00152496 -0.00337661 -0.00082278 -0.00582546 0.000409226 0.000572834 0.00345166 0.000237841 -0.00456304 0.000510958 0.00352471 0.00107395 -0.000255656
internal_weight=378581 1462 377119 6021 5510 371098 294011 55190 77087 238821 234075 63828 13259 4746 1465 4908 63239 54687 14984 39703 7134 136956 62690 6486 56204 2983 53221 3587 68471 68485
internal_count=378581 1462 377119 6021 5510 371098 294011 55190 77087 238821 234075 63828 13259 4746 1465 4908 63239 54687 14984 39703 7134 136956 62690 6486 56204 2983 53221 3587 68471 68485
is_linear=0
shrinkage=0.01


Tree=5
num_leaves=31
num_cat=0
split_feature=470 37 295 742 763 384 760 740 177 348 389 762 761 348 469 618 779 142 762 618 586 182 292 618 184 142 221 128 348 564
split_gain=3324.33 3484.16 1977.15 2368.43 1266.72 1283.58 1261.67 1125.36 1258.55 1040.41 986.107 972.802 970.115 1949.4 1476.22 1016.13 1384.15 884.177 847.437 850.362 845.875 811.725 799.848 1150.58 790.936 786.275 714.433 712.769 696.551 728.738
threshold=-2.8530418872833248 0.46034687757492071 2.9290078878402714 -0.41111084818840021 -0.014333223458379505 1.3538860082626345 0.98967432975769054 -1.9028365015983579 -1.2099047899246214 -1.0014039874076841 -0.025292775593698021 1.4429242610931399 0.65102759003639232 0.40265661478042608 1.3526475429534914 0.070689607411623015 -0.717514008283615 1.3302730917930605 -2.2446320056915279 0.023673178628087047 -2.8336436748504634 0.32468089461326605 -0.67656993865966786 -0.45645269751548762 -0.96764379739761341 -0.63192832469940174 2.2286024093627934 0.61990475654602062 0.12160543352365495 0.82715108990669262
decision_type=2 2 2 2 2 2 2 2 2 2 2 2 2 2 2 2 2 2 2 2 2 2 2 2 2 2 2 2 2 2
left_child=1 -1 4 -4 5 11 12 8 -7 10 -8 20 18 14 15 25 -17 -15 19 -6 -2 -16 23 -20 -24 -14 -27 -13 -22 -30
right_child=2 -3 3 -5 6 7 9 -9 -10 -11 -12 27 13 17 21 16 -18 -19 22 -21 28 -23 24 -25 -26 26 -28 -29 29 -31
leaf_value=-9.4517378958204352e-05 0.010938185378610609 -0.030608392251552693 0.027849561339688134 0.0021143491873774653 0.00022351210411319304 -0.0051955838518798507 0.0019833527243463323 -0.0022598171607180338 -0.024735867113533004 0.0023131173658243582 0.017129443263636697 0.0012408075662839182 -0.0084784157808210497 -0.0019135676102793758 0.021757743233204341 0.017475395786519906 0.0041720884622945499 0.010067242896667154 -0.015148329700644364 0.017459212409631629 -0.0004003759373743889 0.0069766505597207715 0.011233119538047755 -0.0019652151779151676 3.1225661870439668e-05 0.0011424301867290201 0.012787467579309673 0.008067709964398033 -0.0015131827558515182 -0.0062789286585809906
leaf_weight=774 574 675 506 1028 595 844 790 2637 531 14830 933 8384 758 11602 585 847 6677 601 694 504 124587 1084 583 6240 148760 10082 507 1828 26299 3616
leaf_count=774 574 675 506 1028 595 844 790 2637 531 14830 933 8384 758 11602 585 847 6677 601 694 504 124587 1084 583 6240 148760 10082 507 1828 26299 3616
internal_value=6.58342e-06 -0.0148559 6.55906e-05 0.0112144 1.86172e-05 -0.000622604 0.000543912 -0.0061764 -0.0133448 0.00318758 0.0104367 -0.000485971 0.000312959 0.00187762 0.00375502 0.00293791 0.00577516 -0.00128484 -1.30711e-05 0.00854358 -0.000683094 0.0126397 -7.59581e-05 -0.00338367 7.87002e-05 0.0010395 0.00175747 0.00249621 -0.000729794 -0.00209876
internal_weight=378955 1449 377506 1534 375972 169300 206672 4012 1375 16553 1723 165288 190119 32743 20540 18871 7524 12203 157376 1099 155076 1669 156277 6934 149343 11347 10589 10212 154502 29915
internal_count=378955 1449 377506 1534 375972 169300 206672 4012 1375 16553 1723 165288 190119 32743 20540 18871 7524 12203 157376 1099 155076 1669 156277 6934 149343 11347 10589 10212 154502 29915
is_linear=0
shrinkage=0.01


Tree=6
num_leaves=31
num_cat=0
split_feature=469 284 295 742 756 299 35 735 590 773 679 348 761 293 428 582 762 736 170 469 618 734 582 744 100 27 615 617 780 658
split_gain=2768.01 3194.76 1842.28 2135.34 1765.81 1376.05 1645.03 1641.35 1279.59 1234.79 1390.03 1206.92 1871.97 1483.64 1434.82 1378.45 1084.81 1292.31 1041.65 950.817 1031.21 1037.46 979.857 960.275 945.134 943.35 904.663 879.144 852.871 833.266
threshold=-3.0040849447250362 1.0725314617156985 2.9290078878402714 -0.39963170886039728 1.7467708587646487 -0.557979255914688 -0.70920172333717335 -0.33672213554382319 4.4839868545532235 -0.59929096698760975 -0.023394054733216759 0.40265661478042608 0.65102759003639232 0.93441584706306469 0.27332054078578955 1.4280834197998049 1.6114176511764529 -1.189185559749603 0.37401744723320013 1.3526475429534914 0.05887724086642266 -0.87979823350906361 -1.1700242161750791 -1.3128045201301572 0.83996510505676281 -0.77577862143516529 1.0013079047203066 0.0023591914214193825 -0.73153391480445851 -1.0369903445243833
decision_type=2 2 2 2 2 2 2 2 2 2 2 2 2 2 2 2 2 2 2 2 2 2 2 2 2 2 2 2 2 2
left_child=1 -1 4 -4 5 6 7 -2 29 10 -8 12 16 19 15 24 25 -18 -17 20 -14 -22 -23 -21 28 27 -15 -7 -13 -6
right_child=2 -3 3 -5 8 11 9 -9 -10 -11 -12 14 13 26 -16 18 17 -19 -20 23 21 22 -24 -25 -26 -27 -28 -29 -30 -31
leaf_value=-0.00081815602217641143 -0.025790448082497926 -0.030648779548013306 0.026514522864378713 0.002046490985039325 0.0089509379158935285 0.0002045663420841444 -0.022369390053586811 -0.0060528825946559129 0.016640932741843865 -0.00043224139376178228 -0.0024250006355637354 -0.008151179040195999 -6.7759901314515752e-05 0.0063048432827579083 0.00035350820224551405 -0.0055442482714583297 0.018534385518297451 0.0026523488257622642 -0.017971506246394559 -0.0001095505140262597 0.014991849498183002 0.014223637795017485 0.0019456251914692587 0.01336284482629267 0.01062085314924552 1.2909266601865758e-05 0.021535655580192676 -0.0044987070760594411 -0.0017963945176583001 0.0017636066929225475
leaf_weight=836 502 583 511 1005 1734 6962 523 2003 608 10874 932 2348 15778 1358 21645 2617 524 5053 899 851 766 669 7080 1345 512 244730 540 9198 18230 17429
leaf_count=836 502 583 511 1005 1734 6962 523 2003 608 10874 932 2348 15778 1358 21645 2617 524 5053 899 851 766 669 7080 1345 512 244730 540 9198 18230 17429
internal_value=8.06662e-08 -0.0137002 5.34254e-05 0.0108772 8.3096e-06 -0.000153437 -0.00312978 -0.0104356 0.00291329 -0.00160924 -0.010099 -2.35616e-05 0.000212102 0.00265097 -0.00152454 -0.00317396 -4.81621e-05 0.00429601 -0.00892918 0.0020273 0.00144846 0.00424197 0.00309002 0.00825577 -0.00219563 -0.000141832 0.0110797 -0.00247808 -0.00253949 0.00243557
internal_weight=378645 1419 377226 1516 375710 355939 14834 2505 19771 12329 1455 341105 294854 28387 46251 24606 266467 5577 3516 26489 24293 8515 7749 2196 21090 260890 1898 16160 20578 19163
internal_count=378645 1419 377226 1516 375710 355939 14834 2505 19771 12329 1455 341105 294854 28387 46251 24606 266467 5577 3516 26489 24293 8515 7749 2196 21090 260890 1898 16160 20578 19163
is_linear=0
shrinkage=0.01


Tree=7
num_leaves=31
num_cat=0
split_feature=470 37 99 436 26 300 583 675 761 348 755 687 586 301 168 777 390 99 426 762 186 319 268 586 194 35 389 470 27 776
split_gain=3398.3 3564.4 1765.69 2892.9 1201.34 1170.37 1554.23 1520.62 1107.29 1965.16 1827.98 1371.15 1258.6 1080.9 1604.98 1391.03 1078.08 1266.26 1057.62 907.18 1143.43 936.256 863.484 707.04 705.111 685.907 657.529 1103.07 647.115 646.762
threshold=-2.8530418872833248 0.46034687757492071 -2.866702556610107 -0.002934186020866036 1.5049508810043337 -0.7875445783138274 -1.1272769570350645 -0.91689372062683094 0.35734525322914129 0.34877642989158636 1.0815007686614992 -2.7156093120574947 -2.8336436748504634 0.19703596085309985 -0.025336806662380692 -0.02571190986782312 2.2254014015197758 -2.057759046554565 2.4536429643630986 1.661143481731415 -0.18146824836730954 -0.015711525455117222 0.81511729955673229 -1.8334105014801023 0.55023822188377391 -0.74322932958602894 0.35820135474205023 0.95492818951606762 -0.77577862143516529 0.31428883969783789
decision_type=2 2 2 2 2 2 2 2 2 2 2 2 2 2 2 2 2 2 2 2 2 2 2 2 2 2 2 2 2 2
left_child=1 -1 3 -2 5 6 7 -4 19 10 11 -10 -13 14 15 -12 17 -11 26 20 21 -7 -15 -19 -8 -18 -14 -28 29 -22
right_child=2 -3 4 -5 -6 8 24 -9 9 16 13 12 18 22 -16 -17 25 23 -20 -21 28 -23 -24 -25 -26 -27 27 -29 -30 -31
leaf_value=7.4032705988396296e-05 -0.0013567075328761865 -0.03057497259374823 -0.024104353364898995 0.026324906192506509 0.0034676481172026216 -0.004505853648218339 -0.0027762816330907671 -0.0057994604307404149 0.014691002694104291 -0.014271639828737009 0.00749639887812663 0.015724496877467423 -0.00024382048562627911 0.0015050559357415371 0.0019697477444774519 0.022764140728516558 0.014744319261374825 -0.0091380500082299792 0.011005413676042426 0.003753050031968777 -0.0016892918131168003 -0.0010532916703068374 0.01468561213847943 -0.00095161544454401309 0.0034238917795746436 0.0022007753070872084 0.0016670897135658712 0.01393220589738587 8.2344488924768926e-05 -0.010259878994836148
leaf_weight=775 851 693 510 622 9813 9600 6067 2718 705 726 1324 532 28486 4389 1558 1161 538 1053 969 5403 8516 42510 513 24879 2572 1778 17480 717 200328 937
leaf_count=775 851 693 510 622 9813 9600 6067 2718 705 726 1324 532 28486 4389 1558 1161 538 1053 969 5403 8516 42510 513 24879 2572 1778 17480 717 200328 937
internal_value=7.19557e-06 -0.014925 6.72708e-05 0.0108128 2.37172e-05 -6.90886e-05 -0.0031515 -0.00901505 3.46424e-05 0.00101556 0.00207992 0.00131613 0.00110542 0.00622387 0.0100256 0.0149378 -0.00110888 -0.00168028 0.000925893 -0.000284058 -0.000368047 -0.00169305 0.00301877 -0.00130098 -0.000921288 0.00536461 0.000705121 0.00218721 -3.8588e-05 -0.00258834
internal_weight=378723 1468 377255 1473 375782 365969 11867 3228 354102 86808 57834 48889 48184 8945 4043 2485 28974 26658 47652 267294 261891 52110 4902 25932 8639 2316 46683 18197 209781 9453
internal_count=378723 1468 377255 1473 375782 365969 11867 3228 354102 86808 57834 48889 48184 8945 4043 2485 28974 26658 47652 267294 261891 52110 4902 25932 8639 2316 46683 18197 209781 9453
is_linear=0
shrinkage=0.01


Tree=8
num_leaves=31
num_cat=0
split_feature=470 37 295 742 756 276 95 590 461 348 221 428 576 744 40 568 595 176 762 102 32 466 679 577 780 95 755 345 377 512
split_gain=3266.41 3485.77 1912.13 2220.14 1646.77 1336.47 1464.63 1249.24 1044.87 1042.22 1492.04 1308.78 1286.62 1063.58 1011 927.808 917.739 831.939 813.879 1004.54 790.309 773.24 716.873 669.495 861.338 631.182 577.336 573.787 945.264 820.524
threshold=-2.8530418872833248 0.46034687757492071 2.9290078878402714 -0.41111084818840021 1.7217347621917727 -0.670886069536209 -1.1757304668426511 4.4839868545532235 1.3551911115646365 0.40265661478042608 2.0807247161865239 0.27332054078578955 1.3761994242668154 -2.9298572540283199 -0.57340773940086354 -1.1720383763313291 -2.0234605073928829 0.53738862276077282 1.6114176511764529 -0.25504462420940394 -0.18769741058349607 0.95044991374015819 -1.7139341831207273 -0.35280089080333704 -0.73156014084815968 1.278245270252228 3.3618330955505376 0.44839529693126684 0.1201901137828827 -0.94391700625419606
decision_type=2 2 2 2 2 2 2 2 2 2 2 2 2 2 2 2 2 2 2 2 2 2 2 2 2 2 2 2 2 2
left_child=1 -1 4 -4 5 6 -2 8 22 10 13 12 23 14 -7 -10 -15 -14 20 -20 -18 -12 -6 24 -11 -26 -13 28 -24 -29
right_child=2 -3 3 -5 7 9 -8 -9 15 11 21 26 17 16 -16 -17 18 -19 19 -21 -22 -23 27 -25 25 -27 -28 29 -30 -31
leaf_value=4.7595953623199986e-05 -0.016004972297224234 -0.030472385259114266 0.027145132542331387 0.0022207764571949206 0.008542283996013365 0.00013896363614390343 -0.0023368023102906138 0.016204645966572461 0.020993814939243551 -0.011870268376497349 0.0098330235300752005 1.4443546630777046e-05 -0.0056064855250299306 0.012724077241524559 0.01921670993568287 0.0020893657223642927 -0.0008081339278381925 -0.016735467527762057 0.0011307121561104181 0.010604704040613411 0.00032716439756805586 0.00076113744365338622 -0.00054402187973248575 0.00010509501940363489 -0.0019946126940023545 -0.011450220046591304 0.0086106240579954772 0.0060560278503090014 0.00600679607004731 -0.0020802024219926177
leaf_weight=772 785 676 505 1032 1388 546 13525 621 500 1095 2359 20669 2736 522 517 515 89244 886 3917 1525 195650 1555 4094 8282 9663 716 762 1452 4699 7053
leaf_count=772 785 676 505 1032 1388 546 13525 621 500 1095 2359 20669 2736 522 517 515 89244 886 3917 1525 195650 1555 4094 8282 9663 716 762 1452 4699 7053
internal_value=-4.91575e-06 -0.0147422 5.36644e-05 0.0110072 7.34219e-06 -0.000151325 -0.00313971 0.00277226 0.00230891 -2.53441e-05 0.000190002 -0.00144572 -0.00307941 0.000107235 0.00986406 0.0119503 6.9887e-05 -0.00851963 4.49488e-05 0.00385797 -2.8551e-05 0.0062839 0.0017547 -0.00206303 -0.00362166 -0.00269868 0.00033942 0.00118701 0.00297092 -0.000663884
internal_weight=378261 1448 376813 1537 375276 354954 14310 20322 19701 340644 295835 44809 23378 291921 1063 1015 290858 3622 290336 5442 284894 3914 18686 19756 11474 10379 21431 17298 8793 8505
internal_count=378261 1448 376813 1537 375276 354954 14310 20322 19701 340644 295835 44809 23378 291921 1063 1015 290858 3622 290336 5442 284894 3914 18686 19756 11474 10379 21431 17298 8793 8505
is_linear=0
shrinkage=0.01


Tree=9
num_leaves=31
num_cat=0
split_feature=470 37 295 742 763 432 618 660 611 596 587 274 35 616 454 595 101 340 345 134 744 429 783 606 468 330 142 420 743 89
split_gain=3166.39 3475.23 1870.44 2147.67 1233.93 1205.51 1804.52 1181.48 1423.58 1221.67 1211.71 1006.99 960.866 929.903 946.889 826.135 819.647 812.415 767.456 704.777 640.343 623.57 950.245 912.151 792.805 751.865 619.071 910.052 619.005 747.528
threshold=-2.8530418872833248 0.46034687757492071 2.9290078878402714 -0.41111084818840021 -0.014333223458379505 1.4991747140884402 -0.14555004239082334 -0.77053984999656666 -0.30897180736064905 5.1421241760253915 0.96183481812477123 0.33134117722511297 -0.66200289130210865 -0.52010706067085255 1.5680375695228579 -2.0234605073928829 0.96683266758918773 1.9740288257598879 0.73207819461822521 2.2674137353897099 -1.3128045201301572 1.3753167986869814 -0.82537066936492909 0.62010395526885997 1.0479314327239992 1.5575199723243716 -0.496726244688034 0.71726319193840038 -3.0256539583206172 1.6507226824760439
decision_type=2 2 2 2 2 2 2 2 2 2 2 2 2 2 2 2 2 2 2 2 2 2 2 2 2 2 2 2 2 2
left_child=1 -1 4 -4 5 15 -7 8 10 13 -6 12 26 16 18 -2 -10 -14 -15 21 -16 24 23 -23 25 -17 27 -9 -13 -30
right_child=2 -3 3 -5 7 6 -8 11 9 -11 -12 28 17 14 20 19 -18 -19 -20 -21 -22 22 -24 -25 -26 -27 -28 -29 29 -31
leaf_value=0.0001965535479307042 0.0090395607281030712 -0.030060664185436858 0.02665084382861109 0.0021544909015610552 0.0047698519660726744 -0.017850897316300816 -0.00101715907635044 -0.003398675300240829 -0.00024099902254985078 0.01404633758871596 0.023449983109345398 -0.0086828386820112687 0.00019628327732754375 0.0031345231302592333 0.0047985957563997112 -0.00040559724952116626 -0.0097098488844423372 -0.011761706600931265 -0.00093396533196880231 -0.011389655626451372 0.018271864128086453 -0.014302207621476494 -0.001443367260211366 -0.00078825376986064294 0.003183274819926593 -0.0092720420004680035 -0.0012329438264880091 -0.015119084043056768 0.001503062874825769 0.0096512719572653203
leaf_weight=786 853 683 511 1016 1009 955 1756 4003 6195 746 509 529 113961 15292 1018 142557 1023 521 6617 548 537 1164 13585 859 6164 913 13946 757 38726 1112
leaf_count=786 853 683 511 1016 1009 955 1756 4003 6195 746 509 529 113961 15292 1018 142557 1023 521 6617 548 537 1164 13585 859 6164 913 13946 757 38726 1112
internal_value=1.11757e-05 -0.0143977 6.91638e-05 0.0109371 2.35613e-05 -0.000609043 -0.00716304 0.000542389 0.00227696 0.00180986 0.0115815 0.000212554 -0.000206921 0.00148997 0.00245444 -0.000500304 -0.00164058 0.000136752 0.00190642 -0.000552097 0.00987569 -0.000512722 -0.00241153 -0.00872137 -0.000313922 -0.000465231 -0.00230498 -0.0054004 0.00159513 0.00174232
internal_weight=378851 1469 377382 1527 375855 169354 2711 206501 32946 31428 1518 173555 133188 30682 23464 166643 7218 114482 21909 165790 1555 165242 15608 2023 149634 143470 18706 4760 40367 39838
internal_count=378851 1469 377382 1527 375855 169354 2711 206501 32946 31428 1518 173555 133188 30682 23464 166643 7218 114482 21909 165790 1555 165242 15608 2023 149634 143470 18706 4760 40367 39838
is_linear=0
shrinkage=0.01


Tree=10
num_leaves=31
num_cat=0
split_feature=470 37 202 276 683 756 288 562 462 99 617 593 618 687 442 756 336 349 756 776 762 195 389 586 425 612 762 554 182 777
split_gain=3081.08 3321.82 1855.87 3239.86 1336.4 1172.29 1436.44 1202.87 1153.68 1071.23 1434.3 879.673 860.684 1291.43 804.388 865.276 878.517 804.322 772.718 764.383 867.366 757.082 749.948 747.104 737.096 734.586 2105.95 1626.91 821.329 727.866
threshold=-2.8530418872833248 0.46034687757492071 2.2593821287155156 1.2456473708152773 -2.1182862520217891 1.7467708587646487 -0.18225499242544171 -1.1718168854713438 0.40566831827163702 -1.2479043602943418 0.014951824676245453 0.64936000108718883 1.3488813042640688 2.2909075021743779 1.1891180872917178 1.0000000180025095e-35 0.42683298885822302 0.47235304117202764 -1.7302568554878233 0.16573166102170947 1.1889373660087588 -0.41786943376064295 0.35820135474205023 -0.79496192932128895 -0.15456143766641614 -0.67408114671707142 -1.0295827984809873 -0.21664603054523465 -0.99404829740524281 -0.026754193007946011
decision_type=2 2 2 2 2 2 2 2 2 2 2 2 2 2 2 2 2 2 2 2 2 2 2 2 2 2 2 2 2 2
left_child=1 -1 5 4 -4 6 9 8 -7 10 -2 -10 13 14 15 16 21 -17 -11 -6 -21 -8 -18 -9 -14 26 27 -23 -27 -25
right_child=2 -3 3 -5 19 7 12 23 11 18 -12 -13 24 -15 -16 17 22 -19 -20 20 -22 25 -24 29 -26 28 -28 -29 -30 -31
leaf_value=0.00015852206410133256 -0.0032714682303725986 -0.029399741174437669 0.016084667250972944 0.025672060703567021 -0.0033646069722986171 0.0015941901766478672 -0.0027069929841802361 -0.0010400238581426832 0.0055130480547099306 -0.011320394067044466 -0.017165858807529424 0.016567979620393442 0.011697905027772878 -0.0065637651108647159 0.0073126581668969048 0.00033421638334595342 -0.0024694702044666763 0.0028668577769345523 -0.0010445520114428853 0.00090464367034408797 0.010920406016143649 -0.022367223283566738 -0.011561911138535498 -0.00026377812062363916 0.0016844225530181561 0.0045893642222716302 0.00027897436966908487 -0.0019396442129439614 -7.1193170341536918e-05 0.0081951806883523177
leaf_weight=782 3551 689 640 638 2156 2956 12534 8490 1746 692 902 1277 1098 2853 1505 162548 3738 13540 56836 2880 1192 834 1166 1938 2102 3922 4012 716 78734 2084
leaf_count=782 3551 689 640 638 2156 2956 12534 8490 1746 692 902 1277 1098 2853 1505 162548 3738 13540 56836 2880 1192 834 1166 1938 2102 3922 4012 716 78734 2084
internal_value=6.51352e-06 -0.0141976 6.37687e-05 0.00496986 0.00287509 -3.64778e-05 -0.000165803 0.0024142 0.00608381 -0.00154669 -0.00624527 0.0103766 0.000130259 7.21173e-05 0.000140103 0.000100499 -0.000614758 0.000529718 -0.00117788 0.00140035 0.00393347 -0.000412392 -0.00472621 0.000643394 0.00524741 -8.50266e-05 -0.0035861 -0.0132865 0.00015259 0.00416604
internal_weight=378751 1471 377280 7506 6868 369774 351283 18491 5979 61981 4453 3023 289302 286102 283249 281744 105656 176088 57528 6228 4072 100752 4904 12512 3200 88218 5562 1550 82656 4022
internal_count=378751 1471 377280 7506 6868 369774 351283 18491 5979 61981 4453 3023 289302 286102 283249 281744 105656 176088 57528 6228 4072 100752 4904 12512 3200 88218 5562 1550 82656 4022
is_linear=0
shrinkage=0.01


Tree=11
num_leaves=31
num_cat=0
split_feature=202 276 449 765 654 291 763 417 140 32 447 756 140 142 184 595 782 430 684 285 776 762 346 95 45 128 762 93 761 684
split_gain=1870.83 3217.19 1796.35 4421.63 1360.55 1172.94 1189.9 1941.63 1071.28 991.898 961.027 1362.19 1298.34 924.361 1110.36 862.733 818.106 1411.79 778.494 757.293 686.02 639.532 676.143 617.113 613.739 584.947 572.513 571.198 565.182 1104.27
threshold=2.2593821287155156 1.2977052927017214 -2.5781534910202022 -1.3489727973937986 -1.674844443798065 0.52593290805816661 -0.52083906531333912 2.4332599639892583 1.6962111592292788 -0.62898716330528248 1.4431307911872866 1.3104276657104494 0.17340304702520373 -0.15335725992918012 -0.62711071968078602 -2.0234605073928829 1.7640040516853335 -0.38765637576580042 2.3132557868957524 1.5995329022407534 0.16512189060449603 1.4429242610931399 -1.0681481361389158 1.9419347047805788 -0.33827069401741022 0.47994981706142431 1.260230600833893 -2.1360843181610103 -0.4263144582509994 0.0074448438826948413
decision_type=2 2 2 2 2 2 2 2 2 2 2 2 2 2 2 2 2 2 2 2 2 2 2 2 2 2 2 2 2 2
left_child=2 4 3 -1 -2 6 7 18 13 -8 16 -12 -13 15 -15 -7 23 -18 21 -16 -6 22 -4 27 -25 -23 -22 -11 29 -29
right_child=1 -3 5 -5 20 8 9 -9 -10 10 11 12 -14 14 19 -17 17 -19 -20 -21 26 25 -24 24 -26 -27 -28 28 -30 -31
leaf_value=-0.030325196819605868 0.018011340631738953 0.026700812579486907 -0.0083425605254282241 -0.0012603655964738391 -0.0030034792056400921 0.012382287582451688 -0.001792750641574802 -0.019541703652326933 -0.012204596337408198 -0.0077820730162115291 0.0011383082596787347 0.023855814495515573 0.0046302243006962149 0.017250041946982542 0.0022077093534016387 0.00045645467530513588 0.018703370867753151 0.0013498669529689847 -0.0096177981273695805 0.011431947642654284 0.0020272025930745839 3.3771068187475481e-05 -0.0013954103372916732 -0.0028032629374560988 0.0097144366467082771 0.0082602195992039582 0.011042788585708426 -0.0038156183042748334 0.00031526127907437136 -0.00013027054275461494
leaf_weight=626 502 573 1396 2340 2105 563 28026 551 555 894 3647 554 915 500 15007 59110 583 1842 1097 901 3471 2876 47830 542 1206 1186 845 10347 150738 37314
leaf_count=626 502 573 1396 2340 2105 563 28026 551 555 894 3647 554 915 500 15007 59110 583 1842 1097 901 3471 2876 47830 542 1206 1186 845 10347 150738 37314
internal_value=-9.45024e-06 0.00491988 -0.000109657 -0.00779579 0.0029386 -4.66884e-05 -0.000336095 -0.00166121 0.00105379 -2.81417e-05 0.000209332 0.00446872 0.0124273 0.00115846 0.00325682 0.000579244 0.000101161 0.00581543 -0.00146227 0.00276434 0.00163013 -0.00128552 -0.00160069 3.08056e-05 0.00586307 0.00250692 0.00389855 -2.1807e-05 1.51132e-05 -0.000933504
internal_weight=378642 7496 371146 2966 6923 368180 291544 54936 76636 236608 208582 5116 1469 76081 16408 59673 203466 2425 54385 15908 6421 53288 49226 201041 1748 4062 4316 199293 198399 47661
internal_count=378642 7496 371146 2966 6923 368180 291544 54936 76636 236608 208582 5116 1469 76081 16408 59673 203466 2425 54385 15908 6421 53288 49226 201041 1748 4062 4316 199293 198399 47661
is_linear=0
shrinkage=0.01


Tree=12
num_leaves=31
num_cat=0
split_feature=470 39 202 283 348 341 32 32 101 590 763 390 782 783 761 348 755 762 273 656 425 132 429 469 348 612 296 755 550 688
split_gain=2960.99 3101.29 1831.19 2738.68 1679.27 1182.21 1151.72 1019.21 981.927 1018.58 930.072 1330.3 901.712 1026.96 698.537 1441.45 814.829 729.035 711.655 671.121 631.974 732.658 779.33 606.125 866.582 960.972 602.28 560.494 724.843 557.245
threshold=-2.8530418872833248 0.40996530652046209 2.1532630920410161 2.3016620874404912 -0.65624466538429249 1.2350032329559328 -0.21311718970537183 -1.3747400641441343 1.9359634518623354 0.50954377651214611 -0.29327744245529169 1.3693249821662905 -0.78884762525558461 -0.79489189386367787 0.65102759003639232 0.33725708723068243 1.0631938576698305 -2.1815288066864009 0.51312607526779186 2.8170217275619511 0.32787637412548071 -0.042028615251183503 0.0072052415926009425 0.65348875522613536 0.37642228603363043 -0.55204313993453968 0.30404347181320196 1.2467010021209719 -0.90889835357666005 -2.9344382286071773
decision_type=2 2 2 2 2 2 2 2 2 2 2 2 2 2 2 2 2 2 2 2 2 2 2 2 2 2 2 2 2 2
left_child=1 -1 5 4 -4 6 8 -6 23 -10 11 19 13 -7 17 16 -16 -12 -19 -8 21 22 -18 -2 25 -25 -26 -27 -29 -17
right_child=2 -3 3 -5 7 12 10 -9 9 -11 14 -13 -14 -15 15 29 20 18 -20 -21 -22 -23 -24 24 26 27 -28 28 -30 -31
leaf_value=0.00038563430485072695 -0.0012131671255599206 -0.028157475479441509 0.019883846389641566 0.025758783531613379 0.012834755399721556 0.0044707458747244525 -0.00049837388726242052 0.0007058632356333049 -0.002497931173764136 -0.017683609391413578 0.0087472947525221341 -0.015286687136193092 0.0012491835343253191 0.01926046978802045 0.0029530813392142042 -0.0099686898263578148 0.025064927719436997 8.5569802174097472e-06 0.0020733843147862528 -0.0088733121803073588 0.0019545958444968934 0.0043437311738223515 0.0076214973959226719 0.011075751356540407 -0.0047184341307559699 0.00025204268222582738 0.0011857700357124331 0.016218883380197852 0.001547694807993782 -0.00028575782995624905
leaf_weight=757 92441 713 505 519 717 3425 71924 7242 1234 656 977 573 15460 506 11931 591 568 122021 19287 920 915 782 544 1227 3327 5794 3505 503 892 8213
leaf_count=757 92441 713 505 519 717 3425 71924 7242 1234 656 977 573 15460 506 11931 591 568 122021 19287 920 915 782 544 1227 3327 5794 3505 503 892 8213
internal_value=-4.65503e-07 -0.0139296 5.56573e-05 0.0045039 0.00305696 -5.34588e-05 -0.000187192 0.00187182 -0.00103599 -0.00808865 0.000201707 -0.000735033 0.00234656 0.00659248 0.000616523 0.00221019 0.00411753 0.000352134 0.000291017 -0.000610161 0.00892531 0.012156 0.0172266 -0.000908512 0.000936391 0.00307626 -0.00170281 0.00164386 0.0072159 -0.000988383
internal_weight=378669 1470 377199 8983 8464 368216 348825 7959 109579 1890 239246 73417 19391 3931 165829 23544 14740 142285 141308 72844 2809 1894 1112 107689 15248 8416 6832 7189 1395 8804
internal_count=378669 1470 377199 8983 8464 368216 348825 7959 109579 1890 239246 73417 19391 3931 165829 23544 14740 142285 141308 72844 2809 1894 1112 107689 15248 8416 6832 7189 1395 8804
is_linear=0
shrinkage=0.01


Tree=13
num_leaves=31
num_cat=0
split_feature=470 37 295 742 756 299 36 784 596 773 679 348 223 422 467 461 608 469 687 592 568 618 34 94 32 679 335 95 777 512
split_gain=2983.2 3230.64 1805.85 2036.01 1533.21 1253.72 1593.64 1350.39 1177.64 1151.19 1437.05 1122.87 1370.03 1283.6 1181.95 1071.07 1005.33 1254.88 1238.49 949.372 942.486 857.9 799.457 775.242 746.604 701.545 752.349 883.731 628.052 616.903
threshold=-2.8530418872833248 0.46034687757492071 2.9290078878402714 -0.41111084818840021 1.7217347621917727 -0.557979255914688 -0.99973163008689869 -0.87239855527877797 4.3057153224945077 -0.59929096698760975 -0.023394084535539147 0.40265661478042608 1.5726689100265505 0.2251432612538338 2.6875604391098027 1.3551911115646365 -0.058903578668832772 0.72106900811195385 -0.093087416142225252 -2.3808305263519283 -1.1720383763313291 1.3488813042640688 0.23588892072439197 0.60954016447067272 -0.20810662955045697 -1.5173901319503782 0.10085669904947282 0.76066514849662792 -0.014563099481165407 -0.13912024348974225
decision_type=2 2 2 2 2 2 2 2 2 2 2 2 2 2 2 2 2 2 2 2 2 2 2 2 2 2 2 2 2 2
left_child=1 -1 4 -4 5 6 7 -2 15 10 -8 12 19 14 23 25 -14 -18 -19 -7 -17 24 -20 -13 -21 -6 -27 -28 -29 -23
right_child=2 -3 3 -5 8 11 9 -9 -10 -11 -12 13 16 -15 -16 20 17 18 22 21 -22 29 -24 -25 -26 26 27 28 -30 -31
leaf_value=0.00017304304251573827 -0.023792449862481982 -0.029237640042335165 0.026222994858567751 0.0022466799439531003 0.0077634436734188416 0.012583821211672846 -0.022820760254118895 -0.0044993937368554716 0.015645942848761796 -0.00076200701571585384 -0.0028992545117039687 -0.0033131734064463436 0.017441076852722458 0.00014999671960811927 -0.014298044834902142 0.020933347005140508 -0.00081433544551793278 -0.00052842611807093326 0.017608659363451736 -0.00076421901341081468 0.0019697105682669287 0.00032279977792438991 0.0046305327602459232 0.0032218117773493964 0.00035451441773589335 -0.00038126421372711579 0.0014910959430272099 0.0011883293155831103 0.014740339996480145 0.012190339511555915
leaf_weight=768 589 676 502 1018 1659 557 505 909 627 11643 1093 19552 509 23508 872 509 3404 1128 1189 84926 515 785 845 1961 200134 11739 3807 515 1026 949
leaf_count=768 589 676 502 1018 1659 557 505 909 627 11643 1093 19552 509 23508 872 509 3404 1128 1189 84926 515 785 845 1961 200134 11739 3807 515 1026 949
internal_value=-1.02528e-05 -0.0141131 4.56326e-05 0.0107481 8.79019e-07 -0.000152441 -0.00300276 -0.0126087 0.00266362 -0.00187266 -0.00969622 -2.85726e-05 0.000198283 -0.0014826 -0.00319361 0.00221346 0.00452994 0.00340481 0.00788884 9.08623e-05 0.0119317 6.44097e-05 0.0124575 -0.00271139 2.11422e-05 0.00165228 0.00103801 0.00412804 0.010391 0.0069774
internal_weight=378419 1444 376975 1520 375455 355058 14739 1498 20397 13241 1598 340319 294426 45893 22385 19770 7075 6566 3162 287351 1024 286794 2034 21513 285060 18746 17087 5348 1541 1734
internal_count=378419 1444 376975 1520 375455 355058 14739 1498 20397 13241 1598 340319 294426 45893 22385 19770 7075 6566 3162 287351 1024 286794 2034 21513 285060 18746 17087 5348 1541 1734
is_linear=0
shrinkage=0.01


Tree=14
num_leaves=31
num_cat=0
split_feature=470 284 202 611 128 756 766 688 562 462 348 761 428 582 577 762 736 293 27 127 681 469 618 582 593 761 617 337 742 654
split_gain=3090.84 3334.69 1714.03 2250.56 1192.45 1169.48 1263.77 1620.61 1160.05 1076.95 1051.8 1433.7 1291.17 1133.44 1057.57 1041.7 1247.58 1021.05 1002.06 988.833 944.929 900.291 840.023 1042.67 833.443 832.737 776.784 755.157 746.839 790.623
threshold=-2.8530418872833248 1.0370076298713686 2.2593821287155156 -0.21522503346204755 0.72133612632751476 1.7467708587646487 -0.77310836315155018 -1.8567003011703489 -1.1718168854713438 0.40566831827163702 0.40265661478042608 0.65102759003639232 0.27332054078578955 1.4280834197998049 -0.35280089080333704 1.6114176511764529 -1.189185559749603 0.93441584706306469 -0.77577862143516529 -0.71341815590858448 -1.3266797661781309 1.3526475429534914 0.070689607411623015 -1.1700242161750791 0.64936000108718883 1.7454974651336672 0.0023591914214193825 -0.05026645585894584 -0.68466395139694203 -0.6782943308353423
decision_type=2 2 2 2 2 2 2 2 2 2 2 2 2 2 2 2 2 2 2 2 2 2 2 2 2 2 2 2 2 2
left_child=1 -1 5 -4 -5 6 7 -2 9 -7 11 15 13 14 28 18 -17 21 26 -15 -6 22 -13 -24 -11 -23 -8 -25 29 -12
right_child=2 -3 3 4 20 8 10 -9 -10 24 12 17 -14 19 -16 16 -18 -19 -20 -21 -22 25 23 27 -26 -27 -28 -29 -30 -31
leaf_value=-0.0028560322756419434 -0.016521943412097912 -0.033752064414241979 0.020421885427668204 -0.00026949863750800587 -0.0032958147849110123 0.0016296059464636161 -7.400934550047147e-05 -0.0022679228887016348 0.00066438204774969811 0.0053643260462301499 -0.0029125881827328287 -0.00011196691894803467 0.00024039486740361424 -0.020183772707737153 0.00049806895989130875 0.018170716716822886 0.0025787041743324714 0.009648580934315679 1.9712883284668863e-06 -0.0058914727479831243 0.011767251003989905 0.014820511592919694 0.01517203221163449 2.0253748418514517e-05 0.016090403956548347 0.0017144661555683785 -0.0045493279149458731 0.0067978102650743059 -0.0034331405404508753 -0.020387096031209487
leaf_weight=968 804 506 770 4372 510 2917 6881 12630 12496 1737 510 14783 20797 569 7815 525 5052 1759 248208 2617 1841 938 703 4115 1298 981 8843 2688 9332 520
leaf_count=968 804 506 770 4372 510 2917 6881 12630 12496 1737 510 14783 20797 569 7815 525 5052 1759 248208 2617 1841 938 703 4115 1298 981 8843 2688 9332 520
internal_value=-9.04471e-06 -0.0142215 4.84003e-05 0.00476739 0.00283692 -4.79224e-05 -0.000177025 -0.0031791 0.00240276 0.00601649 -5.71237e-05 0.00015379 -0.00153373 -0.00325739 -0.00227926 -6.26061e-05 0.0041949 0.00239555 -0.000153347 -0.00871641 0.00849905 0.00184973 0.00127403 0.00398641 0.0101381 0.00833432 -0.00259732 0.00272826 -0.00436625 -0.0122701
internal_weight=378485 1474 377011 7493 6723 369518 351070 13434 18448 5952 337636 295476 42160 21363 18177 269509 5577 25967 263932 3186 2351 24208 22289 7506 3035 1919 15724 6803 10362 1030
internal_count=378485 1474 377011 7493 6723 369518 351070 13434 18448 5952 337636 295476 42160 21363 18177 269509 5577 25967 263932 3186 2351 24208 22289 7506 3035 1919 15724 6803 10362 1030
is_linear=0
shrinkage=0.01


Tree=15
num_leaves=31
num_cat=0
split_feature=469 286 202 296 776 335 291 140 617 35 761 688 784 688 557 387 136 762 762 294 595 780 140 44 716 612 377 617 594 283
split_gain=2403.83 2850.09 1685.08 2092.5 1333.51 1790.32 1174.79 1148.74 1067.28 1330.82 1277.07 1501.02 1260.17 1156.9 1121.12 1054.54 921.333 1186.2 902.61 1288.84 866.465 789.428 1082.37 972.076 964.371 1330.73 1151.63 1022.61 833.046 741.466
threshold=-3.0040849447250362 1.0722222924232485 2.2593821287155156 1.0290492773056032 0.16573166102170947 -0.82297241687774647 0.52593290805816661 1.6962111592292788 0.0034177683992311363 -0.70920172333717335 -0.18080507963895795 -0.055852366611361497 2.0507553815841679 2.4999294281005864 -0.4743663072586059 0.85659876465797435 -0.042472476139664643 1.6114176511764529 -0.64402711391448964 0.0070332197938114413 -2.0234605073928829 -0.73081848025321949 -0.37376126646995539 -0.75865197181701649 1.0000000180025095e-35 -0.021574995480477806 0.30605456233024603 -0.051619689911603921 -0.93876796960830677 -1.8149605393409727
decision_type=2 2 2 2 2 2 2 2 2 2 2 2 2 2 2 2 2 2 2 2 2 2 2 2 2 2 2 2 2 2
left_child=1 -1 6 4 -4 -6 8 16 10 14 11 15 21 29 -10 -2 20 -18 19 -16 -8 22 -12 -24 25 -25 28 -28 -27 -11
right_child=2 -3 3 -5 5 -7 7 -9 9 13 12 -13 -14 -15 18 -17 17 -19 -20 -21 -22 -23 23 24 -26 26 27 -29 -30 -31
leaf_value=-0.0016502012846226013 -0.0034385821823155254 -0.030391793037558682 -0.0030893050545638808 0.023268578519813916 0.021033656515346513 0.0036175875849730303 0.012680686411961664 -0.01248403877487788 -0.016992457993034532 0.0092489476608913108 -0.0039556392608645066 -1.6723123310031933e-05 0.015799637912578376 -0.012290333077457385 -0.020270053370941548 -0.014886174278789299 0.0026399107063101329 0.013751700350852958 -0.001854958258426656 -0.0043890642702515007 0.00052328070032145479 0.00036556313814528071 -0.0020151100035848313 0.001393245475105113 0.0016805737790463247 0.012366863297744595 0.0057867886331187616 0.020229810819433248 0.0028208639943842597 -0.00050045826457799478
leaf_weight=902 7084 515 2243 515 648 4054 542 572 532 734 2200 38814 547 780 604 868 13111 992 15442 2551 61602 41337 2892 3612 8421 1303 844 1327 2953 160078
leaf_count=902 7084 515 2243 515 648 4054 542 572 532 734 2200 38814 547 780 604 868 13111 992 15442 2551 61602 41337 2892 3612 8421 1303 844 1327 2953 160078
internal_value=-7.57978e-09 -0.012776 4.96737e-05 0.00473915 0.00320862 0.00621382 -4.55704e-05 0.00105473 -0.000334256 -0.000809789 0.000431694 -0.000829765 0.00133318 -0.00051402 -0.00330044 -0.00477335 0.00116442 0.00346733 -0.00286425 -0.00769815 0.000639423 0.00119916 0.00265837 0.00334749 0.00419079 0.00627766 0.00899078 0.0148716 0.00585309 -0.000453098
internal_weight=378619 1417 377202 7460 6945 4702 369742 76819 292923 180721 112202 46766 65436 161592 19129 7952 76247 14103 18597 3155 62144 64889 23552 21352 18460 10039 6427 2171 4256 160812
internal_count=378619 1417 377202 7460 6945 4702 369742 76819 292923 180721 112202 46766 65436 161592 19129 7952 76247 14103 18597 3155 62144 64889 23552 21352 18460 10039 6427 2171 4256 160812
is_linear=0
shrinkage=0.01


Tree=16
num_leaves=31
num_cat=0
split_feature=470 284 295 742 756 596 288 763 461 100 756 776 330 683 27 762 784 432 618 615 564 99 101 557 762 659 562 679 345 762
split_gain=2958.74 3292.25 1592.14 1889.57 1506.05 1183.04 1168.18 979.094 954.649 934.559 912.734 845.852 842.97 845.635 809.377 853.614 833.185 1617.11 821.032 791.639 841.144 790.818 1150.44 1026.22 794.341 782.115 729.68 668.01 585.534 541.454
threshold=-2.8530418872833248 1.0548641681671145 2.9290078878402714 -0.39963170886039728 1.7217347621917727 4.3057153224945077 -0.18225499242544171 -0.0072760160546749822 1.3551911115646365 -1.8405818343162534 -1.6803376674652097 0.2415292486548424 1.6733796000480654 2.4324045181274419 1.3139904141426089 -2.2446320056915279 2.0507553815841679 -0.060890417546033852 0.023673178628087047 0.059852637350559242 0.2526166588068009 -1.1431493759155271 0.98660844564437877 -0.46991237998008722 0.0438345205038786 0.62902969121932995 -1.1396397352218626 -1.7139341831207273 0.50346431136131298 1.661143481731415
decision_type=2 2 2 2 2 2 2 2 2 2 2 2 2 2 2 2 2 2 2 2 2 2 2 2 2 2 2 2 2 2
left_child=1 -1 4 -4 6 8 10 12 27 -9 -2 21 13 29 15 18 -17 -18 -11 -13 -21 22 23 -12 -23 -22 -10 -6 -16 -8
right_child=2 -3 3 -5 5 -7 7 9 26 14 11 19 -14 -15 28 16 17 -19 -20 20 25 24 -24 -25 -26 -27 -28 -29 -30 -31
leaf_value=-0.0026910478660927724 -0.011430216975083373 -0.033391904772055517 0.024806379256115438 0.0017899196263258569 0.008180920849102314 0.015773915860790747 -0.00042400556434444344 0.012448856716389687 0.019451609138424763 0.00076292078059197869 -0.015796574575477333 -0.0058755525485944607 -0.0094900921098304992 -0.0083107700345797959 0.0023771709768236372 0.00034852741214327866 -0.0011933427531473923 0.01988165033081217 0.017907789269136266 0.00078360859853828207 0.01789882352020071 -0.0044389466504531575 -0.013709201990364501 -0.0014025507118647659 -0.0006742939350993639 0.0040041496095856678 0.0025706908415573789 0.0011267968308418799 0.0097852277575673254 0.0037581729205612446
leaf_weight=975 837 503 512 1000 1408 616 134330 623 500 577 501 856 979 1290 3958 142223 834 589 500 2577 662 6337 1141 5045 46017 1031 512 17348 1437 3119
leaf_count=975 837 503 512 1000 1408 616 134330 623 500 577 501 856 979 1290 3958 142223 834 589 500 2577 662 6337 1141 5045 46017 1031 512 17348 1437 3119
internal_value=-2.89321e-06 -0.0138901 5.33317e-05 0.0101284 1.14586e-05 0.00265148 -0.000140285 0.000130976 0.0022038 0.000689826 -0.00135153 -0.00121127 -0.000471996 -0.000404965 0.000636896 0.000494313 0.000426146 0.00790866 0.00916383 0.00266765 0.00442847 -0.00155001 -0.00477625 -0.00283236 -0.00113377 0.00979486 0.0114342 0.00167669 0.0044221 -0.000327771
internal_weight=378837 1478 377359 1512 375847 20384 355463 290459 19768 150741 65004 64167 139718 138739 150118 144723 143646 1423 1077 5126 4270 59041 6687 5546 52354 1693 1012 18756 5395 137449
internal_count=378837 1478 377359 1512 375847 20384 355463 290459 19768 150741 65004 64167 139718 138739 150118 144723 143646 1423 1077 5126 4270 59041 6687 5546 52354 1693 1012 18756 5395 137449
is_linear=0
shrinkage=0.01


Tree=17
num_leaves=31
num_cat=0
split_feature=470 284 202 276 654 756 288 346 688 430 763 336 100 683 27 184 562 184 425 756 595 687 388 28 617 687 428 93 426 595
split_gain=2800.21 3021.87 1696.41 3089.72 1375.31 1072.8 1444.84 1371.84 1223.63 1261.82 944.284 947.236 876.409 872.656 825.529 845.563 814.313 800.973 855.278 739.973 609.258 602.689 591.308 576.778 974.206 759.475 736.363 762.122 595.978 587.808
threshold=-2.8530418872833248 1.0370076298713686 2.2593821287155156 1.2456473708152773 -1.5912993550300596 2.0154063701629643 -0.18225499242544171 -0.82807156443595875 -1.951470613479614 -0.86394327878952015 -0.014333223458379505 1.5738958716392519 -1.8405818343162534 2.4324045181274419 1.3139904141426089 -0.96764379739761341 -1.1718168854713438 -0.39136850833892817 0.35189473628997808 -1.8472103476524351 -2.0234605073928829 1.4251968860626223 -0.98585185408592213 -0.69451141357421864 0.0018632378196343782 1.2048320770263674 -0.95510157942771901 -0.16001428663730619 0.3782708495855332 -1.3093170523643491
decision_type=2 2 2 2 2 2 2 2 2 2 2 2 2 2 2 2 2 2 2 2 2 2 2 2 2 2 2 2 2 2
left_child=1 -1 5 4 -4 6 7 8 9 -2 11 13 -12 20 15 -14 17 -7 -19 -9 -8 -21 -22 24 29 -26 27 -25 -27 -17
right_child=2 -3 3 -5 -6 16 10 19 -10 -11 12 -13 14 -15 -16 23 -18 18 -20 21 22 -23 -24 26 25 28 -28 -29 -30 -31
leaf_value=-0.0027121246915650116 -0.0050631546857771012 -0.032173453153511139 0.017278645717965946 0.024829365449878713 0.001305670767292852 0.0017778476998561235 0.0096691819823721097 -0.012145303862641153 -0.0030237906921344849 -0.020828010209897427 0.012614814509789088 -0.012624016388178267 0.011963561255117803 -0.0083679506082938969 0.0045173189099492767 0.0080387102837247218 0.00098315096792702598 0.015404797237594331 0.0028545938653814847 -0.0010554358550663478 0.0042398221734856042 0.0025637757026126303 -0.0004414100691010537 0.0084931721314313313 -0.0022564230856783564 -0.0044149030074831933 0.00055322129611273037 1.7293807923189838e-05 -0.018348707869707142 0.00022587259081091834
leaf_weight=965 1335 504 541 647 6270 2124 560 522 8867 817 565 585 592 1305 5282 1061 8668 1317 946 47710 2704 5044 134086 2359 8142 777 124736 1896 510 7252
leaf_count=965 1335 504 541 647 6270 2124 560 522 8867 817 565 585 592 1305 5282 1061 8668 1317 946 47710 2704 5044 134086 2359 8142 777 124736 1896 510 7252
internal_value=3.78951e-06 -0.0135463 5.83458e-05 0.0047642 0.00269108 -3.72012e-05 -0.000140418 -0.00149706 -0.00470083 -0.0113853 0.000158083 -0.000437857 0.000699784 -0.00038191 0.000651554 0.00051147 0.00277281 0.00625796 0.0103336 -0.000830643 -0.000303015 -0.00070729 -0.000347358 0.000461207 -0.00122699 -0.00341924 0.000693795 0.00476044 -0.0104162 0.00126514
internal_weight=378689 1469 377220 7458 6811 369762 356707 64295 11019 2152 292412 139240 153172 138655 152607 147325 13055 4387 2263 53276 137350 52754 136790 146733 17742 9429 128991 4255 1287 8313
internal_count=378689 1469 377220 7458 6811 369762 356707 64295 11019 2152 292412 139240 153172 138655 152607 147325 13055 4387 2263 53276 137350 52754 136790 146733 17742 9429 128991 4255 1287 8313
is_linear=0
shrinkage=0.01


Tree=18
num_leaves=31
num_cat=0
split_feature=470 284 202 276 614 291 140 763 432 754 32 756 136 762 615 782 430 178 425 101 568 776 283 782 616 756 181 382 762 782
split_gain=2741.29 3039.89 1646.78 3091.85 1256.47 1117.5 1301.35 1166.25 1899.26 933.871 922.142 937.018 906.91 1056.27 1289.15 839.595 1495.21 818.846 1085.08 784.607 716.488 685.622 677.16 674.609 2268.19 742.748 717.522 679.005 669.078 653.769
threshold=-2.8530418872833248 1.0370076298713686 2.2593821287155156 1.2977052927017214 -0.36815391480922693 0.50612738728523265 1.6962111592292788 -0.58738237619400013 1.4991747140884402 0.64487028121948253 -0.62898716330528248 2.1265783309936528 -0.042472476139664643 1.6114176511764529 0.3792638778686524 1.7640040516853335 -0.4527257233858108 -0.46037293970584864 0.32787637412548071 1.9359634518623354 -1.2190380692481992 0.16573166102170947 0.95806682109832775 -0.77130094170570362 0.91705745458602916 -0.62800520658493031 -0.086906336247920976 0.99910724163055431 1.4429242610931399 -0.77244997024536122
decision_type=2 2 2 2 2 2 2 2 2 2 2 2 2 2 2 2 2 2 2 2 2 2 2 2 2 2 2 2 2 2
left_child=1 -1 5 4 -4 7 12 8 22 29 19 15 23 -14 -15 -12 -17 -13 20 -9 -19 -11 28 24 25 26 27 -7 -2 -6
right_child=2 -3 3 -5 9 6 -8 10 -10 21 11 17 13 14 -16 16 -18 18 -20 -21 -22 -23 -24 -25 -26 -27 -28 -29 -30 -31
leaf_value=-0.0025608318716170133 -0.0016091609734627771 -0.032020583733139069 0.01721924863558303 0.025938739972923154 -0.0098920488522653421 -0.0014513932311499755 -0.013040676542833264 -0.0014696064460187053 -0.016285003170480063 -0.00152017528519112 -2.4538411665933785e-06 -0.0019328800049388032 0.0026027321064608267 0.023624204876206138 0.001476987332493277 0.020043295383487623 0.0015908437893959054 0.017008364403727896 -0.00037173179004917125 -0.012206990343283059 0.0061257728762891105 0.010019018897951378 -0.0082349762039414329 1.5188406195199524e-05 0.020374237181488647 0.0036297678379876141 0.0013706276661186309 -0.012736746738794321 0.0030316390452310204 0.00044947092817933606
leaf_weight=973 41813 506 502 578 694 1683 605 27736 834 730 204552 1625 13570 500 517 521 1946 933 1553 649 1840 1606 1391 48868 619 8518 5594 741 3310 3406
leaf_count=973 41813 506 502 578 694 1683 605 27736 834 730 204552 1625 13570 500 517 521 1946 933 1553 649 1840 1606 1391 48868 619 8518 5594 741 3310 3406
internal_value=5.54644e-06 -0.0133572 5.96716e-05 0.00467803 0.0027339 -3.47839e-05 0.00100114 -0.000326321 -0.00176042 0.00148003 -4.46789e-05 0.000181117 0.00111454 0.00336681 0.0129623 6.81801e-05 0.00580852 0.00407657 0.00633022 -0.00173614 0.0100237 0.00645673 -0.00148279 0.000614759 0.0023177 0.0015824 -0.000601662 -0.00508894 -0.00126576 -0.00139911
internal_weight=378913 1479 377434 7516 6938 369918 81215 288703 47348 6436 241355 212970 80610 14587 1017 207019 2467 5951 4326 28385 2773 2336 46514 66023 17155 16536 8018 2424 45123 4100
internal_count=378913 1479 377434 7516 6938 369918 81215 288703 47348 6436 241355 212970 80610 14587 1017 207019 2467 5951 4326 28385 2773 2336 46514 66023 17155 16536 8018 2424 45123 4100
is_linear=0
shrinkage=0.01


Tree=19
num_leaves=31
num_cat=0
split_feature=470 37 202 560 576 679 617 26 171 592 384 288 300 647 86 575 340 285 447 756 763 130 756 684 140 479 784 762 342 591
split_gain=2725.54 3052.61 1633.42 2208.54 1970.26 1923.78 1105.48 1643.37 1556.58 2153.6 2140.08 1354.45 1306.64 1726.87 1171.98 1208.66 1166.15 886.321 943.019 2558.62 868.952 822.233 773.664 771.172 751.897 747.876 706.75 673.572 662.88 653.219
threshold=-2.8530418872833248 0.46034687757492071 2.4036732912063603 -0.21678384393453595 1.2416237592697146 -0.54463869333267201 0.0034177683992311363 -0.63055488467216481 -0.44143632054328913 -1.3606873154640196 -0.24549767374992368 1.2287328243255617 -0.7875445783138274 -0.42615272104740137 0.29659792780876165 -0.42781895399093622 -2.1801134347915645 0.3616159856319428 1.4431307911872866 1.0386100411415102 0.06637363508343698 -0.66302919387817372 -0.042084993794560425 2.6679426431655888 1.6962111592292788 0.45685227215290075 1.943346440792084 1.4429242610931399 0.97994083166122448 1.0054091215133669
decision_type=2 2 2 2 2 2 2 2 2 2 2 2 2 2 2 2 2 2 2 2 2 2 2 2 2 2 2 2 2 2
left_child=1 -1 6 4 20 -6 8 27 9 10 -2 16 13 -9 -12 -16 -11 18 22 -20 -4 -18 -14 -19 -10 -17 29 -8 -24 -23
right_child=2 -3 3 -5 5 -7 7 12 24 11 14 -13 17 -15 15 25 21 23 19 -21 -22 26 28 -25 -26 -27 -28 -29 -30 -31
leaf_value=0.00035754163874247971 0.026484913562407102 -0.028126296058440241 0.0012297653685350543 -0.001330179413014063 0.034641984696886001 0.0071192836759612788 -0.0032494344914307011 -0.022223911341437176 0.00014957288761199687 -0.0082998755223526333 0.00039859104826221926 0.015071424451946834 -0.0019600197940233756 -0.0030937845505624594 -0.00015154483808240817 0.018226013762843388 -0.0084092105350237149 0.0011075298145610723 -0.00030081423473053546 0.021481532475526151 0.01511123730177524 0.0005076378896840735 -3.9054886308327968e-05 -0.0076304314903401253 -0.0097989019853568157 0.0076473555413046328 0.0099793634011482689 0.0024192522207799332 -0.004789110869142332 0.004774002021958915
leaf_weight=775 501 679 1610 2781 517 519 24859 512 109794 1267 2469 640 32280 3097 1028 1248 784 59748 2134 671 582 18502 97715 978 715 1651 939 2253 2979 4407
leaf_count=775 501 679 1610 2781 517 519 24859 512 109794 1267 2469 640 32280 3097 1028 1248 784 59748 2134 671 582 18502 97715 978 715 1651 939 2253 2979 4407
internal_value=-1.87101e-06 -0.0134369 5.16941e-05 0.00520199 0.0107641 0.0218166 -3.2375e-05 -0.000466707 0.000653168 0.00254194 0.00749955 0.00124187 -0.000153387 -0.00607433 0.00581852 0.00917831 0.000871741 -4.31262e-05 -0.000492241 0.00519482 0.00517026 0.00135936 -0.000614114 0.000960642 8.08032e-05 0.0124332 0.00169742 -0.00277478 -0.000181891 0.00133697
internal_weight=378634 1454 377180 6009 3228 1036 371171 227226 143945 33436 6897 26539 200114 3609 6396 3927 25899 196505 135779 2805 2192 24632 132974 60726 110509 2899 23848 27112 100694 22909
internal_count=378634 1454 377180 6009 3228 1036 371171 227226 143945 33436 6897 26539 200114 3609 6396 3927 25899 196505 135779 2805 2192 24632 132974 60726 110509 2899 23848 27112 100694 22909
is_linear=0
shrinkage=0.01


Tree=20
num_leaves=31
num_cat=0
split_feature=470 284 202 276 335 617 28 171 592 346 130 286 688 287 101 86 578 340 588 784 755 140 342 744 784 346 99 776 181 784
split_gain=2561.76 2818.77 1635.37 2958.41 1229.16 1048 1709.6 1441.95 2050.56 2255.56 1196.35 1335.14 1189.24 1160.82 1489.11 1082.77 1091.23 1016.65 818.948 883.102 771.371 755.455 639.722 638.31 759.065 636.807 625.586 598.686 554.673 797.541
