tree
version=v4
num_class=1
num_tree_per_iteration=1
label_index=0
max_feature_idx=791
objective=regression
feature_names=bid_qty ask_qty buy_qty sell_qty volume X1 X2 X3 X4 X5 X6 X7 X8 X9 X10 X11 X12 X13 X14 X15 X16 X17 X18 X19 X20 X21 X22 X23 X24 X25 X26 X27 X28 X29 X30 X31 X32 X33 X34 X35 X36 X37 X38 X39 X40 X41 X42 X43 X44 X45 X46 X47 X48 X49 X50 X51 X52 X53 X54 X55 X56 X57 X58 X59 X60 X61 X62 X63 X64 X65 X66 X67 X68 X69 X70 X71 X72 X73 X74 X75 X76 X77 X78 X79 X80 X81 X82 X83 X84 X85 X86 X87 X88 X89 X90 X91 X92 X93 X94 X95 X96 X97 X98 X99 X100 X101 X102 X103 X104 X105 X106 X107 X108 X109 X110 X111 X112 X113 X114 X115 X116 X117 X118 X119 X120 X121 X122 X123 X124 X125 X126 X127 X128 X129 X130 X131 X132 X133 X134 X135 X136 X137 X138 X139 X140 X141 X142 X143 X144 X145 X146 X147 X148 X149 X150 X151 X152 X153 X154 X155 X156 X157 X158 X159 X160 X161 X162 X163 X164 X165 X166 X167 X168 X169 X170 X171 X172 X173 X174 X175 X176 X177 X178 X179 X180 X181 X182 X183 X184 X185 X186 X187 X188 X189 X190 X191 X192 X193 X194 X195 X196 X197 X198 X199 X200 X201 X202 X203 X204 X205 X206 X207 X208 X209 X210 X211 X212 X213 X214 X215 X216 X217 X218 X219 X220 X221 X222 X223 X224 X225 X226 X227 X228 X229 X230 X231 X232 X233 X234 X235 X236 X237 X238 X239 X240 X241 X242 X243 X244 X245 X246 X247 X248 X249 X250 X251 X252 X253 X254 X255 X256 X257 X258 X259 X260 X261 X262 X263 X264 X265 X266 X267 X268 X269 X270 X271 X272 X273 X274 X275 X276 X277 X278 X279 X280 X281 X282 X283 X284 X285 X286 X287 X288 X289 X290 X291 X292 X293 X294 X295 X296 X297 X298 X299 X300 X301 X302 X303 X304 X305 X306 X307 X308 X309 X310 X311 X312 X313 X314 X315 X316 X317 X318 X319 X320 X321 X322 X323 X324 X325 X326 X327 X328 X329 X330 X331 X332 X333 X334 X335 X336 X337 X338 X339 X340 X341 X342 X343 X344 X345 X346 X347 X348 X349 X350 X351 X352 X353 X354 X355 X356 X357 X358 X359 X360 X361 X362 X363 X364 X365 X366 X367 X368 X369 X370 X371 X372 X373 X374 X375 X376 X377 X378 X379 X380 X381 X382 X383 X384 X385 X386 X387 X388 X389 X390 X391 X392 X393 X394 X395 X396 X397 X398 X399 X400 X401 X402 X403 X404 X405 X406 X407 X408 X409 X410 X411 X412 X413 X414 X415 X416 X417 X418 X419 X420 X421 X422 X423 X424 X425 X426 X427 X428 X429 X430 X431 X432 X433 X434 X435 X436 X437 X438 X439 X440 X441 X442 X443 X444 X445 X446 X447 X448 X449 X450 X451 X452 X453 X454 X455 X456 X457 X458 X459 X460 X461 X462 X463 X464 X465 X466 X467 X468 X469 X470 X471 X472 X473 X474 X475 X476 X477 X478 X479 X480 X481 X482 X483 X484 X485 X486 X487 X488 X489 X490 X491 X492 X493 X494 X495 X496 X497 X498 X499 X500 X501 X502 X503 X504 X505 X506 X507 X508 X509 X510 X511 X512 X513 X514 X515 X516 X517 X518 X519 X520 X521 X522 X523 X524 X525 X526 X527 X528 X529 X530 X531 X532 X533 X534 X535 X536 X537 X538 X539 X540 X541 X542 X543 X544 X545 X546 X547 X548 X549 X550 X551 X552 X553 X554 X555 X556 X557 X558 X559 X560 X561 X562 X563 X564 X565 X566 X567 X568 X569 X570 X571 X572 X573 X574 X575 X576 X577 X578 X579 X580 X581 X582 X583 X584 X585 X586 X587 X588 X589 X590 X591 X592 X593 X594 X595 X596 X597 X598 X599 X600 X601 X602 X603 X604 X605 X606 X607 X608 X609 X610 X611 X612 X613 X614 X615 X616 X617 X618 X619 X620 X621 X622 X623 X624 X625 X626 X627 X628 X629 X630 X631 X632 X633 X634 X635 X636 X637 X638 X639 X640 X641 X642 X643 X644 X645 X646 X647 X648 X649 X650 X651 X652 X653 X654 X655 X656 X657 X658 X659 X660 X661 X662 X663 X664 X665 X666 X667 X668 X669 X670 X671 X672 X673 X674 X675 X676 X677 X678 X679 X680 X681 X682 X683 X684 X685 X686 X687 X688 X689 X690 X691 X692 X693 X694 X695 X696 X697 X698 X699 X700 X701 X702 X703 X704 X705 X706 X707 X708 X709 X710 X711 X712 X713 X714 X715 X716 X717 X718 X719 X720 X721 X722 X723 X724 X725 X726 X727 X728 X729 X730 X731 X732 X733 X734 X735 X736 X737 X738 X739 X740 X741 X742 X743 X744 X745 X746 X747 X748 X749 X750 X751 X752 X753 X754 X755 X756 X757 X758 X759 X760 X761 X762 X763 X764 X765 X766 X767 X768 X769 X770 X771 X772 X773 X774 X775 X776 X777 X778 X779 X780 book_total_qty trade_total_qty book_imbalance trade_imbalance volume_per_book_qty volume_per_trade_qty log_volume
feature_infos=[0.0010000000474974513:779.24798583984375] [0.0010000000474974513:946.7919921875] [0:17609.56640625] [0:17685.50390625] [0:25307.705078125] [-4.2507281303405762:5.0131793022155762] [-7.3472814559936523:7.2059187889099121] [-6.1974201202392578:6.2901802062988281] [-5.5623359680175781:5.6956138610839844] [-4.9888176918029785:5.2348790168762207] [-4.3867926597595215:4.8531484603881836] [-4.1511821746826172:4.7863826751708984] [-4.1854166984558105:4.7386002540588379] [-3.4148068428039551:3.9895613193511963] [-8.3920469284057617:10.018032073974609] [-7.4622445106506348:7.1092286109924316] [-6.1422171592712402:5.925966739654541] [-4.8037962913513184:4.9421024322509766] [-3.6669034957885742:4.1658754348754883] [-3.8051118850708008:4.0285053253173828] [-3.7723088264465332:3.9960262775421143] [-3.0791804790496826:3.4476921558380127] [-16.12006950378418:19.585250854492188] [-12.647032737731934:15.203801155090332] [-10.244500160217285:11.383847236633301] [-8.0956201553344727:8.8450746536254883] [-5.2108097076416016:5.9176435470581055] [-4.6495251655578613:4.8703274726867676] [-4.1838178634643555:4.2923274040222168] [-3.0261297225952148:2.4678308963775635] [-17.730539321899414:18.543724060058594] [-14.425519943237305:14.965539932250977] [-11.851095199584961:12.269857406616211] [-9.4073171615600586:9.5948638916015625] [-5.9650492668151855:6.8555850982666016] [-4.4351239204406738:5.8433690071105957] [-3.8483049869537354:4.9466776847839355] [-3.4595446586608887:4.3265929222106934] [-2.8164551258087158:3.966665506362915] [-3.2562508583068848:4.3784327507019043] [-2.671656608581543:3.9716887474060059] [-3.0612287521362305:4.4832839965820312] [-2.5731806755065918:3.9875533580780029] [-2.5882999897003174:3.8179416656494141] [-2.1832327842712402:3.1952934265136719] [-2.517066478729248:3.7739489078521729] [-2.1131038665771484:3.1246492862701416] [-2.4343254566192627:3.6033604145050049] [-1.9586472511291504:2.9431197643280029] [-2.149510383605957:2.891240119934082] [-1.776552677154541:2.543370246887207] [-2.1053357124328613:2.9363985061645508] [-1.7162717580795288:2.5775763988494873] [-2.111891508102417:2.9763364791870117] [-1.6023387908935547:2.6058294773101807] [-1.7515397071838379:2.2268009185791016] [-1.6376452445983887:2.0683455467224121] [-1.7806524038314819:2.202794075012207] [-1.6760580539703369:2.0481915473937988] [-1.806799054145813:2.1491842269897461] [-1.8537237644195557:2.0005092620849609] [-14.053279876708984:7.5135402679443359] [-15.093169212341309:15.249936103820801] [-17.093196868896484:13.36112117767334] [-7.3286499977111816:10.079464912414551] [-15.264925003051758:10.643044471740723] [-20.572372436523438:23.518787384033203] [-12.655550956726074:7.3543667793273926] [-8.6181125640869141:8.4114856719970703] [-11.228370666503906:10.11414623260498] [-5.9151196479797363:6.488494873046875] [-13.28038501739502:9.2922506332397461] [-21.158296585083008:22.346979141235352] [-11.389910697937012:6.2470545768737793] [-5.6770381927490234:5.854029655456543] [-8.904383659362793:9.6161785125732422] [-5.0841464996337891:4.8590950965881348] [-10.513360023498535:8.7506694793701172] [-19.470134735107422:24.324440002441406] [-9.8439216613769531:5.735590934753418] [-4.070953369140625:4.3680901527404785] [-7.7974328994750977:8.7891550064086914] [-4.2271251678466797:3.8601770401000977] [-7.7220263481140137:7.4297590255737305] [-17.039739608764648:22.964973449707031] [-7.3195986747741699:5.2683229446411133] [-3.2881972789764404:3.5483427047729492] [-7.0858478546142578:6.2855567932128906] [-3.3812241554260254:2.7327880859375] [-4.2666573524475098:4.8831186294555664] [-12.695438385009766:16.160511016845703] [-6.237727165222168:4.9151811599731445] [-3.2326743602752686:2.9745523929595947] [-6.8123178482055664:5.1147842407226562] [-3.026160717010498:2.2785720825195312] [-3.7851533889770508:4.6576647758483887] [-10.605947494506836:11.242148399353027] [-5.4580569267272949:4.6329889297485352] [-2.9669127464294434:2.3802342414855957] [-6.0360007286071777:4.0612974166870117] [-2.7181606292724609:2.0615143775939941] [-3.5376226902008057:4.2115263938903809] [-9.3595600128173828:7.3456377983093262] [-18.310979843139648:9.1628637313842773] [-14.228221893310547:12.579689025878906] [-24.192419052124023:18.368524551391602] [-7.1329817771911621:8.3103675842285156] [-11.072521209716797:10.934257507324219] [-20.572372436523438:23.518787384033203] [-16.022037506103516:8.2908687591552734] [-11.873522758483887:8.0656948089599609] [-13.78837776184082:12.56226921081543] [-4.0375728607177734:5.7044639587402344] [-8.643153190612793:7.9304518699645996] [-21.158296585083008:22.346979141235352] [-13.891345977783203:8.2362442016601562] [-9.2146682739257812:6.494286060333252] [-9.3693151473999023:10.954960823059082] [-3.3496837615966797:4.6485700607299805] [-6.9751977920532227:6.7054481506347656] [-19.470134735107422:24.324440002441406] [-11.724148750305176:7.5930638313293457] [-6.708672046661377:4.9320068359375] [-7.0110645294189453:9.3416213989257812] [-2.6143004894256592:3.8199565410614014] [-5.4162263870239258:6.3477044105529785] [-17.039739608764648:22.964973449707031] [-8.4877738952636719:5.5717587471008301] [-3.9323992729187012:3.2284111976623535] [-5.9801383018493652:6.0613484382629395] [-2.009955883026123:2.6085834503173828] [-4.4695644378662109:5.1414399147033691] [-12.695438385009766:16.160511016845703] [-6.7666988372802734:4.6012997627258301] [-3.7419607639312744:3.0159580707550049] [-5.6097688674926758:5.1525530815124512] [-1.9088599681854248:2.9636211395263672] [-3.7995634078979492:4.324653148651123] [-10.605947494506836:11.242148399353027] [-5.5033836364746094:4.4787368774414062] [-3.1520836353302002:2.5292901992797852] [-4.9900717735290527:4.2419776916503906] [-1.5475192070007324:2.9202780723571777] [-2.9332659244537354:3.666053295135498] [-9.3595600128173828:7.3456377983093262] [-19.080839157104492:9.08209228515625] [-24.174175262451172:16.242053985595703] [-10.408096313476562:16.579021453857422] [-7.1942720413208008:9.9893312454223633] [-9.8058338165283203:10.351131439208984] [-20.572372436523438:23.518787384033203] [-16.573162078857422:7.5451993942260742] [-15.996442794799805:9.4457511901855469] [-7.6284961700439453:10.385284423828125] [-5.116269588470459:7.1542611122131348] [-8.4262123107910156:9.0586833953857422] [-21.158296585083008:22.346979141235352] [-14.290749549865723:5.7472457885742188] [-11.596631050109863:6.7135214805603027] [-6.6591744422912598:8.8751153945922852] [-4.2567868232727051:6.1065449714660645] [-8.008671760559082:7.608454704284668] [-19.470134735107422:24.324440002441406] [-11.986871719360352:4.5775699615478516] [-8.3112583160400391:5.1435785293579102] [-5.3736920356750488:7.1839742660522461] [-3.2578878402709961:4.5480690002441406] [-7.3428826332092285:6.150169849395752] [-17.039739608764648:22.964973449707031] [-8.4921035766601562:3.5259940624237061] [-4.982820987701416:3.8771431446075439] [-4.4547772407531738:5.6016321182250977] [-2.0358297824859619:2.7418429851531982] [-6.2305951118469238:4.625084400177002] [-12.695438385009766:16.160511016845703] [-6.6481389999389648:3.1035051345825195] [-4.1616058349609375:3.0573859214782715] [-4.5833544731140137:4.9361481666564941] [-1.5476803779602051:1.9333126544952393] [-5.3399262428283691:3.9211714267730713] [-10.605947494506836:11.242148399353027] [-5.3146052360534668:3.3272867202758789] [-3.7526731491088867:2.5006837844848633] [-4.2668313980102539:4.1030211448669434] [-1.3969706296920776:1.471081018447876] [-4.4523024559020996:3.7501084804534912] [-9.3595600128173828:7.3456377983093262] [-2.2213854789733887:5.1169681549072266] [-1.6821935176849365:2.6206521987915039] [-1.6298896074295044:2.0569484233856201] [-2.4267144203186035:5.6608786582946777] [-1.6859586238861084:2.4764068126678467] [-1.6251859664916992:2.0186851024627686] [-2.7621557712554932:5.4487185478210449] [-1.7619301080703735:2.4469230175018311] [-1.6212102174758911:2.0067863464355469] [-11.394076347351074:5.8272385597229004] [-8.7658576965332031:4.9390759468078613] [-7.7566995620727539:4.6425199508666992] [-6.9589323997497559:5.0594034194946289] [-5.9598383903503418:5.2666144371032715] [-5.2085528373718262:4.9719986915588379] [-4.2998318672180176:4.5796322822570801] [-3.4959638118743896:3.6090030670166016] [-3.147540807723999:3.1404962539672852] [-3.6104950904846191:3.2895386219024658] [-4.0448532104492188:3.6368112564086914] [-3.4193170070648193:3.881274938583374] [-3.2603690624237061:3.721832275390625] [-3.2022004127502441:3.5805408954620361] [-3.1514995098114014:3.3708090782165527] [-3.7732558250427246:2.7734603881835938] [-3.7909197807312012:2.653658390045166] [-3.7417330741882324:3.0698397159576416] [-3.0999541282653809:3.4931015968322754] [-3.2771189212799072:3.2910280227661133] [-3.2025434970855713:2.9247667789459229] [-47.438339233398438:31.851713180541992] [-31.043266296386719:20.436820983886719] [-23.63299560546875:14.740551948547363] [-17.95989990234375:10.377383232116699] [-12.39363956451416:5.9001555442810059] [-10.086729049682617:5.0591154098510742] [-8.4747314453125:4.4159932136535645] [-6.3692693710327148:7.5933279991149902] [-5.7943630218505859:4.4826145172119141] [-7.5956821441650391:4.1926140785217285] [-7.4153609275817871:5.0388822555541992] [-5.3122749328613281:5.6721282005310059] [-5.1665463447570801:5.4656863212585449] [-5.0401625633239746:4.6711521148681641] [-4.0269594192504883:3.8149733543395996] [-4.685938835144043:2.863863468170166] [-4.6725115776062012:3.1285290718078613] [-4.238955020904541:3.9056301116943359] [-4.813176155090332:4.9213724136352539] [-4.3290243148803711:4.7981772422790527] [-3.7048332691192627:4.1347246170043945] [-153.41363525390625:101.62075042724609] [-61.120868682861328:133.85342407226562] [-46.337123870849609:144.37220764160156] [-38.466682434082031:135.10990905761719] [-23.753604888916016:94.500862121582031] [-21.771472930908203:69.875373840332031] [-18.418727874755859:50.700492858886719] [-156.77496337890625:92.387901306152344] [-66.160835266113281:128.26066589355469] [-45.28863525390625:139.99937438964844] [-37.684989929199219:132.27499389648438] [-23.453723907470703:93.221031188964844] [-21.361934661865234:69.148651123046875] [-18.355356216430664:50.556125640869141] [-4.6082606315612793:5.5428800582885742] [-11.467439651489258:9.349492073059082] [-8.174565315246582:8.4241790771484375] [-7.1770873069763184:7.5221219062805176] [-6.3251876831054688:6.8062691688537598] [-5.5448884963989258:6.219764232635498] [-5.2458267211914062:5.9677848815917969] [-5.1121673583984375:5.7554669380187988] [-3.2837731838226318:3.8384385108947754] [-14.103453636169434:11.568808555603027] [-10.03289794921875:8.4427642822265625] [-8.0080051422119141:6.8469243049621582] [-6.5083684921264648:5.8187832832336426] [-5.2483453750610352:4.9173693656921387] [-4.6476297378540039:4.5699019432067871] [-4.0151939392089844:4.2923836708068848] [-2.0944912433624268:3.3465971946716309] [-20.099802017211914:24.397832870483398] [-13.431788444519043:17.356664657592773] [-10.108311653137207:13.488024711608887] [-7.7852020263671875:10.408465385437012] [-6.055793285369873:7.3500847816467285] [-5.8057346343994141:5.994328498840332] [-4.9938216209411621:5.2220182418823242] [-2.1193141937255859:3.3792500495910645] [-24.797344207763672:32.751632690429688] [-18.71855354309082:25.716808319091797] [-15.62325382232666:23.222471237182617] [-12.452635765075684:19.541877746582031] [-7.0074419975280762:12.494905471801758] [-5.6343498229980469:8.8280401229858398] [-4.8795661926269531:7.0906744003295898] [-2.5461599826812744:5.1709103584289551] [-2.3033106327056885:4.3736920356750488] [-2.4247891902923584:4.5836181640625] [-2.1078383922576904:4.3282771110534668] [-2.2346155643463135:4.5162343978881836] [-1.9347147941589355:4.4306468963623047] [-1.6946655511856079:3.8535161018371582] [-1.6871248483657837:4.5506787300109863] [-1.7282644510269165:3.8014404773712158] [-1.7138094902038574:4.7160987854003906] [-1.7696027755737305:3.7116813659667969] [-1.7412954568862915:5.0124545097351074] [-1.6452836990356445:3.5999758243560791] [-1.6141849756240845:5.1214666366577148] [-1.6449824571609497:3.7181880474090576] [-1.6550709009170532:5.2111806869506836] [-1.6410109996795654:3.9000222682952881] [-1.7639224529266357:5.4495096206665039] [-1.7190775871276855:4.2796568870544434] [-2.0336430072784424:5.3775677680969238] [-1.7644038200378418:4.342287540435791] [-2.0732169151306152:5.4628634452819824] [-1.8346424102783203:4.4332146644592285] [-2.1290316581726074:5.5705113410949707] [-14.271987915039062:17.145936965942383] [-14.361808776855469:14.435991287231445] [-29.076147079467773:35.681339263916016] [-7.4782686233520508:10.426947593688965] [-18.224948883056641:15.291360855102539] [-26.512935638427734:27.315553665161133] [-11.916765213012695:14.161797523498535] [-9.2719030380249023:9.1093120574951172] [-20.056638717651367:28.035480499267578] [-5.6328091621398926:7.5864090919494629] [-14.389812469482422:12.605683326721191] [-26.126394271850586:25.090631484985352] [-10.579033851623535:11.815860748291016] [-7.4110288619995117:7.5555853843688965] [-14.604024887084961:21.669748306274414] [-4.6108202934265137:5.8734250068664551] [-11.02101993560791:10.039460182189941] [-23.969808578491211:25.506872177124023] [-9.4104394912719727:9.8791446685791016] [-5.6506567001342773:6.0727801322937012] [-11.329849243164062:16.018892288208008] [-3.7970302104949951:5.1205110549926758] [-7.9869670867919922:7.3140878677368164] [-20.943191528320312:23.430368423461914] [-7.3163251876831055:8.0680103302001953] [-4.8048343658447266:4.1435070037841797] [-8.5517063140869141:8.6831436157226562] [-2.95169997215271:3.5492658615112305] [-4.6789417266845703:4.5137042999267578] [-15.57176399230957:15.943490982055664] [-6.7146320343017578:8.1146955490112305] [-3.9640722274780273:4.2928328514099121] [-7.0125536918640137:5.2061238288879395] [-2.8194127082824707:3.0381629467010498] [-4.3847746849060059:3.7387561798095703] [-13.045000076293945:10.990679740905762] [-6.6625723838806152:7.6239361763000488] [-3.0499594211578369:4.1603741645812988] [-5.6246733665466309:3.3672420978546143] [-2.5098063945770264:2.5810647010803223] [-4.4159188270568848:2.9010560512542725] [-11.733149528503418:7.8463134765625] [-11.961991310119629:14.236396789550781] [-23.955472946166992:14.900004386901855] [-17.862863540649414:16.794315338134766] [-6.9578571319580078:10.655379295349121] [-14.137790679931641:13.280370712280273] [-26.512935638427734:27.315553665161133] [-9.4108028411865234:11.386297225952148] [-15.400185585021973:11.56685733795166] [-10.952554702758789:10.557141304016113] [-4.9823727607727051:7.9209804534912109] [-13.169705390930176:12.420904159545898] [-26.126394271850586:25.090631484985352] [-7.7772336006164551:9.2119588851928711] [-10.908656120300293:9.3366060256958008] [-9.8102149963378906:9.7405338287353516] [-4.5780839920043945:7.0559988021850586] [-11.769673347473145:11.307865142822266] [-23.969808578491211:25.506872177124023] [-7.8255858421325684:7.1752071380615234] [-7.4293198585510254:7.2927560806274414] [-7.9641079902648926:8.2864761352539062] [-3.5989019870758057:6.7223248481750488] [-9.9367542266845703:8.7664337158203125] [-20.943191528320312:23.430368423461914] [-6.4400858879089355:6.4093179702758789] [-5.1733889579772949:4.6676778793334961] [-4.9963393211364746:5.2548103332519531] [-2.5766394138336182:5.5112767219543457] [-6.9571056365966797:6.2148633003234863] [-15.57176399230957:15.943490982055664] [-5.8088603019714355:6.9859552383422852] [-4.1154413223266602:5.0087199211120605] [-4.6896038055419922:4.0480513572692871] [-2.2082841396331787:4.2195172309875488] [-5.3090252876281738:6.2024030685424805] [-13.045000076293945:10.990679740905762] [-5.2631587982177734:7.1172647476196289] [-3.5993423461914062:4.9998936653137207] [-4.1944851875305176:3.1148726940155029] [-2.2615303993225098:2.8952178955078125] [-5.660858154296875:5.7606720924377441] [-11.733149528503418:7.8463134765625] [-12.064685821533203:14.307861328125] [-25.605039596557617:15.760687828063965] [-17.802505493164062:12.68751049041748] [-12.164993286132812:10.030372619628906] [-12.276943206787109:11.973688125610352] [-26.512935638427734:27.315553665161133] [-10.914430618286133:11.382586479187012] [-17.231803894042969:11.848021507263184] [-11.821478843688965:9.0742158889770508] [-13.003072738647461:9.2342758178710938] [-11.596026420593262:11.03565788269043] [-26.126394271850586:25.090631484985352] [-10.273509979248047:9.1385164260864258] [-12.712959289550781:9.1833610534667969] [-8.5663175582885742:7.7453656196594238] [-12.152244567871094:7.4753756523132324] [-10.894744873046875:10.31651496887207] [-23.969808578491211:25.506872177124023] [-9.0847644805908203:7.2310009002685547] [-9.1020298004150391:6.7887434959411621] [-7.1048750877380371:6.1464481353759766] [-9.4550981521606445:5.8869867324829102] [-9.8842658996582031:9.3447656631469727] [-20.943191528320312:23.430368423461914] [-6.7552070617675781:7.6461758613586426] [-6.7552189826965332:4.1009774208068848] [-6.0775027275085449:4.2664275169372559] [-4.7550592422485352:3.781003475189209] [-7.8374300003051758:7.2081112861633301] [-15.57176399230957:15.943490982055664] [-5.2408390045166016:6.8516769409179688] [-5.5813384056091309:4.9730305671691895] [-5.3833208084106445:3.553478479385376] [-2.7473862171173096:3.4271931648254395] [-6.5497536659240723:7.8113064765930176] [-13.045000076293945:10.990679740905762] [-4.5182881355285645:5.9751629829406738] [-4.0625052452087402:4.9245071411132812] [-4.6794219017028809:3.333193302154541] [-2.2446036338806152:3.148521900177002] [-6.0193471908569336:7.9197821617126465] [-11.733149528503418:7.8463134765625] [-2.9893014430999756:5.0360903739929199] [-2.0899560451507568:3.6179447174072266] [-1.5603131055831909:2.7303726673126221] [-3.2439677715301514:5.2262668609619141] [-1.8244644403457642:3.2243211269378662] [-1.5299848318099976:2.6800975799560547] [-2.3298196792602539:4.5542211532592773] [-1.2634956836700439:2.7470970153808594] [-1.403877854347229:2.5419554710388184] [-9.4550914764404297:4.8728508949279785] [-6.2101039886474609:4.3208274841308594] [-4.8896036148071289:4.1512303352355957] [-3.9479222297668457:3.6193883419036865] [-3.2216014862060547:2.9953024387359619] [-3.1153767108917236:2.6993188858032227] [-2.9592843055725098:2.4638943672180176] [-3.4572632312774658:4.1840105056762695] [-3.0357041358947754:4.3165712356567383] [-3.0210270881652832:4.1500239372253418] [-2.8958933353424072:3.5596990585327148] [-2.648453950881958:2.7738795280456543] [-2.9620251655578613:2.4994750022888184] [-2.6343357563018799:2.2841625213623047] [-3.336906909942627:3.5774240493774414] [-3.6285014152526855:3.7360420227050781] [-3.5358049869537354:3.5480492115020752] [-3.1113796234130859:3.0919284820556641] [-3.2378745079040527:2.5811467170715332] [-3.5453143119812012:2.1131622791290283] [-3.1263861656188965:1.9902775287628174] [-36.669498443603516:11.767221450805664] [-21.742753982543945:7.5398359298706055] [-15.447848320007324:6.1481819152832031] [-11.255499839782715:5.1561317443847656] [-7.8556976318359375:3.5577452182769775] [-6.5901799201965332:3.594914436340332] [-5.5091743469238281:3.2903478145599365] [-5.3045797348022461:4.5110273361206055] [-4.3397393226623535:3.8379406929016113] [-4.1516647338867188:3.6993482112884521] [-3.7839648723602295:3.4339823722839355] [-3.2950859069824219:3.7664484977722168] [-2.5642664432525635:3.604194164276123] [-2.6115236282348633:3.1347486972808838] [-3.2529747486114502:3.987823486328125] [-3.7737138271331787:4.2099204063415527] [-3.4576394557952881:4.2430310249328613] [-5.2740292549133301:5.023003101348877] [-7.3870720863342285:5.030519962310791] [-5.189018726348877:3.664095401763916] [-5.2931170463562012:2.2273271083831787] [-89.125831604003906:58.633617401123047] [-85.702888488769531:73.428016662597656] [-72.6573486328125:78.730361938476562] [-57.492042541503906:71.067253112792969] [-41.691596984863281:48.663562774658203] [-39.343551635742188:35.82879638671875] [-32.969249725341797:32.285934448242188] [-85.268310546875:56.07904052734375] [-84.588188171386719:70.34637451171875] [-71.987197875976562:76.983177185058594] [-56.085323333740234:70.020072937011719] [-40.384059906005859:48.243762969970703] [-38.749248504638672:35.564105987548828] [-32.812389373779297:31.837368011474609] [-4.9807181358337402:4.0711655616760254] [-4.4413070678710938:3.9719626903533936] [-4.0377697944641113:3.5079901218414307] [-3.2406258583068848:2.8932929039001465] [-3.2020976543426514:2.0657165050506592] [-3.3350248336791992:1.7095357179641724] [-3.254584789276123:1.7108412981033325] [-6.9477887153625488:5.1091108322143555] [-5.6550593376159668:5.1459736824035645] [-5.8860173225402832:4.5691852569580078] [-5.4648380279541016:4.2135663032531738] [-4.4799413681030273:3.2370772361755371] [-3.8905150890350342:2.7795495986938477] [-3.320537805557251:2.3409631252288818] [-7.444793701171875:7.790827751159668] [-9.9080934524536133:11.913000106811523] [-0.13029487431049347:31.419212341308594] [-16.871406555175781:21.614503860473633] [-9.4875545501708984:11.598370552062988] [-0.088229633867740631:32.125572204589844] [-7.7597846984863281:8.1182689666748047] [-9.0374574661254883:10.851778984069824] [-0.099516838788986206:33.208644866943359] [-15.273684501647949:19.564853668212891] [-10.694884300231934:12.013710021972656] [-0.067339025437831879:33.592555999755859] [-6.1384248733520508:6.35369873046875] [-8.9646644592285156:4.4448957443237305] [-0.23652711510658264:23.743000030517578] [-10.884180068969727:14.440191268920898] [-5.9218015670776367:6.2515807151794434] [-0.15185597538948059:21.683055877685547] [-5.7153801918029785:6.1977052688598633] [-8.5795907974243164:5.1512556076049805] [-0.0872698575258255:38.240486145019531] [-10.716388702392578:14.21392822265625] [-10.730640411376953:13.085846900939941] [-0.049987483769655228:29.636564254760742] [-5.7394003868103027:5.4923977851867676] [-4.7937731742858887:3.3567781448364258] [-0.36380693316459656:10.287467956542969] [-7.9898209571838379:11.247030258178711] [-4.5834441184997559:3.7861206531524658] [-0.25754183530807495:19.556970596313477] [-5.6323561668395996:5.3923511505126953] [-4.476987361907959:1.6344194412231445] [-0.19581437110900879:8.8601179122924805] [-7.9854764938354492:11.231743812561035] [-5.132077693939209:2.5644156932830811] [-0.099119141697883606:6.2259864807128906] [-5.072791576385498:4.9038634300231934] [-3.9150586128234863:2.9815077781677246] [-0.5068175196647644:7.9622020721435547] [-5.9137630462646484:8.5163078308105469] [-3.5502276420593262:2.8134477138519287] [-0.37242275476455688:14.651766777038574] [-4.831787109375:4.7624077796936035] [-3.4205601215362549:1.2593270540237427] [-0.47572201490402222:9.4039907455444336] [-6.0207581520080566:8.3884696960449219] [-3.838853120803833:1.9025216102600098] [-0.37410983443260193:10.072910308837891] [-5.0135211944580078:4.6058268547058105] [-3.1978316307067871:1.8137441873550415] [-0.80418950319290161:4.6942901611328125] [-5.1866087913513184:6.6533303260803223] [-4.0274128913879395:4.2305445671081543] [-0.60222315788269043:9.2131223678588867] [-4.9334897994995117:4.5405974388122559] [-2.4094998836517334:1.87999427318573] [-0.75650334358215332:5.563784122467041] [-5.1052322387695312:6.3708209991455078] [-2.6986181735992432:2.4764664173126221] [-0.60913991928100586:7.4882879257202148] [-4.7494053840637207:4.2486639022827148] [-3.3065400123596191:1.6598492860794067] [-1.007201075553894:4.9886894226074219] [-5.2872352600097656:6.4180545806884766] [-4.1153354644775391:3.6079826354980469] [-0.7308850884437561:13.652992248535156] [-4.6942234039306641:4.1698465347290039] [-2.8270273208618164:1.7529735565185547] [-0.94134587049484253:4.6730952262878418] [-5.2280306816101074:6.1813149452209473] [-2.8174130916595459:1.9903090000152588] [-0.73273074626922607:13.741643905639648] [-4.0176100730895996:4.3569445610046387] [-3.2395031452178955:1.3196017742156982] [-0.96532118320465088:5.5847263336181641] [-4.7571511268615723:5.8318781852722168] [-3.4003081321716309:2.4938263893127441] [-0.63596159219741821:13.851826667785645] [-4.0082483291625977:4.2289605140686035] [-2.7109675407409668:1.3892793655395508] [-0.93920701742172241:5.6679220199584961] [-4.7424311637878418:5.7504062652587891] [-2.418736457824707:1.1976226568222046] [-0.6364753246307373:14.389395713806152] [-4.9985089302062988:6.3005733489990234] [-10.667877197265625:9.5878887176513672] [-3.407954216003418:1.8871597051620483] [-4.8819303512573242:5.2511906623840332] [-6.3556733131408691:5.6371850967407227] [-2.2309763431549072:10.686056137084961] [-5.3655309677124023:5.2145810127258301] [-4.7468733787536621:3.741779088973999] [-5.6364636421203613:19.767389297485352] [-5.4004888534545898:5.5839152336120605] [-3.6928236484527588:3.0632693767547607] [-12.113165855407715:23.247493743896484] [-4.5111021995544434:5.761012077331543] [-2.7610445022583008:2.872600793838501] [-15.202096939086914:19.62449836730957] [-3.6411793231964111:4.9536852836608887] [-2.6843488216400146:2.4366137981414795] [-13.379972457885742:15.743343353271484] [-2.8069992065429688:4.7749066352844238] [-2.1242403984069824:1.9236390590667725] [-10.870261192321777:12.266063690185547] [-2.8630411624908447:2.8134560585021973] [-1.616212010383606:1.6977355480194092] [-10.165748596191406:6.9829273223876953] [-9.8736362457275391:9.8565139770507812] [-10.796566009521484:6.7187676429748535] [-9.8712730407714844:9.2837505340576172] [-9.8360109329223633:6.5402169227600098] [-9.8578090667724609:9.0733203887939453] [-8.7002992630004883:6.0006961822509766] [-9.8290195465087891:8.371455192565918] [-7.3572444915771484:6.1283550262451172] [-9.0538825988769531:7.3428258895874023] [-6.496098518371582:6.1881179809570312] [-8.7670049667358398:7.16650390625] [-5.4695553779602051:5.8695902824401855] [-8.1126022338867188:6.4743199348449707] [-13.684636116027832:12.790207862854004] [-9.8451547622680664:9.8377656936645508] [-9.2178840637207031:9.1727371215820312] [-11.84961986541748:12.756646156311035] [-13.715543746948242:10.025251388549805] [-9.8273658752441406:9.2440309524536133] [-8.65618896484375:9.0415058135986328] [-11.51254940032959:12.860817909240723] [-12.573543548583984:7.6320400238037109] [-9.8059501647949219:8.440739631652832] [-8.0697050094604492:8.6929969787597656] [-11.84614086151123:13.456037521362305] [-10.597212791442871:6.737755298614502] [-8.6983728408813477:6.9662127494812012] [-8.4805994033813477:9.185394287109375] [-10.582818031311035:12.831790924072266] [-7.7379159927368164:5.1276082992553711] [-7.1763215065002441:5.1931824684143066] [-7.6592974662780762:9.3368330001831055] [-10.225136756896973:9.3697290420532227] [-6.003018856048584:4.3164243698120117] [-6.0871944427490234:4.1540584564208984] [-6.580380916595459:7.5301032066345215] [-10.545862197875977:7.9235143661499023] [-4.2585849761962891:3.4600367546081543] [-5.2258443832397461:3.664142370223999] [-5.8169841766357422:5.9464545249938965] [-9.7795095443725586:8.1203718185424805] [-12.198443412780762:14.392043113708496] [-9.819890022277832:9.8144149780273438] [-9.2190895080566406:8.1853389739990234] [-12.0552978515625:13.683658599853516] [-13.798640251159668:9.7548723220825195] [-9.4088354110717773:8.1219406127929688] [-8.4720478057861328:8.4528131484985352] [-12.583788871765137:13.888071060180664] [-13.48069953918457:7.140164852142334] [-8.2290744781494141:6.339515209197998] [-8.0249872207641602:8.4271945953369141] [-11.501242637634277:13.774724006652832] [-12.137128829956055:4.9889559745788574] [-7.2099380493164062:5.3044662475585938] [-7.1200838088989258:7.8470053672790527] [-10.172507286071777:12.822272300720215] [-10.143673896789551:3.9321625232696533] [-7.6092419624328613:5.4012746810913086] [-7.6053738594055176:6.5048255920410156] [-7.7207145690917969:10.229445457458496] [-8.9323110580444336:3.4324748516082764] [-6.8009939193725586:5.0492820739746094] [-7.4776396751403809:5.7261714935302734] [-7.9032912254333496:9.4944181442260742] [-7.3896470069885254:2.9630990028381348] [-5.6527118682861328:4.2520637512207031] [-6.7505292892456055:5.3904504776000977] [-7.9425311088562012:9.7670774459838867] [-11.644662857055664:9.6099691390991211] [-9.7545108795166016:9.7484407424926758] [-9.6728372573852539:8.2971229553222656] [-13.874567985534668:14.060575485229492] [-8.7762517929077148:6.2438826560974121] [-9.7263355255126953:9.7159347534179688] [-10.05941104888916:8.752812385559082] [-12.686050415039062:13.464110374450684] [-6.9010639190673828:4.3399662971496582] [-9.698735237121582:5.8700799942016602] [-9.7632064819335938:8.9520273208618164] [-13.253209114074707:11.776810646057129] [-6.443422794342041:4.3426380157470703] [-9.4069538116455078:4.4070887565612793] [-9.1756706237792969:8.2877397537231445] [-10.805683135986328:13.440334320068359] [-5.0944147109985352:4.1105527877807617] [-7.0752859115600586:4.3317375183105469] [-9.0912446975708008:6.3726000785827637] [-9.6422643661499023:10.805699348449707] [-4.9806222915649414:3.6088519096374512] [-5.5940823554992676:3.9295403957366943] [-8.2376117706298828:5.446263313293457] [-8.8252782821655273:8.8115024566650391] [-4.339104175567627:2.7600035667419434] [-4.5573644638061523:3.2967300415039062] [-6.9861617088317871:4.533390998840332] [-8.075139045715332:8.2361516952514648] [-11.940196990966797:12.371355056762695] [-9.8456058502197266:9.8511753082275391] [-9.6309413909912109:11.434597015380859] [-12.521209716796875:13.754341125488281] [-14.242569923400879:9.5059213638305664] [-9.8287372589111328:9.8376245498657227] [-9.2668342590332031:8.5489978790283203] [-12.302144050598145:13.046399116516113] [-13.736581802368164:9.1506719589233398] [-9.8030643463134766:9.8151435852050781] [-8.7547359466552734:9.085566520690918] [-11.826578140258789:12.895183563232422] [-11.435138702392578:7.6824383735656738] [-9.7590217590332031:9.7753686904907227] [-8.2378044128417969:8.6652307510375977] [-11.032069206237793:13.126523971557617] [-8.7506542205810547:7.2644639015197754] [-8.3439254760742188:8.9908123016357422] [-8.3937320709228516:7.7428035736083984] [-8.6091423034667969:12.267499923706055] [-7.4979720115661621:6.3383440971374512] [-7.1317329406738281:6.9358549118041992] [-7.2756972312927246:7.0967011451721191] [-8.2324886322021484:9.3540916442871094] [-6.0561275482177734:5.2264471054077148] [-5.5436677932739258:5.5950918197631836] [-6.4227466583251953:6.4483556747436523] [-7.3049802780151367:7.2066121101379395] [-9.6201229095458984:29.725496292114258] [-16.339599609375:25.806102752685547] [-24.55323600769043:185.59022521972656] [-4.3004875183105469:4.3340306282043457] [-29.152717590332031:15.208813667297363] [-2.2488002777099609:2.1910605430603027] [-43.504196166992188:22.479509353637695] [-5.7734613418579102:5.7389950752258301] [-1.6682024002075195:4.7203998565673828] [-3.373499870300293:5.8628988265991211] [-6.2071824073791504:6.2187542915344238] [-6.1575255393981934:4.8549332618713379] [-5.8105969429016113:6.2108845710754395] [-8.6002368927001953:7.1388893127441406] [-4.2035040855407715:4.5981559753417969] [-4.4575071334838867:5.6645326614379883] [-2.98775315284729:2.2787070274353027] [-7.6552791595458984:9.8687925338745117] [-3.0402045249938965:3.2165265083312988] [-4.5033283233642578:3.9727630615234375] [-2.0581603050231934:3.1778976917266846] [-0.68968868255615234:34.856159210205078] [-0.77140277624130249:30.043006896972656] [-0.84078431129455566:22.019569396972656] [-0.92642849683761597:14.874222755432129] [-1.2121331691741943:8.5236396789550781] [-1.4960014820098877:5.8897180557250977] [-1.7985477447509766:4.5076994895935059] [-3.1892740726470947:4.2634248733520508] [-5.402806282043457:4.5470232963562012] [-0.016531363129615784:248.65234375] [-0.10855931043624878:137.56449890136719] [-0.7035595178604126:1.5229432582855225] [-0.71756488084793091:1.5535835027694702] [-0.73175162076950073:1.5846807956695557] [-0.751270592212677:1.6277276277542114] [-0.80568307638168335:1.7651921510696411] [-0.87792676687240601:1.943855881690979] [-1.0665299892425537:2.0930397510528564] [0.0030000000260770321:963.7459716796875] [0:25307.70703125] [-0.99991697072982788:0.99990940093994141] [-0.97179132699966431:0.94005739688873291] [0:1641936.375] [0:1.0000001192092896] [0:10.138903617858887]
tree_sizes=2757

Tree=0
num_leaves=31
num_cat=0
split_feature=298 638 784 282 766 291 742 569 591 581 92 370 220 779 596 335 377 389 423 171 580 508 537 50 83 616 656 369 572 341
split_gain=731.907 518.67 367.399 488.46 227.47 1344.75 228.251 210.179 138.321 214.523 150.117 129.493 115.743 109.06 76.6418 81.5587 74.8607 87.725 81.7915 90.1169 126.263 183.092 177.026 123.369 86.1629 79.7746 68.2867 62.3751 61.7079 49.2905
threshold=3.2413953542709355 4.7558605670928964 2.0693398714065556 0.1184930168092251 1.5994136333465578 0.60636022686958324 -4.0832204818725577 3.7008376121521001 1.8447958230972292 0.1839408949017525 0.08785624057054521 0.30938102304935461 -4.8849282264709464 -0.71730482578277577 -0.097977198660373674 2.121620893478394 0.68737223744392406 -0.41926684975624079 -1.6869068741798399 -0.46061751246452326 -1.3026236295700071 0.89497491717338573 -0.21367260813713071 -0.063435871154069887 -0.40926177799701685 -1.5086696743965147 -1.2758737802505491 -1.3592560887336729 -0.36727155745029444 0.96904864907264721
decision_type=2 2 2 2 2 2 2 2 2 2 2 2 2 2 2 2 2 2 2 2 2 2 2 2 2 2 2 2 2 2
left_child=1 2 4 -4 6 -6 -1 8 12 -10 11 -11 -8 -12 -7 -16 17 -14 27 20 21 22 -20 -24 26 -18 -22 -19 -21 -26
right_child=-2 -3 3 -5 5 14 7 -9 9 10 13 -13 16 -15 15 -17 25 18 19 28 24 -23 23 -25 29 -27 -28 -29 -30 -31
leaf_value=2.7948775893398503 2.8244006240720712 2.8152266516470177 2.7717749426734701 2.8282831352839155 2.8325396817612392 2.7792399114118513 2.7843360444455625 2.7960672747489754 2.7629620729437123 2.8004457726156464 2.7849992908669376 2.7711591590733122 2.7619349819286949 2.7665795840259952 2.7626989248974723 2.7824168177226465 2.7780801558686483 2.770972521727221 2.7684391491527913 2.7691762971854161 2.782552700069048 2.7652591865987457 2.8006121528281653 2.7718732469659999 2.7651339387873008 2.760612108599974 2.7646014249900657 2.7920419565895478 2.7624839600215405 2.7792609071822953
leaf_weight=110 82 83 159 80 136 191 130 87 428 184 187 86 965 322 570 80 101 128 169 912 232 304 221 81 1633 1160 112 80 1428 88
leaf_count=110 82 83 159 80 136 191 130 87 428 184 187 86 965 322 570 80 101 128 169 912 232 304 221 81 1633 1160 112 80 1428 88
internal_value=2.77109 2.77057 2.77012 2.79365 2.76952 2.7786 2.76854 2.76817 2.76784 2.7741 2.78027 2.79177 2.76686 2.77362 2.76865 2.76539 2.76653 2.76743 2.76845 2.76794 2.77035 2.77714 2.78472 2.79343 2.76777 2.7621 2.77667 2.78021 2.76505 2.76594
internal_weight=10529 10447 10364 239 10125 977 9148 9038 8951 1207 779 270 7744 509 841 650 7614 6353 5388 5180 2840 775 471 302 2065 1261 344 208 2340 1721
internal_count=10529 10447 10364 239 10125 977 9148 9038 8951 1207 779 270 7744 509 841 650 7614 6353 5388 5180 2840 775 471 302 2065 1261 344 208 2340 1721
is_linear=0
shrinkage=1


end of trees

feature_importances:
X46=1
X79=1
X88=1
X167=1
X216=1
X278=1
X287=1
X294=1
X331=1
X337=1
X365=1
X366=1
X373=1
X385=1
X419=1
X504=1
X533=1
X565=1
X568=1
X576=1
X577=1
X587=1
X592=1
X612=1
X634=1
X652=1
X738=1
X762=1
X775=1
X780=1

parameters:
[boosting: gbdt]
[objective: regression]
[metric: rmse]
[tree_learner: serial]
[device_type: cpu]
[data_sample_strategy: bagging]
[data: ]
[valid: ]
[num_iterations: 1500]
[learning_rate: 0.02]
[num_leaves: 31]
[num_threads: 0]
[seed: 42]
[deterministic: 0]
[force_col_wise: 0]
[force_row_wise: 0]
[histogram_pool_size: -1]
[max_depth: -1]
[min_data_in_leaf: 80]
[min_sum_hessian_in_leaf: 0.001]
[bagging_fraction: 0.9]
[pos_bagging_fraction: 1]
[neg_bagging_fraction: 1]
[bagging_freq: 1]
[bagging_seed: 400]
[bagging_by_query: 0]
[feature_fraction: 0.8]
[feature_fraction_bynode: 1]
[feature_fraction_seed: 30056]
[extra_trees: 0]
[extra_seed: 12879]
[early_stopping_round: 0]
[early_stopping_min_delta: 0]
[first_metric_only: 0]
[max_delta_step: 0]
[lambda_l1: 0]
[lambda_l2: 20]
[linear_lambda: 0]
[min_gain_to_split: 0]
[drop_rate: 0.1]
[max_drop: 50]
[skip_drop: 0.5]
[xgboost_dart_mode: 0]
[uniform_drop: 0]
[drop_seed: 17869]
[top_rate: 0.2]
[other_rate: 0.1]
[min_data_per_group: 100]
[max_cat_threshold: 32]
[cat_l2: 10]
[cat_smooth: 10]
[max_cat_to_onehot: 4]
[top_k: 20]
[monotone_constraints: ]
[monotone_constraints_method: basic]
[monotone_penalty: 0]
[feature_contri: ]
[forcedsplits_filename: ]
[refit_decay_rate: 0.9]
[cegb_tradeoff: 1]
[cegb_penalty_split: 0]
[cegb_penalty_feature_lazy: ]
[cegb_penalty_feature_coupled: ]
[path_smooth: 0]
[interaction_constraints: ]
[verbosity: -1]
[saved_feature_importance_type: 0]
[use_quantized_grad: 0]
[num_grad_quant_bins: 4]
[quant_train_renew_leaf: 0]
[stochastic_rounding: 1]
[linear_tree: 0]
[max_bin: 255]
[max_bin_by_feature: ]
[min_data_in_bin: 3]
[bin_construct_sample_cnt: 200000]
[data_random_seed: 175]
[is_enable_sparse: 1]
[enable_bundle: 1]
[use_missing: 1]
[zero_as_missing: 0]
[feature_pre_filter: 1]
[pre_partition: 0]
[two_round: 0]
[header: 0]
[label_column: ]
[weight_column: ]
[group_column: ]
[ignore_column: ]
[categorical_feature: ]
[forcedbins_filename: ]
[precise_float_parser: 0]
[parser_config_file: ]
[objective_seed: 16083]
[num_class: 1]
[is_unbalance: 0]
[scale_pos_weight: 1]
[sigmoid: 1]
[boost_from_average: 1]
[reg_sqrt: 0]
[alpha: 0.9]
[fair_c: 1]
[poisson_max_delta_step: 0.7]
[tweedie_variance_power: 1.5]
[lambdarank_truncation_level: 30]
[lambdarank_norm: 1]
[label_gain: ]
[lambdarank_position_bias_regularization: 0]
[eval_at: ]
[multi_error_top_k: 1]
[auc_mu_weights: ]
[num_machines: 1]
[local_listen_port: 12400]
[time_out: 120]
[machine_list_filename: ]
[machines: ]
[gpu_platform_id: -1]
[gpu_device_id: -1]
[gpu_use_dp: 0]
[num_gpu: 1]

end of parameters

pandas_categorical:[]
